weight_set_ID,in_node_ID,out_node_ID,weight
0,0,0,-3.175337553024292
0,0,1,-0.4235032796859741
0,0,2,-3.403935194015503
0,0,3,-5.034811496734619
0,0,4,-2.603888750076294
0,0,5,-5.269245624542236
0,0,6,-1.9412832260131836
0,0,7,-8.852038383483887
0,0,8,-2.4269635677337646
0,0,9,-8.741061210632324
0,0,10,-2.713210105895996
0,0,11,-8.967462539672852
0,0,12,-0.05374017357826233
0,0,13,-3.3525030612945557
0,0,14,-2.5301599502563477
0,0,15,-3.161228656768799
0,0,16,-0.07925423979759216
0,0,17,-5.018679618835449
0,0,18,-3.0335237979888916
0,0,19,-2.5374252796173096
0,0,20,-2.5622308254241943
0,0,21,-2.5603151321411133
0,0,22,-0.07661518454551697
0,0,23,-2.7717154026031494
0,0,24,-2.584742546081543
0,0,25,-2.9202280044555664
0,0,26,-2.629856824874878
0,0,27,-8.862085342407227
0,0,28,-2.3243470191955566
0,0,29,0.0068898797035217285
0,0,30,-6.274402618408203
0,0,31,-3.152812957763672
0,0,32,-2.7094645500183105
0,0,33,-0.42850998044013977
0,0,34,-1.9082847833633423
0,0,35,-2.1621994972229004
0,0,36,-2.7894411087036133
0,0,37,-3.06001615524292
0,0,38,-5.126826763153076
0,0,39,-0.007667183876037598
0,0,40,-3.0804738998413086
0,0,41,-0.3791143298149109
0,0,42,-8.848215103149414
0,0,43,-0.085987389087677
0,0,44,-0.259299099445343
0,0,45,-2.603043556213379
0,0,46,-3.139577627182007
0,0,47,-2.9638843536376953
0,0,48,-3.9059743881225586
0,0,49,-8.799430847167969
0,0,50,-8.034595489501953
0,0,51,-3.4248077869415283
0,0,52,-0.27161651849746704
0,0,53,-5.100764274597168
0,0,54,-3.092261791229248
0,0,55,-3.1150152683258057
0,0,56,-2.2150776386260986
0,0,57,-2.730808973312378
0,0,58,-3.258758068084717
0,0,59,-8.7087984085083
0,0,60,-5.079852104187012
0,0,61,-2.6353487968444824
0,0,62,-3.159614324569702
0,0,63,-3.13676381111145
0,0,64,-5.06192684173584
0,0,65,-8.857309341430664
0,0,66,-3.327789545059204
0,0,67,-0.12740910053253174
0,0,68,-3.042515754699707
0,0,69,-2.534634828567505
0,0,70,-0.4238992929458618
0,0,71,-5.174090385437012
0,0,72,-1.9457710981369019
0,0,73,-3.2058331966400146
0,0,74,-0.15522843599319458
0,0,75,-2.56791090965271
0,0,76,-2.20009708404541
0,0,77,-2.549804210662842
0,0,78,-0.08946064114570618
0,0,79,-6.340590476989746
0,0,80,-0.032689809799194336
0,0,81,-4.173835277557373
0,0,82,-2.8181312084198
0,0,83,-2.3158440589904785
0,0,84,-3.1429009437561035
0,0,85,-2.74198317527771
0,0,86,-2.6391685009002686
0,0,87,-6.140774726867676
0,0,88,-8.0679931640625
0,0,89,-2.380234956741333
0,0,90,-2.1610543727874756
0,0,91,-2.597073793411255
0,0,92,-2.302067756652832
0,0,93,-0.1666521430015564
0,0,94,-6.07646369934082
0,0,95,-3.339515209197998
0,0,96,-4.109992027282715
0,0,97,-0.43249818682670593
0,0,98,-2.847452163696289
0,0,99,-2.127711772918701
0,0,100,-2.776677370071411
0,0,101,-1.862951636314392
0,0,102,-2.559931516647339
0,0,103,-0.03816783428192139
0,0,104,-2.0926098823547363
0,0,105,-3.2390899658203125
0,0,106,-2.4251880645751953
0,0,107,-3.2553110122680664
0,0,108,-10.695094108581543
0,0,109,-8.195635795593262
0,0,110,-0.40807196497917175
0,0,111,-2.6357600688934326
0,0,112,-2.6615536212921143
0,0,113,-3.103123188018799
0,0,114,-0.22503294050693512
0,0,115,-3.0431621074676514
0,0,116,-2.665760040283203
0,0,117,-0.2602280378341675
0,0,118,-2.339397668838501
0,0,119,-3.94524884223938
0,0,120,-0.26867228746414185
0,0,121,-4.056787490844727
0,0,122,-2.3540732860565186
0,0,123,-8.791572570800781
0,0,124,-8.894526481628418
0,0,125,-2.508798360824585
0,0,126,-0.02012401819229126
0,0,127,-2.9419775009155273
0,0,128,-2.553715467453003
0,0,129,-2.345582962036133
0,0,130,-8.203232765197754
0,0,131,-2.860199213027954
0,0,132,-0.3581079840660095
0,0,133,-1.9623054265975952
0,0,134,-2.7446165084838867
0,0,135,-2.147836208343506
0,0,136,-2.794800043106079
0,0,137,-2.986992120742798
0,0,138,-4.037644863128662
0,0,139,-0.3454481363296509
0,0,140,0.0014773309230804443
0,0,141,-2.6042003631591797
0,0,142,-4.204858303070068
0,0,143,-2.9806969165802
0,0,144,-2.0915606021881104
0,0,145,-2.9558682441711426
0,0,146,-2.0450236797332764
0,0,147,-0.43053728342056274
0,0,148,-0.08243802189826965
0,0,149,-7.91383171081543
0,0,150,-0.2170492559671402
0,0,151,-3.039644241333008
0,0,152,-8.896629333496094
0,0,153,-2.0718283653259277
0,0,154,0.026095420122146606
0,0,155,-2.107198715209961
0,0,156,-2.546236515045166
0,0,157,-0.3346841335296631
0,0,158,-2.777249813079834
0,0,159,-2.470953941345215
0,0,160,-0.12863656878471375
0,0,161,-3.213886022567749
0,0,162,-0.17618581652641296
0,0,163,-0.4351532459259033
0,0,164,-2.7260735034942627
0,0,165,-2.7144851684570312
0,0,166,-15.830191612243652
0,0,167,-5.025516510009766
0,0,168,-2.6078081130981445
0,0,169,-8.81599235534668
0,0,170,-2.299628496170044
0,0,171,-0.39642253518104553
0,0,172,-3.3768248558044434
0,0,173,-15.84842300415039
0,0,174,-2.556227207183838
0,0,175,-3.134504795074463
0,0,176,-2.9793314933776855
0,0,177,-2.68294620513916
0,0,178,-3.427654981613159
0,0,179,-0.02453601360321045
0,0,180,-3.3536877632141113
0,0,181,-3.899444103240967
0,0,182,-3.2391574382781982
0,0,183,-9.064005851745605
0,0,184,-2.710733413696289
0,0,185,-3.008237838745117
0,0,186,-2.6113831996917725
0,0,187,-2.448859453201294
0,0,188,-3.0935044288635254
0,0,189,-2.6007182598114014
0,0,190,-0.1676420271396637
0,0,191,-2.299208641052246
0,0,192,-8.959073066711426
0,0,193,-2.0126044750213623
0,0,194,-3.4035260677337646
0,0,195,-0.24769262969493866
0,0,196,-9.002260208129883
0,0,197,-1.867980718612671
0,0,198,-8.76257038116455
0,0,199,-2.45947265625
0,0,200,-2.573876142501831
0,0,201,-0.34580907225608826
0,0,202,-3.1432955265045166
0,0,203,-3.125842571258545
0,0,204,-3.210153818130493
0,0,205,-2.6106362342834473
0,0,206,-2.9800596237182617
0,0,207,-2.3980159759521484
0,0,208,-0.31119388341903687
0,0,209,-8.757969856262207
0,0,210,-5.303603172302246
0,0,211,-2.6078617572784424
0,0,212,-1.9815069437026978
0,0,213,-0.06745532155036926
0,0,214,-0.3344517946243286
0,0,215,-3.3060121536254883
0,0,216,-3.093440055847168
0,0,217,-7.934970855712891
0,0,218,-2.5924956798553467
0,0,219,-3.1547110080718994
0,0,220,-3.4218790531158447
0,0,221,-5.230761528015137
0,0,222,-2.482107400894165
0,0,223,-0.366569459438324
0,0,224,-2.6978166103363037
0,0,225,-8.10010051727295
0,0,226,-0.19387122988700867
0,0,227,-3.108154058456421
0,0,228,-0.3954981565475464
0,0,229,-3.064155101776123
0,0,230,-3.3773372173309326
0,0,231,-3.4111876487731934
0,0,232,-2.701423406600952
0,0,233,-3.3538920879364014
0,0,234,-8.948928833007812
0,0,235,-3.094430923461914
0,0,236,-2.1384220123291016
0,0,237,-2.5800716876983643
0,0,238,-2.0410001277923584
0,0,239,-5.177795886993408
0,0,240,-2.7381911277770996
0,0,241,-2.6007120609283447
0,0,242,-2.786545753479004
0,0,243,-3.3061652183532715
0,0,244,-1.9880303144454956
0,0,245,-2.606029510498047
0,0,246,-2.583724021911621
0,0,247,-8.107394218444824
0,0,248,-0.19147717952728271
0,0,249,-2.6988697052001953
0,0,250,-0.29600274562835693
0,0,251,-0.445147842168808
0,0,252,-2.6562321186065674
0,0,253,-1.9481308460235596
0,0,254,-0.31541627645492554
0,0,255,-0.22067037224769592
0,0,256,-0.3687223792076111
0,0,257,-2.001971483230591
0,0,258,-0.20781049132347107
0,0,259,-2.482283353805542
0,0,260,-8.981691360473633
0,0,261,0.006356030702590942
0,0,262,-2.2696216106414795
0,0,263,-2.6842594146728516
0,0,264,-9.046375274658203
0,0,265,-3.8217883110046387
0,0,266,-0.0299665629863739
0,0,267,-15.856734275817871
0,0,268,-2.530632495880127
0,0,269,-0.38261115550994873
0,0,270,-2.845881462097168
0,0,271,-0.3777821660041809
0,0,272,-1.9946035146713257
0,0,273,-3.3953094482421875
0,0,274,-3.8616719245910645
0,0,275,-3.297618865966797
0,0,276,-4.799692153930664
0,0,277,-3.1845693588256836
0,0,278,-1.876875638961792
0,0,279,-0.2240419238805771
0,0,280,0.02170354127883911
0,0,281,-3.1126017570495605
0,0,282,-0.2514561414718628
0,0,283,-0.2777816653251648
0,0,284,-0.30998432636260986
0,0,285,-8.7660551071167
0,0,286,-2.0840303897857666
0,0,287,-3.4344844818115234
0,0,288,-0.3067040741443634
0,0,289,-1.9923423528671265
0,0,290,-8.794416427612305
0,0,291,-2.892915964126587
0,0,292,-9.068489074707031
0,0,293,-6.209696292877197
0,0,294,-4.3635430335998535
0,0,295,-9.071949005126953
0,0,296,-0.129744291305542
0,0,297,-2.2574257850646973
0,0,298,-2.2101409435272217
0,0,299,-0.011640727519989014
0,0,300,-2.0847105979919434
0,0,301,-2.597368001937866
0,0,302,-3.4022364616394043
0,0,303,-2.6020402908325195
0,0,304,-0.2141391634941101
0,0,305,-8.10495376586914
0,0,306,-5.173304557800293
0,0,307,-8.137880325317383
0,0,308,-4.803123474121094
0,0,309,-2.248134136199951
0,0,310,-2.5699832439422607
0,0,311,-9.057107925415039
0,0,312,-0.32009363174438477
0,0,313,-2.8925960063934326
0,0,314,-8.969446182250977
0,0,315,-3.4186716079711914
0,0,316,-8.937125205993652
0,0,317,-1.917312741279602
0,0,318,-3.3837616443634033
0,0,319,-2.413604497909546
0,0,320,-0.13616639375686646
0,0,321,0.011350125074386597
0,0,322,-0.07524147629737854
0,0,323,-2.82155704498291
0,0,324,-0.22842422127723694
0,0,325,-9.056992530822754
0,0,326,-0.15649384260177612
0,0,327,-2.3796722888946533
0,0,328,-3.893247604370117
0,0,329,-2.8163795471191406
0,0,330,-0.31716614961624146
0,0,331,-0.09339666366577148
0,0,332,-3.209624767303467
0,0,333,-2.4870083332061768
0,0,334,-2.0113651752471924
0,0,335,-8.938708305358887
0,0,336,-0.07923471927642822
0,0,337,-0.3858962059020996
0,0,338,-0.26381075382232666
0,0,339,-2.2023792266845703
0,0,340,-2.0490548610687256
0,0,341,-2.35663104057312
0,0,342,-4.082693099975586
0,0,343,-0.21422302722930908
0,0,344,-0.22905245423316956
0,0,345,-2.630211591720581
0,0,346,-8.153291702270508
0,0,347,-4.694144248962402
0,0,348,-2.151482582092285
0,0,349,-0.06309524178504944
0,0,350,-3.941689968109131
0,0,351,-2.0626959800720215
0,0,352,-1.916770577430725
0,0,353,-0.3466290235519409
0,0,354,-2.573725461959839
0,0,355,-2.45723032951355
0,0,356,-2.5157182216644287
0,0,357,-2.5998477935791016
0,0,358,-0.10235247015953064
0,0,359,-1.9924110174179077
0,0,360,-2.660813093185425
0,0,361,-1.9226489067077637
0,0,362,-8.80084228515625
0,0,363,-0.25839102268218994
0,0,364,-8.902706146240234
0,0,365,-2.0045454502105713
0,0,366,-3.2376787662506104
0,0,367,-2.969237804412842
0,0,368,-3.4426727294921875
0,0,369,-0.14321836829185486
0,0,370,-2.9730944633483887
0,0,371,-0.22958600521087646
0,0,372,-2.219367742538452
0,0,373,-2.5262415409088135
0,0,374,-3.3974545001983643
0,0,375,-6.449671745300293
0,0,376,-3.346228837966919
0,0,377,-1.9001944065093994
0,0,378,-2.1185343265533447
0,0,379,-3.9824702739715576
0,0,380,-0.369295209646225
0,0,381,-3.0878429412841797
0,0,382,-3.2116804122924805
0,0,383,-2.7912416458129883
0,0,384,-3.319347381591797
0,0,385,-8.80282211303711
0,0,386,-4.078147888183594
0,0,387,-0.019280463457107544
0,0,388,-2.5844430923461914
0,0,389,-2.4377071857452393
0,0,390,-8.932029724121094
0,0,391,-2.190783739089966
0,0,392,-0.21115198731422424
0,0,393,-0.4410216808319092
0,0,394,-0.27237313985824585
0,0,395,-0.23362934589385986
0,0,396,-0.0816076397895813
0,0,397,-3.0651803016662598
0,0,398,-0.22291074693202972
0,0,399,-3.1757993698120117
0,0,400,-2.550699472427368
0,0,401,-0.1951511800289154
0,0,402,-0.27008140087127686
0,0,403,-2.5587520599365234
0,0,404,-2.6861138343811035
0,0,405,-2.6049318313598633
0,0,406,-0.11281472444534302
0,0,407,-2.559957504272461
0,0,408,-6.446590900421143
0,0,409,-0.35018235445022583
0,0,410,-0.09511822462081909
0,0,411,-2.680746078491211
0,0,412,-2.160905122756958
0,0,413,-0.23228801786899567
0,0,414,0.007448822259902954
0,0,415,-2.861037254333496
0,0,416,-2.612077236175537
0,0,417,-0.20096859335899353
0,0,418,-2.007666826248169
0,0,419,-0.005398273468017578
0,0,420,-3.340475082397461
0,0,421,-8.92441177368164
0,0,422,-2.1109559535980225
0,0,423,-3.0908286571502686
0,0,424,-0.13407310843467712
0,0,425,-1.2470401525497437
0,0,426,-0.03814953565597534
0,0,427,-2.817749500274658
0,0,428,-3.350533962249756
0,0,429,-3.8964457511901855
0,0,430,-6.230795860290527
0,0,431,-0.4190285801887512
0,0,432,-2.241102457046509
0,0,433,-1.3266303539276123
0,0,434,-2.2582433223724365
0,0,435,-8.919464111328125
0,0,436,-2.6323554515838623
0,0,437,-2.0800881385803223
0,0,438,-2.9527952671051025
0,0,439,-0.26661258935928345
0,0,440,-2.763970136642456
0,0,441,-0.30337077379226685
0,0,442,-3.363093852996826
0,0,443,-3.124044895172119
0,0,444,-2.6559696197509766
0,0,445,-1.5376302003860474
0,0,446,-0.2732793688774109
0,0,447,0.02791610360145569
0,0,448,-4.251602649688721
0,0,449,-2.2744297981262207
0,0,450,-0.43604424595832825
0,0,451,-2.148754596710205
0,0,452,-0.0025298595428466797
0,0,453,-2.529095411300659
0,0,454,-2.2293624877929688
0,0,455,-5.163992881774902
0,0,456,-3.0347251892089844
0,0,457,-2.5974936485290527
0,0,458,-0.057088643312454224
0,0,459,-2.186870574951172
0,0,460,-2.648181915283203
0,0,461,-3.9326562881469727
0,0,462,-5.2485809326171875
0,0,463,-2.6207144260406494
0,0,464,-3.043811798095703
0,0,465,-0.2859486937522888
0,0,466,-6.143200397491455
0,0,467,-2.5935351848602295
0,0,468,-2.1890881061553955
0,0,469,-8.980205535888672
0,0,470,0.002872973680496216
0,0,471,-3.4344635009765625
0,0,472,-3.399597644805908
0,0,473,-2.2830257415771484
0,0,474,-8.201395988464355
0,0,475,-0.20916509628295898
0,0,476,-8.938298225402832
0,0,477,-0.3475375175476074
0,0,478,-2.9732553958892822
0,0,479,-0.42427220940589905
0,0,480,-2.842050790786743
0,0,481,-2.471435546875
0,0,482,-2.0759313106536865
0,0,483,-2.1114704608917236
0,0,484,-0.15573948621749878
0,0,485,-5.159698009490967
0,0,486,-2.7496273517608643
0,0,487,-8.867498397827148
0,0,488,-2.8083393573760986
0,0,489,-3.405524730682373
0,0,490,-0.13987916707992554
0,0,491,-3.3043344020843506
0,0,492,-3.386296510696411
0,0,493,-2.0747246742248535
0,0,494,-0.23854711651802063
0,0,495,-3.2357630729675293
0,0,496,-2.7197272777557373
0,0,497,-4.103995323181152
0,0,498,-8.010311126708984
0,0,499,-3.2049460411071777
0,0,500,-8.898408889770508
0,0,501,-3.056946277618408
0,0,502,-3.4340362548828125
0,0,503,-2.576864242553711
0,0,504,-0.14974743127822876
0,0,505,-0.2176312655210495
0,0,506,-8.87020492553711
0,0,507,-15.839559555053711
0,0,508,-8.996235847473145
0,0,509,-1.9435601234436035
0,0,510,-1.9316288232803345
0,0,511,-2.6895666122436523
0,1,0,-2.6822288036346436
0,1,1,-0.3967832624912262
0,1,2,-2.886479139328003
0,1,3,-5.742795467376709
0,1,4,-2.075500965118408
0,1,5,-5.59354305267334
0,1,6,-1.9886767864227295
0,1,7,-9.453012466430664
0,1,8,-2.0715200901031494
0,1,9,-9.55202579498291
0,1,10,-2.6139514446258545
0,1,11,-9.31829833984375
0,1,12,-0.10715934634208679
0,1,13,-3.0011632442474365
0,1,14,-2.180880069732666
0,1,15,-2.6131348609924316
0,1,16,-0.26722443103790283
0,1,17,-5.743256568908691
0,1,18,-2.5735924243927
0,1,19,-2.087461471557617
0,1,20,-2.2135558128356934
0,1,21,-2.8028063774108887
0,1,22,-0.15527445077896118
0,1,23,-2.7311770915985107
0,1,24,-2.681462287902832
0,1,25,-2.806561231613159
0,1,26,-2.624464511871338
0,1,27,-9.509929656982422
0,1,28,-2.6096079349517822
0,1,29,-0.23587138950824738
0,1,30,-6.726681709289551
0,1,31,-2.8099048137664795
0,1,32,-2.017542600631714
0,1,33,-0.15710708498954773
0,1,34,-1.883100152015686
0,1,35,-2.1541099548339844
0,1,36,-2.700605869293213
0,1,37,-2.9057633876800537
0,1,38,-5.707895278930664
0,1,39,-0.36155927181243896
0,1,40,-2.6891703605651855
0,1,41,-0.12519845366477966
0,1,42,-9.438664436340332
0,1,43,-0.21165664494037628
0,1,44,-0.08485838770866394
0,1,45,-2.18682599067688
0,1,46,-2.7022814750671387
0,1,47,-2.9157729148864746
0,1,48,-4.344766139984131
0,1,49,-9.445760726928711
0,1,50,-8.660064697265625
0,1,51,-2.651047706604004
0,1,52,-0.24480029940605164
0,1,53,-5.742105960845947
0,1,54,-2.7404513359069824
0,1,55,-2.7999930381774902
0,1,56,-2.2522454261779785
0,1,57,-2.0538551807403564
0,1,58,-2.7954487800598145
0,1,59,-9.539134979248047
0,1,60,-5.744944095611572
0,1,61,-2.9573111534118652
0,1,62,-2.636335611343384
0,1,63,-2.6130709648132324
0,1,64,-5.706359386444092
0,1,65,-9.485315322875977
0,1,66,-3.704162836074829
0,1,67,-0.15346261858940125
0,1,68,-2.9611291885375977
0,1,69,-2.182447910308838
0,1,70,-0.03573748469352722
0,1,71,-5.679983615875244
0,1,72,-2.2333414554595947
0,1,73,-2.6814494132995605
0,1,74,-0.18588224053382874
0,1,75,-1.91667640209198
0,1,76,-2.264453172683716
0,1,77,-2.0862784385681152
0,1,78,-0.4399116039276123
0,1,79,-6.649609565734863
0,1,80,-0.42477846145629883
0,1,81,-4.706086158752441
0,1,82,-2.5997354984283447
0,1,83,-2.1458234786987305
0,1,84,-2.6308982372283936
0,1,85,-2.9684314727783203
0,1,86,-1.982619047164917
0,1,87,-6.858764171600342
0,1,88,-8.630186080932617
0,1,89,-1.9586454629898071
0,1,90,-1.9166254997253418
0,1,91,-2.962275505065918
0,1,92,-2.154742479324341
0,1,93,-0.2617810368537903
0,1,94,-6.89349365234375
0,1,95,-2.5792131423950195
0,1,96,-4.306751251220703
0,1,97,-0.12448084354400635
0,1,98,-2.5634312629699707
0,1,99,-2.238410472869873
0,1,100,-2.6043436527252197
0,1,101,-1.9471912384033203
0,1,102,-2.1257505416870117
0,1,103,-0.36024948954582214
0,1,104,-2.0692100524902344
0,1,105,-2.9760851860046387
0,1,106,-1.9639478921890259
0,1,107,-2.669541358947754
0,1,108,-10.915933609008789
0,1,109,-8.353208541870117
0,1,110,-0.08245301246643066
0,1,111,-2.276125907897949
0,1,112,-1.8845242261886597
0,1,113,-2.7289857864379883
0,1,114,-0.3309052586555481
0,1,115,-2.6828737258911133
0,1,116,-2.9362900257110596
0,1,117,-0.43866419792175293
0,1,118,-2.2296462059020996
0,1,119,-4.330761432647705
0,1,120,-0.0910927951335907
0,1,121,-4.317232608795166
0,1,122,-1.8920671939849854
0,1,123,-9.479618072509766
0,1,124,-9.461688041687012
0,1,125,-1.9303946495056152
0,1,126,-0.193872332572937
0,1,127,-2.9528603553771973
0,1,128,-2.0006260871887207
0,1,129,-2.1270883083343506
0,1,130,-8.267754554748535
0,1,131,-2.791794776916504
0,1,132,-0.07956865429878235
0,1,133,-1.9249062538146973
0,1,134,-2.900357484817505
0,1,135,-1.856069803237915
0,1,136,-2.769721746444702
0,1,137,-2.8618152141571045
0,1,138,-4.311404228210449
0,1,139,-0.42144662141799927
0,1,140,-0.24147900938987732
0,1,141,-2.1647119522094727
0,1,142,-4.681729316711426
0,1,143,-2.717555046081543
0,1,144,-2.2026569843292236
0,1,145,-2.938516139984131
0,1,146,-1.8541258573532104
0,1,147,-0.3356437087059021
0,1,148,-0.242431640625
0,1,149,-8.602627754211426
0,1,150,-0.2596302032470703
0,1,151,-2.8584530353546143
0,1,152,-9.353917121887207
0,1,153,-1.9957165718078613
0,1,154,-0.4324604570865631
0,1,155,-2.030550718307495
0,1,156,-1.9513686895370483
0,1,157,-0.33505818247795105
0,1,158,-2.8339145183563232
0,1,159,-2.1146397590637207
0,1,160,-0.1355282962322235
0,1,161,-2.956780195236206
0,1,162,-0.13764825463294983
0,1,163,-0.2193109095096588
0,1,164,-2.669670581817627
0,1,165,-2.1690096855163574
0,1,166,-16.291353225708008
0,1,167,-5.792154788970947
0,1,168,-2.8365530967712402
0,1,169,-9.448945045471191
0,1,170,-1.9629076719284058
0,1,171,-0.04976266622543335
0,1,172,-2.6013262271881104
0,1,173,-16.300512313842773
0,1,174,-2.819397449493408
0,1,175,-2.8489208221435547
0,1,176,-2.817493438720703
0,1,177,-1.8634840250015259
0,1,178,-2.616975784301758
0,1,179,-0.4323871433734894
0,1,180,-2.641946792602539
0,1,181,-4.3694634437561035
0,1,182,-2.737769365310669
0,1,183,-9.421551704406738
0,1,184,-2.7579736709594727
0,1,185,-2.7884461879730225
0,1,186,-2.1402432918548584
0,1,187,-1.9925161600112915
0,1,188,-2.983414649963379
0,1,189,-2.723179817199707
0,1,190,-0.3423705995082855
0,1,191,-2.61869215965271
0,1,192,-9.532894134521484
0,1,193,-2.0876731872558594
0,1,194,-2.926706314086914
0,1,195,-0.2797277569770813
0,1,196,-9.399253845214844
0,1,197,-1.9441049098968506
0,1,198,-9.49755573272705
0,1,199,-2.9193291664123535
0,1,200,-2.1434311866760254
0,1,201,-0.332084059715271
0,1,202,-2.7913317680358887
0,1,203,-2.6578917503356934
0,1,204,-2.7070858478546143
0,1,205,-2.0615339279174805
0,1,206,-2.5719780921936035
0,1,207,-2.142486333847046
0,1,208,-0.1252729296684265
0,1,209,-9.487367630004883
0,1,210,-5.59037971496582
0,1,211,-2.743285894393921
0,1,212,-1.9503496885299683
0,1,213,-0.23386499285697937
0,1,214,-0.36614078283309937
0,1,215,-2.7686049938201904
0,1,216,-2.5807178020477295
0,1,217,-8.624707221984863
0,1,218,-2.6106560230255127
0,1,219,-2.765866756439209
0,1,220,-2.9421725273132324
0,1,221,-5.621773719787598
0,1,222,-1.9161831140518188
0,1,223,-0.24428875744342804
0,1,224,-2.7753002643585205
0,1,225,-8.431117057800293
0,1,226,-0.2604408860206604
0,1,227,-2.6337709426879883
0,1,228,-0.19571372866630554
0,1,229,-2.8968124389648438
0,1,230,-2.9787886142730713
0,1,231,-2.625678300857544
0,1,232,-2.960561752319336
0,1,233,-2.857226848602295
0,1,234,-9.475286483764648
0,1,235,-2.811156988143921
0,1,236,-2.601613759994507
0,1,237,-2.9046854972839355
0,1,238,-2.104374647140503
0,1,239,-5.682044506072998
0,1,240,-2.6439671516418457
0,1,241,-2.895892858505249
0,1,242,-2.6862001419067383
0,1,243,-2.7656424045562744
0,1,244,-2.2087583541870117
0,1,245,-2.901904582977295
0,1,246,-2.6357712745666504
0,1,247,-8.502260208129883
0,1,248,-0.15281766653060913
0,1,249,-2.8200268745422363
0,1,250,-0.3850144147872925
0,1,251,-0.18326646089553833
0,1,252,-2.5822718143463135
0,1,253,-1.970198631286621
0,1,254,-0.23386701941490173
0,1,255,-0.17186763882637024
0,1,256,-0.1533333957195282
0,1,257,-1.9016194343566895
0,1,258,-0.2660788297653198
0,1,259,-2.1426703929901123
0,1,260,-9.450342178344727
0,1,261,-0.14236387610435486
0,1,262,-2.11592173576355
0,1,263,-1.8920553922653198
0,1,264,-9.266512870788574
0,1,265,-4.410813331604004
0,1,266,-0.43849292397499084
0,1,267,-16.19753646850586
0,1,268,-2.913883686065674
0,1,269,-0.15526682138442993
0,1,270,-2.857523202896118
0,1,271,-0.06791386008262634
0,1,272,-2.006645917892456
0,1,273,-2.7520594596862793
0,1,274,-4.3588762283325195
0,1,275,-2.622318744659424
0,1,276,-5.057938575744629
0,1,277,-2.8290812969207764
0,1,278,-2.253830909729004
0,1,279,-0.16867020726203918
0,1,280,-0.3307715654373169
0,1,281,-2.9139277935028076
0,1,282,-0.3755694031715393
0,1,283,-0.05271199345588684
0,1,284,-0.33389681577682495
0,1,285,-9.574075698852539
0,1,286,-2.0647730827331543
0,1,287,-2.8084323406219482
0,1,288,-0.15826630592346191
0,1,289,-1.926660418510437
0,1,290,-9.501496315002441
0,1,291,-2.8699886798858643
0,1,292,-9.43300724029541
0,1,293,-6.753128528594971
0,1,294,-4.49357795715332
0,1,295,-9.368124008178711
0,1,296,-0.2634948492050171
0,1,297,-2.0393388271331787
0,1,298,-1.9585336446762085
0,1,299,-0.11874079704284668
0,1,300,-2.2525386810302734
0,1,301,-2.574944019317627
0,1,302,-2.7287251949310303
0,1,303,-2.812152624130249
0,1,304,-0.06128987669944763
0,1,305,-8.64556884765625
0,1,306,-5.651548385620117
0,1,307,-8.682193756103516
0,1,308,-5.055901527404785
0,1,309,-2.0489046573638916
0,1,310,-1.9870274066925049
0,1,311,-9.334115982055664
0,1,312,-0.41936632990837097
0,1,313,-2.893444299697876
0,1,314,-9.366474151611328
0,1,315,-2.9725842475891113
0,1,316,-9.52354907989502
0,1,317,-1.862206220626831
0,1,318,-2.794597864151001
0,1,319,-2.093050956726074
0,1,320,-0.19273018836975098
0,1,321,-0.4315066337585449
0,1,322,-0.311808705329895
0,1,323,-2.9273648262023926
0,1,324,-0.22718355059623718
0,1,325,-9.307744026184082
0,1,326,-0.175482839345932
0,1,327,-1.9964855909347534
0,1,328,-4.357598304748535
0,1,329,-2.7177228927612305
0,1,330,-0.12638285756111145
0,1,331,-0.35238200426101685
0,1,332,-2.6279687881469727
0,1,333,-2.025247812271118
0,1,334,-2.1602871417999268
0,1,335,-9.496413230895996
0,1,336,-0.18387559056282043
0,1,337,-0.02201610803604126
0,1,338,-0.13131144642829895
0,1,339,-2.2208876609802246
0,1,340,-1.9450236558914185
0,1,341,-2.6712489128112793
0,1,342,-4.326190948486328
0,1,343,-0.15548917651176453
0,1,344,-0.11336436867713928
0,1,345,-2.693197250366211
0,1,346,-8.511173248291016
0,1,347,-5.139796733856201
0,1,348,-1.9163872003555298
0,1,349,-0.2048618644475937
0,1,350,-4.378518104553223
0,1,351,-2.218579053878784
0,1,352,-2.1855709552764893
0,1,353,-0.09915289282798767
0,1,354,-2.252103090286255
0,1,355,-2.1007401943206787
0,1,356,-1.8629150390625
0,1,357,-2.652543544769287
0,1,358,-0.3686407804489136
0,1,359,-1.8527214527130127
0,1,360,-2.0162837505340576
0,1,361,-1.901638388633728
0,1,362,-9.57099437713623
0,1,363,-0.26080775260925293
0,1,364,-9.49167251586914
0,1,365,-2.1725449562072754
0,1,366,-2.7410035133361816
0,1,367,-2.6686627864837646
0,1,368,-2.893331289291382
0,1,369,-0.26332759857177734
0,1,370,-2.732274293899536
0,1,371,-0.40384772419929504
0,1,372,-2.8741092681884766
0,1,373,-2.016510009765625
0,1,374,-2.588675022125244
0,1,375,-6.5670366287231445
0,1,376,-2.8023288249969482
0,1,377,-2.1543822288513184
0,1,378,-2.1003682613372803
0,1,379,-4.381394386291504
0,1,380,-0.38055282831192017
0,1,381,-2.91209077835083
0,1,382,-2.5707530975341797
0,1,383,-2.8416013717651367
0,1,384,-2.6269052028656006
0,1,385,-9.54245376586914
0,1,386,-4.340475559234619
0,1,387,-0.1465141475200653
0,1,388,-2.217453956604004
0,1,389,-1.9941530227661133
0,1,390,-9.333677291870117
0,1,391,-1.9000128507614136
0,1,392,-0.061621129512786865
0,1,393,-0.41191986203193665
0,1,394,-0.1804022192955017
0,1,395,-0.42793506383895874
0,1,396,-0.32424288988113403
0,1,397,-2.931941270828247
0,1,398,-0.438556045293808
0,1,399,-2.576064109802246
0,1,400,-2.201418161392212
0,1,401,-0.24950353801250458
0,1,402,-0.3296128809452057
0,1,403,-2.209829568862915
0,1,404,-2.642012596130371
0,1,405,-1.9133319854736328
0,1,406,-0.26079288125038147
0,1,407,-2.7495691776275635
0,1,408,-6.56795597076416
0,1,409,-0.25099435448646545
0,1,410,-0.40860581398010254
0,1,411,-2.588059186935425
0,1,412,-2.0010974407196045
0,1,413,-0.10118791460990906
0,1,414,-0.29633039236068726
0,1,415,-2.5801022052764893
0,1,416,-2.718104124069214
0,1,417,-0.36708009243011475
0,1,418,-1.8706231117248535
0,1,419,-0.2630240321159363
0,1,420,-2.7270188331604004
0,1,421,-9.487752914428711
0,1,422,-2.112922191619873
0,1,423,-2.948927402496338
0,1,424,-0.3973875939846039
0,1,425,-2.3072993755340576
0,1,426,-0.22009363770484924
0,1,427,-2.9315781593322754
0,1,428,-2.8238837718963623
0,1,429,-4.369190692901611
0,1,430,-6.76382303237915
0,1,431,-0.3346117436885834
0,1,432,-1.9210468530654907
0,1,433,-2.316490650177002
0,1,434,-1.9772624969482422
0,1,435,-9.36963176727295
0,1,436,-2.2679622173309326
0,1,437,-2.260246992111206
0,1,438,-2.672391176223755
0,1,439,-0.03966137766838074
0,1,440,-2.7732338905334473
0,1,441,-0.017401158809661865
0,1,442,-2.5860188007354736
0,1,443,-2.699903726577759
0,1,444,-2.029273748397827
0,1,445,-2.314603567123413
0,1,446,-0.02122148871421814
0,1,447,-0.40389570593833923
0,1,448,-4.555519104003906
0,1,449,-2.091289758682251
0,1,450,-0.10207346081733704
0,1,451,-2.0652077198028564
0,1,452,-0.39076894521713257
0,1,453,-2.246675968170166
0,1,454,-2.2213456630706787
0,1,455,-5.692505359649658
0,1,456,-2.8339242935180664
0,1,457,-2.0899648666381836
0,1,458,-0.16399362683296204
0,1,459,-2.6174559593200684
0,1,460,-1.842313528060913
0,1,461,-4.355250835418701
0,1,462,-6.286463260650635
0,1,463,-2.925414800643921
0,1,464,-2.7122347354888916
0,1,465,-0.27029356360435486
0,1,466,-6.847169876098633
0,1,467,-2.2185604572296143
0,1,468,-2.2159616947174072
0,1,469,-9.543550491333008
0,1,470,-0.3132562041282654
0,1,471,-2.764864444732666
0,1,472,-2.848524570465088
0,1,473,-2.0085716247558594
0,1,474,-8.28434944152832
0,1,475,-0.4032818675041199
0,1,476,-9.478071212768555
0,1,477,-0.057484596967697144
0,1,478,-2.556490421295166
0,1,479,-0.24154281616210938
0,1,480,-2.719578266143799
0,1,481,-1.838354468345642
0,1,482,-1.8422060012817383
0,1,483,-1.9930200576782227
0,1,484,-0.42315244674682617
0,1,485,-5.676867485046387
0,1,486,-2.5847482681274414
0,1,487,-9.440302848815918
0,1,488,-2.8630926609039307
0,1,489,-2.695726156234741
0,1,490,-0.04437461495399475
0,1,491,-2.847612142562866
0,1,492,-2.8072574138641357
0,1,493,-2.083303213119507
0,1,494,-0.43454834818840027
0,1,495,-2.6582300662994385
0,1,496,-2.071194648742676
0,1,497,-4.30920934677124
0,1,498,-8.640471458435059
0,1,499,-2.626060724258423
0,1,500,-9.463411331176758
0,1,501,-2.933151960372925
0,1,502,-2.9447968006134033
0,1,503,-1.8967951536178589
0,1,504,-0.23398087918758392
0,1,505,-0.3229263424873352
0,1,506,-9.447609901428223
0,1,507,-16.24627113342285
0,1,508,-9.364641189575195
0,1,509,-1.9575846195220947
0,1,510,-1.9026596546173096
0,1,511,-2.564095973968506
0,2,0,-3.1268205642700195
0,2,1,-0.20704130828380585
0,2,2,-2.8032302856445312
0,2,3,-5.62172269821167
0,2,4,-2.549494743347168
0,2,5,-5.314830780029297
0,2,6,-2.516772508621216
0,2,7,-8.989336013793945
0,2,8,-2.417398452758789
0,2,9,-9.072029113769531
0,2,10,-2.713899850845337
0,2,11,-9.441642761230469
0,2,12,-0.09662050008773804
0,2,13,-3.1873955726623535
0,2,14,-1.912556529045105
0,2,15,-2.8894424438476562
0,2,16,-0.05639350414276123
0,2,17,-5.286261558532715
0,2,18,-3.4216487407684326
0,2,19,-2.5341522693634033
0,2,20,-1.9745558500289917
0,2,21,-2.799670696258545
0,2,22,-0.3850046396255493
0,2,23,-2.6014621257781982
0,2,24,-2.4667680263519287
0,2,25,-3.242506504058838
0,2,26,-3.284406900405884
0,2,27,-9.460456848144531
0,2,28,-2.4232466220855713
0,2,29,0.0705518126487732
0,2,30,-6.5628533363342285
0,2,31,-3.163348436355591
0,2,32,-2.1600353717803955
0,2,33,-0.12633070349693298
0,2,34,-1.9573687314987183
0,2,35,-2.0620837211608887
0,2,36,-3.019016742706299
0,2,37,-3.289311647415161
0,2,38,-5.891011714935303
0,2,39,0.4077281355857849
0,2,40,-2.6387031078338623
0,2,41,-0.44498515129089355
0,2,42,-9.24756908416748
0,2,43,-0.2624809741973877
0,2,44,0.4124065041542053
0,2,45,-2.1499640941619873
0,2,46,-2.818399429321289
0,2,47,-3.442783832550049
0,2,48,-4.229487895965576
0,2,49,-8.805083274841309
0,2,50,-7.902573108673096
0,2,51,-2.7128984928131104
0,2,52,0.13152241706848145
0,2,53,-5.729867935180664
0,2,54,-3.017192840576172
0,2,55,-3.3257699012756348
0,2,56,-1.942893147468567
0,2,57,-2.455827474594116
0,2,58,-3.3792309761047363
0,2,59,-9.064825057983398
0,2,60,-5.479308128356934
0,2,61,-3.1201536655426025
0,2,62,-2.87746524810791
0,2,63,-3.4434893131256104
0,2,64,-5.341257572174072
0,2,65,-9.300444602966309
0,2,66,-3.59991455078125
0,2,67,-0.2993643879890442
0,2,68,-2.583286762237549
0,2,69,-2.5324156284332275
0,2,70,-0.2530045807361603
0,2,71,-5.872082233428955
0,2,72,-2.339778184890747
0,2,73,-2.657496929168701
0,2,74,-0.31009024381637573
0,2,75,-2.00982928276062
0,2,76,-1.99708092212677
0,2,77,-2.4011940956115723
0,2,78,0.36820268630981445
0,2,79,-6.142598628997803
0,2,80,0.2930196523666382
0,2,81,-4.793196201324463
0,2,82,-2.682765483856201
0,2,83,-1.978736162185669
0,2,84,-3.3496625423431396
0,2,85,-2.7390334606170654
0,2,86,-2.6209466457366943
0,2,87,-6.0687971115112305
0,2,88,-8.007379531860352
0,2,89,-2.0520589351654053
0,2,90,-2.5180325508117676
0,2,91,-2.6958770751953125
0,2,92,-2.6456756591796875
0,2,93,-0.30472907423973083
0,2,94,-6.491922378540039
0,2,95,-2.780862808227539
0,2,96,-4.219114780426025
0,2,97,-0.34682098031044006
0,2,98,-2.672539710998535
0,2,99,-2.2508413791656494
0,2,100,-3.3388803005218506
0,2,101,-1.986978530883789
0,2,102,-2.603447198867798
0,2,103,0.40624189376831055
0,2,104,-2.068213939666748
0,2,105,-2.812739372253418
0,2,106,-2.352292776107788
0,2,107,-2.614656925201416
0,2,108,-10.904582023620605
0,2,109,-7.898916244506836
0,2,110,0.2921929955482483
0,2,111,-2.2244009971618652
0,2,112,-1.858851432800293
0,2,113,-2.9791676998138428
0,2,114,-0.4447843134403229
0,2,115,-3.1141998767852783
0,2,116,-3.3519914150238037
0,2,117,0.17099648714065552
0,2,118,-2.320075273513794
0,2,119,-3.8354411125183105
0,2,120,0.38980185985565186
0,2,121,-4.0171732902526855
0,2,122,-1.8636648654937744
0,2,123,-8.75978946685791
0,2,124,-8.690999031066895
0,2,125,-2.367687940597534
0,2,126,-0.3127250075340271
0,2,127,-3.1580495834350586
0,2,128,-2.156520366668701
0,2,129,-2.6231982707977295
0,2,130,-8.583231925964355
0,2,131,-3.134153127670288
0,2,132,0.3229840397834778
0,2,133,-2.0341744422912598
0,2,134,-2.8878889083862305
0,2,135,-2.690115451812744
0,2,136,-3.129080057144165
0,2,137,-3.445382833480835
0,2,138,-4.3738884925842285
0,2,139,0.19221645593643188
0,2,140,-0.3588498830795288
0,2,141,-2.488187789916992
0,2,142,-4.504517555236816
0,2,143,-3.3905725479125977
0,2,144,-2.704746961593628
0,2,145,-2.598013162612915
0,2,146,-1.8500350713729858
0,2,147,0.4327152967453003
0,2,148,0.1558011770248413
0,2,149,-8.071911811828613
0,2,150,0.239987313747406
0,2,151,-2.631303548812866
0,2,152,-9.145858764648438
0,2,153,-2.3319039344787598
0,2,154,0.2099819779396057
0,2,155,-2.0821921825408936
0,2,156,-2.261160135269165
0,2,157,-0.08562126755714417
0,2,158,-3.14909029006958
0,2,159,-2.6303505897521973
0,2,160,-0.11266970634460449
0,2,161,-2.894589900970459
0,2,162,0.11116135120391846
0,2,163,0.1922197937965393
0,2,164,-2.6117072105407715
0,2,165,-2.199951171875
0,2,166,-15.861222267150879
0,2,167,-5.5677008628845215
0,2,168,-3.146365165710449
0,2,169,-8.755122184753418
0,2,170,-2.2797532081604004
0,2,171,0.37652868032455444
0,2,172,-2.959745407104492
0,2,173,-15.92072868347168
0,2,174,-3.247967004776001
0,2,175,-2.985966920852661
0,2,176,-2.807373046875
0,2,177,-2.064601182937622
0,2,178,-3.1478545665740967
0,2,179,-0.048394739627838135
0,2,180,-2.962843656539917
0,2,181,-4.628048419952393
0,2,182,-3.1832501888275146
0,2,183,-9.386624336242676
0,2,184,-2.613219976425171
0,2,185,-2.945852756500244
0,2,186,-2.1842522621154785
0,2,187,-1.9605852365493774
0,2,188,-2.655871629714966
0,2,189,-2.9559640884399414
0,2,190,-0.2708413600921631
0,2,191,-2.5790579319000244
0,2,192,-9.100874900817871
0,2,193,-2.1036996841430664
0,2,194,-3.212350845336914
0,2,195,0.2743958830833435
0,2,196,-8.697092056274414
0,2,197,-2.681039571762085
0,2,198,-9.069670677185059
0,2,199,-2.952444076538086
0,2,200,-1.8889423608779907
0,2,201,0.22497576475143433
0,2,202,-3.425914764404297
0,2,203,-3.0068178176879883
0,2,204,-3.447293281555176
0,2,205,-2.511143445968628
0,2,206,-3.3366918563842773
0,2,207,-2.3179636001586914
0,2,208,-0.39863839745521545
0,2,209,-9.176304817199707
0,2,210,-5.683373928070068
0,2,211,-2.5670251846313477
0,2,212,-2.132951259613037
0,2,213,-0.35181134939193726
0,2,214,-0.32471394538879395
0,2,215,-2.98728084564209
0,2,216,-2.6873655319213867
0,2,217,-8.013540267944336
0,2,218,-2.877445697784424
0,2,219,-3.1118383407592773
0,2,220,-3.0052947998046875
0,2,221,-5.480755805969238
0,2,222,-2.318051815032959
0,2,223,-0.36620309948921204
0,2,224,-2.62056827545166
0,2,225,-8.570865631103516
0,2,226,0.025946199893951416
0,2,227,-3.081265687942505
0,2,228,0.12253636121749878
0,2,229,-3.1480517387390137
0,2,230,-3.078822612762451
0,2,231,-3.2805211544036865
0,2,232,-3.2187228202819824
0,2,233,-3.081618070602417
0,2,234,-8.805129051208496
0,2,235,-2.8061821460723877
0,2,236,-2.589616537094116
0,2,237,-2.962883472442627
0,2,238,-2.529057741165161
0,2,239,-5.543729305267334
0,2,240,-3.321582794189453
0,2,241,-3.4013006687164307
0,2,242,-3.250882863998413
0,2,243,-3.0445384979248047
0,2,244,-2.078051805496216
0,2,245,-2.8523781299591064
0,2,246,-3.3300347328186035
0,2,247,-7.995190620422363
0,2,248,-0.07050088047981262
0,2,249,-2.7038815021514893
0,2,250,-0.4410460889339447
0,2,251,-0.2899651527404785
0,2,252,-3.4246509075164795
0,2,253,-2.111057758331299
0,2,254,-0.2979646921157837
0,2,255,0.2665272355079651
0,2,256,-0.051713019609451294
0,2,257,-2.719870090484619
0,2,258,-0.2014675885438919
0,2,259,-1.955390214920044
0,2,260,-9.454079627990723
0,2,261,0.22936582565307617
0,2,262,-2.476853132247925
0,2,263,-2.1387064456939697
0,2,264,-8.966802597045898
0,2,265,-3.8774452209472656
0,2,266,-0.4240114986896515
0,2,267,-15.60009479522705
0,2,268,-2.563535213470459
0,2,269,-0.09117275476455688
0,2,270,-2.6544902324676514
0,2,271,-0.0483262836933136
0,2,272,-1.938531517982483
0,2,273,-3.3222994804382324
0,2,274,-4.442559242248535
0,2,275,-2.9800286293029785
0,2,276,-4.788346290588379
0,2,277,-3.4332430362701416
0,2,278,-2.2497575283050537
0,2,279,-0.2665802240371704
0,2,280,-0.08846724033355713
0,2,281,-3.4457340240478516
0,2,282,0.2440055012702942
0,2,283,-0.33675023913383484
0,2,284,-0.4340224862098694
0,2,285,-8.704802513122559
0,2,286,-2.6449272632598877
0,2,287,-3.419358015060425
0,2,288,0.2509167790412903
0,2,289,-2.004260540008545
0,2,290,-9.30240249633789
0,2,291,-2.7934303283691406
0,2,292,-8.884642601013184
0,2,293,-6.926041126251221
0,2,294,-4.616572380065918
0,2,295,-8.99189281463623
0,2,296,0.09060800075531006
0,2,297,-2.451882839202881
0,2,298,-2.6470510959625244
0,2,299,0.21734285354614258
0,2,300,-2.2513744831085205
0,2,301,-3.0528831481933594
0,2,302,-3.1930651664733887
0,2,303,-3.115805149078369
0,2,304,0.2528148889541626
0,2,305,-8.61859130859375
0,2,306,-5.785826683044434
0,2,307,-7.998654365539551
0,2,308,-5.007670879364014
0,2,309,-2.2165606021881104
0,2,310,-2.0536141395568848
0,2,311,-9.180777549743652
0,2,312,0.313448429107666
0,2,313,-2.7723593711853027
0,2,314,-9.052312850952148
0,2,315,-3.0013856887817383
0,2,316,-8.70295238494873
0,2,317,-2.230431079864502
0,2,318,-2.980823278427124
0,2,319,-2.667109489440918
0,2,320,-0.28955087065696716
0,2,321,-0.24922534823417664
0,2,322,0.11898964643478394
0,2,323,-2.933089017868042
0,2,324,-0.24126484990119934
0,2,325,-8.687906265258789
0,2,326,0.1895812749862671
0,2,327,-2.185664415359497
0,2,328,-4.51473331451416
0,2,329,-3.0237741470336914
0,2,330,-0.26276665925979614
0,2,331,-0.01340019702911377
0,2,332,-3.336426258087158
0,2,333,-1.9847192764282227
0,2,334,-1.8788458108901978
0,2,335,-9.57394790649414
0,2,336,-0.14573216438293457
0,2,337,0.10764360427856445
0,2,338,0.18208545446395874
0,2,339,-1.999027967453003
0,2,340,-2.5347976684570312
0,2,341,-2.514834403991699
0,2,342,-4.620866775512695
0,2,343,0.35282814502716064
0,2,344,0.18704861402511597
0,2,345,-3.205307722091675
0,2,346,-8.4070463180542
0,2,347,-4.550639629364014
0,2,348,-2.6495418548583984
0,2,349,-0.414407342672348
0,2,350,-4.0917649269104
0,2,351,-1.8946739435195923
0,2,352,-2.657634973526001
0,2,353,0.043647706508636475
0,2,354,-2.7155773639678955
0,2,355,-2.641765594482422
0,2,356,-1.8352572917938232
0,2,357,-2.866598129272461
0,2,358,-0.30996280908584595
0,2,359,-2.3257620334625244
0,2,360,-2.250164270401001
0,2,361,-2.163773536682129
0,2,362,-8.705610275268555
0,2,363,0.4304918646812439
0,2,364,-9.463533401489258
0,2,365,-2.1635844707489014
0,2,366,-3.1685426235198975
0,2,367,-2.6397857666015625
0,2,368,-2.69320011138916
0,2,369,0.01408994197845459
0,2,370,-3.1302006244659424
0,2,371,0.4285755157470703
0,2,372,-3.460679292678833
0,2,373,-2.2984836101531982
0,2,374,-2.882044553756714
0,2,375,-6.621278762817383
0,2,376,-3.196475028991699
0,2,377,-2.28922438621521
0,2,378,-2.531751871109009
0,2,379,-4.527567386627197
0,2,380,-0.4390239119529724
0,2,381,-2.9641947746276855
0,2,382,-3.3967127799987793
0,2,383,-3.345052719116211
0,2,384,-2.8796181678771973
0,2,385,-8.868939399719238
0,2,386,-4.118688106536865
0,2,387,0.10225456953048706
0,2,388,-2.6523382663726807
0,2,389,-2.4078288078308105
0,2,390,-9.513505935668945
0,2,391,-2.456998586654663
0,2,392,0.052113890647888184
0,2,393,-0.3815525770187378
0,2,394,-0.44672316312789917
0,2,395,-0.21219584345817566
0,2,396,-0.09784859418869019
0,2,397,-2.78277850151062
0,2,398,0.2826519012451172
0,2,399,-2.6230664253234863
0,2,400,-2.247481107711792
0,2,401,0.28737854957580566
0,2,402,0.3240531086921692
0,2,403,-2.4566028118133545
0,2,404,-2.609910488128662
0,2,405,-2.112612247467041
0,2,406,-0.17831051349639893
0,2,407,-3.002866506576538
0,2,408,-6.792999744415283
0,2,409,-0.07941389083862305
0,2,410,0.03427568078041077
0,2,411,-3.2011878490448
0,2,412,-1.9859533309936523
0,2,413,-0.3932192325592041
0,2,414,0.2507227659225464
0,2,415,-3.3608946800231934
0,2,416,-3.053119421005249
0,2,417,0.13817602396011353
0,2,418,-2.281750440597534
0,2,419,-0.07642123103141785
0,2,420,-2.6942384243011475
0,2,421,-9.160959243774414
0,2,422,-2.6123335361480713
0,2,423,-2.8833932876586914
0,2,424,-0.28351497650146484
0,2,425,-1.891887903213501
0,2,426,-0.2378617376089096
0,2,427,-3.255488395690918
0,2,428,-2.7725133895874023
0,2,429,-4.560022830963135
0,2,430,-6.637847423553467
0,2,431,0.3290984034538269
0,2,432,-2.5285685062408447
0,2,433,-1.7564092874526978
0,2,434,-2.08450984954834
0,2,435,-9.103726387023926
0,2,436,-1.878358006477356
0,2,437,-2.246114492416382
0,2,438,-2.5891621112823486
0,2,439,-0.3320116400718689
0,2,440,-3.0425877571105957
0,2,441,0.2556988596916199
0,2,442,-2.768472909927368
0,2,443,-2.7199206352233887
0,2,444,-2.566713809967041
0,2,445,-2.346944808959961
0,2,446,0.07845723628997803
0,2,447,-0.3520810604095459
0,2,448,-4.07242488861084
0,2,449,-2.5337493419647217
0,2,450,0.2360343337059021
0,2,451,-2.5768485069274902
0,2,452,-0.04649287462234497
0,2,453,-2.160245895385742
0,2,454,-2.350229024887085
0,2,455,-5.356791019439697
0,2,456,-3.3853869438171387
0,2,457,-2.3243179321289062
0,2,458,0.10443246364593506
0,2,459,-2.2369608879089355
0,2,460,-2.112813711166382
0,2,461,-4.127207279205322
0,2,462,-5.305562496185303
0,2,463,-3.107680082321167
0,2,464,-3.4169294834136963
0,2,465,0.17794227600097656
0,2,466,-6.842953681945801
0,2,467,-2.691406488418579
0,2,468,-2.2752745151519775
0,2,469,-8.697084426879883
0,2,470,0.32272619009017944
0,2,471,-3.0951714515686035
0,2,472,-2.9884533882141113
0,2,473,-2.3650600910186768
0,2,474,-8.102165222167969
0,2,475,-0.2675066590309143
0,2,476,-8.79125690460205
0,2,477,-0.00016045570373535156
0,2,478,-3.3726563453674316
0,2,479,0.23109018802642822
0,2,480,-2.7407102584838867
0,2,481,-1.912225365638733
0,2,482,-2.184605836868286
0,2,483,-2.5945017337799072
0,2,484,-0.11421629786491394
0,2,485,-5.551934242248535
0,2,486,-3.1511528491973877
0,2,487,-9.227241516113281
0,2,488,-3.015153646469116
0,2,489,-2.886167526245117
0,2,490,-0.33234959840774536
0,2,491,-3.093040704727173
0,2,492,-2.6880578994750977
0,2,493,-2.501217842102051
0,2,494,-0.12102344632148743
0,2,495,-2.5850560665130615
0,2,496,-2.3139567375183105
0,2,497,-4.151901721954346
0,2,498,-7.886448383331299
0,2,499,-2.843726873397827
0,2,500,-9.164941787719727
0,2,501,-2.621772050857544
0,2,502,-3.343564748764038
0,2,503,-2.399815559387207
0,2,504,0.2443779706954956
0,2,505,0.3235898017883301
0,2,506,-9.55074405670166
0,2,507,-15.806851387023926
0,2,508,-9.209305763244629
0,2,509,-2.239189863204956
0,2,510,-2.2538819313049316
0,2,511,-2.6009435653686523
0,3,0,0.264424204826355
0,3,1,-0.39264634251594543
0,3,2,0.20318371057510376
0,3,3,0.20762574672698975
0,3,4,0.23036903142929077
0,3,5,-0.4256092607975006
0,3,6,-0.23165173828601837
0,3,7,-9.225115776062012
0,3,8,-0.05682137608528137
0,3,9,-9.481087684631348
0,3,10,-0.22787714004516602
0,3,11,-8.719688415527344
0,3,12,-0.2057683765888214
0,3,13,-0.4186136722564697
0,3,14,-0.082722008228302
0,3,15,0.014342904090881348
0,3,16,-0.42317813634872437
0,3,17,-0.15123051404953003
0,3,18,0.4066733121871948
0,3,19,-0.13833960890769958
0,3,20,0.1123117208480835
0,3,21,0.13356101512908936
0,3,22,0.2940661311149597
0,3,23,-0.42715975642204285
0,3,24,-0.4209720194339752
0,3,25,-0.09766551852226257
0,3,26,-0.09144860506057739
0,3,27,-9.026679039001465
0,3,28,0.32770437002182007
0,3,29,-0.11798381805419922
0,3,30,0.03530973196029663
0,3,31,0.13747912645339966
0,3,32,0.01440364122390747
0,3,33,-0.12644904851913452
0,3,34,0.2112300992012024
0,3,35,0.28681039810180664
0,3,36,0.06889379024505615
0,3,37,-0.12674590945243835
0,3,38,0.24009323120117188
0,3,39,-0.2101457715034485
0,3,40,-0.26983141899108887
0,3,41,0.11663579940795898
0,3,42,-8.940320014953613
0,3,43,-0.24206559360027313
0,3,44,0.04542103409767151
0,3,45,-0.14121437072753906
0,3,46,0.053508877754211426
0,3,47,0.4126091003417969
0,3,48,-0.02836674451828003
0,3,49,-9.059414863586426
0,3,50,8.768592834472656
0,3,51,0.24837100505828857
0,3,52,0.19044286012649536
0,3,53,0.3169659972190857
0,3,54,0.36147403717041016
0,3,55,0.17477786540985107
0,3,56,-0.23080700635910034
0,3,57,-0.3475152254104614
0,3,58,-0.05611291527748108
0,3,59,-9.102880477905273
0,3,60,0.0009684264659881592
0,3,61,-0.0018751025199890137
0,3,62,0.05381584167480469
0,3,63,0.1993027925491333
0,3,64,0.15183305740356445
0,3,65,-9.193583488464355
0,3,66,0.4283749461174011
0,3,67,-0.23182985186576843
0,3,68,-0.09870880842208862
0,3,69,-0.08124175667762756
0,3,70,-0.0879383385181427
0,3,71,-0.1666642427444458
0,3,72,-0.12457087635993958
0,3,73,-0.44476842880249023
0,3,74,0.2529924511909485
0,3,75,-0.1952303647994995
0,3,76,-0.3704216480255127
0,3,77,0.16807889938354492
0,3,78,-0.19350692629814148
0,3,79,0.38418668508529663
0,3,80,0.04605188965797424
0,3,81,0.2404305338859558
0,3,82,-0.24331901967525482
0,3,83,-0.3247983753681183
0,3,84,0.0481334924697876
0,3,85,-0.36104676127433777
0,3,86,0.018964946269989014
0,3,87,-0.08573135733604431
0,3,88,9.519775390625
0,3,89,-0.2892860770225525
0,3,90,0.32383090257644653
0,3,91,0.08027887344360352
0,3,92,-0.19635358452796936
0,3,93,0.15572255849838257
0,3,94,-0.2922065258026123
0,3,95,-0.326250821352005
0,3,96,-0.2979748845100403
0,3,97,-0.30990296602249146
0,3,98,0.2619956135749817
0,3,99,0.05721783638000488
0,3,100,0.2392888069152832
0,3,101,-0.39693886041641235
0,3,102,0.4186577796936035
0,3,103,0.40097343921661377
0,3,104,-0.24607668817043304
0,3,105,0.16154032945632935
0,3,106,0.3365461826324463
0,3,107,0.200664222240448
0,3,108,-0.32627591490745544
0,3,109,8.755040168762207
0,3,110,-0.07778170704841614
0,3,111,0.3498741388320923
0,3,112,-0.32080650329589844
0,3,113,-0.3478602468967438
0,3,114,0.12027662992477417
0,3,115,0.37853705883026123
0,3,116,0.35124558210372925
0,3,117,0.2391316294670105
0,3,118,-0.4316163659095764
0,3,119,-0.08690637350082397
0,3,120,0.10161340236663818
0,3,121,0.23825883865356445
0,3,122,-0.3431575894355774
0,3,123,-8.684720993041992
0,3,124,-8.728662490844727
0,3,125,-0.22169406712055206
0,3,126,-0.4192237854003906
0,3,127,-0.3230532705783844
0,3,128,-0.337421715259552
0,3,129,-0.3588781952857971
0,3,130,9.145639419555664
0,3,131,0.3767443895339966
0,3,132,0.19519281387329102
0,3,133,0.20128357410430908
0,3,134,-0.21836014091968536
0,3,135,0.34534913301467896
0,3,136,0.05177220702171326
0,3,137,0.26527345180511475
0,3,138,0.41813886165618896
0,3,139,-0.1832374930381775
0,3,140,0.20493662357330322
0,3,141,0.4235461354255676
0,3,142,0.1765335202217102
0,3,143,-0.32036805152893066
0,3,144,-0.07183164358139038
0,3,145,-0.2823891043663025
0,3,146,-0.015658438205718994
0,3,147,-0.07915100455284119
0,3,148,0.2990586757659912
0,3,149,8.934624671936035
0,3,150,-0.04822641611099243
0,3,151,0.33964186906814575
0,3,152,-9.440881729125977
0,3,153,-0.3364916443824768
0,3,154,0.23678553104400635
0,3,155,-0.21170121431350708
0,3,156,0.04380980134010315
0,3,157,0.37857818603515625
0,3,158,-0.40324902534484863
0,3,159,-0.4084921181201935
0,3,160,-0.22689427435398102
0,3,161,0.3625248670578003
0,3,162,0.4037734866142273
0,3,163,-0.31830358505249023
0,3,164,-0.1289207637310028
0,3,165,0.3558740019798279
0,3,166,0.008852452039718628
0,3,167,0.3944774866104126
0,3,168,-0.023500829935073853
0,3,169,-8.9188232421875
0,3,170,0.38315534591674805
0,3,171,-0.12368616461753845
0,3,172,0.16828453540802002
0,3,173,0.3423991799354553
0,3,174,-0.14974704384803772
0,3,175,0.34153449535369873
0,3,176,-0.1269661784172058
0,3,177,0.3987237215042114
0,3,178,0.3565140962600708
0,3,179,0.1102299690246582
0,3,180,0.056056320667266846
0,3,181,0.15548616647720337
0,3,182,0.05442279577255249
0,3,183,-8.930013656616211
0,3,184,-0.08615654706954956
0,3,185,0.3722972273826599
0,3,186,0.018113553524017334
0,3,187,0.39553380012512207
0,3,188,-0.26920086145401
0,3,189,0.4142472743988037
0,3,190,-0.2371756136417389
0,3,191,0.010333031415939331
0,3,192,-9.496150016784668
0,3,193,-0.41566339135169983
0,3,194,0.2517094612121582
0,3,195,0.2572847604751587
0,3,196,-9.0293607711792
0,3,197,-0.12864118814468384
0,3,198,-9.551911354064941
0,3,199,-3.0592963695526123
0,3,200,0.31489402055740356
0,3,201,-0.33374500274658203
0,3,202,0.4398481249809265
0,3,203,-0.12098512053489685
0,3,204,-0.36401164531707764
0,3,205,-0.31693363189697266
0,3,206,0.30361640453338623
0,3,207,0.10253208875656128
0,3,208,-0.03536894917488098
0,3,209,-9.193893432617188
0,3,210,-0.4339104890823364
0,3,211,0.37188059091567993
0,3,212,0.16701024770736694
0,3,213,0.17730027437210083
0,3,214,-0.43247687816619873
0,3,215,0.2656646966934204
0,3,216,0.1199457049369812
0,3,217,8.883939743041992
0,3,218,0.3988417983055115
0,3,219,0.44262033700942993
0,3,220,-0.06433567404747009
0,3,221,-0.23419679701328278
0,3,222,-0.062400102615356445
0,3,223,0.13960522413253784
0,3,224,-0.104015052318573
0,3,225,9.402896881103516
0,3,226,0.2501333951950073
0,3,227,0.06147313117980957
0,3,228,0.12430167198181152
0,3,229,0.10612744092941284
0,3,230,0.08232778310775757
0,3,231,-0.2506226599216461
0,3,232,0.2855501174926758
0,3,233,-0.3581654131412506
0,3,234,-9.196401596069336
0,3,235,-0.03441956639289856
0,3,236,0.29648923873901367
0,3,237,-2.8279004096984863
0,3,238,0.2732483148574829
0,3,239,0.2657740116119385
0,3,240,-0.4025850296020508
0,3,241,0.019237905740737915
0,3,242,-0.29031437635421753
0,3,243,0.43369388580322266
0,3,244,-0.08822599053382874
0,3,245,-3.155771493911743
0,3,246,-0.3166551887989044
0,3,247,9.021564483642578
0,3,248,-0.42772987484931946
0,3,249,0.4088364243507385
0,3,250,-0.05935579538345337
0,3,251,-0.34316548705101013
0,3,252,-0.30891865491867065
0,3,253,0.26324009895324707
0,3,254,-0.4200884997844696
0,3,255,0.05663567781448364
0,3,256,-0.04386678338050842
0,3,257,-0.003268510103225708
0,3,258,0.25007152557373047
0,3,259,-0.0618441104888916
0,3,260,-8.794964790344238
0,3,261,-0.11530300974845886
0,3,262,0.3396543264389038
0,3,263,0.11992007493972778
0,3,264,-8.862791061401367
0,3,265,-0.32761064171791077
0,3,266,-0.36042797565460205
0,3,267,0.39595937728881836
0,3,268,-3.0016093254089355
0,3,269,0.38456082344055176
0,3,270,-0.28231555223464966
0,3,271,0.2950631380081177
0,3,272,-0.25379616022109985
0,3,273,-0.1743374764919281
0,3,274,0.2352338433265686
0,3,275,-0.3818301856517792
0,3,276,-0.39626532793045044
0,3,277,0.24382257461547852
0,3,278,0.29546505212783813
0,3,279,-0.09264054894447327
0,3,280,-0.14634570479393005
0,3,281,-0.32892119884490967
0,3,282,-0.17741981148719788
0,3,283,-0.3919825553894043
0,3,284,-0.24002093076705933
0,3,285,-9.424725532531738
0,3,286,-0.3928215801715851
0,3,287,0.08253365755081177
0,3,288,0.4290916919708252
0,3,289,-0.32774344086647034
0,3,290,-9.246522903442383
0,3,291,-0.36528176069259644
0,3,292,-9.098942756652832
0,3,293,0.4226011633872986
0,3,294,-4.565288066864014
0,3,295,-9.161981582641602
0,3,296,0.2466830611228943
0,3,297,-0.19351717829704285
0,3,298,-0.21232719719409943
0,3,299,-0.3597891926765442
0,3,300,0.14239716529846191
0,3,301,-0.051284074783325195
0,3,302,0.2797026038169861
0,3,303,-0.2311461865901947
0,3,304,-0.06065654754638672
0,3,305,9.543373107910156
0,3,306,-0.29049694538116455
0,3,307,8.85273551940918
0,3,308,0.14281529188156128
0,3,309,0.4431430697441101
0,3,310,0.24279963970184326
0,3,311,-9.184609413146973
0,3,312,-0.0981878936290741
0,3,313,-0.36976414918899536
0,3,314,-8.912161827087402
0,3,315,-0.28065788745880127
0,3,316,-9.413106918334961
0,3,317,-0.3247608542442322
0,3,318,-0.43593212962150574
0,3,319,-0.10712245106697083
0,3,320,-0.22878387570381165
0,3,321,-0.2955752909183502
0,3,322,0.2386341691017151
0,3,323,0.29048264026641846
0,3,324,0.25127536058425903
0,3,325,-9.501996040344238
0,3,326,0.1367419958114624
0,3,327,-0.004641294479370117
0,3,328,0.37313979864120483
0,3,329,0.398834764957428
0,3,330,0.09267961978912354
0,3,331,0.08374941349029541
0,3,332,0.18898546695709229
0,3,333,-0.3781800866127014
0,3,334,0.1104784607887268
0,3,335,-9.157591819763184
0,3,336,0.19547826051712036
0,3,337,0.025420457124710083
0,3,338,0.03897082805633545
0,3,339,0.30579036474227905
0,3,340,-0.14230990409851074
0,3,341,2.779184341430664
0,3,342,-0.1365830898284912
0,3,343,-0.1839228868484497
0,3,344,-0.4193097651004791
0,3,345,0.062204837799072266
0,3,346,9.001360893249512
0,3,347,-0.3393931984901428
0,3,348,-0.13612738251686096
0,3,349,0.25522154569625854
0,3,350,0.27652615308761597
0,3,351,-0.2371218204498291
0,3,352,-0.21369145810604095
0,3,353,0.15167367458343506
0,3,354,0.41303563117980957
0,3,355,0.08118307590484619
0,3,356,-0.001193910837173462
0,3,357,0.31907159090042114
0,3,358,-0.2561376690864563
0,3,359,-0.2976386249065399
0,3,360,-0.35622021555900574
0,3,361,-0.2954001724720001
0,3,362,-8.714343070983887
0,3,363,-0.38957899808883667
0,3,364,-9.520886421203613
0,3,365,0.33006757497787476
0,3,366,0.028947889804840088
0,3,367,0.2162538766860962
0,3,368,-0.40121981501579285
0,3,369,0.3603101968765259
0,3,370,0.3417850732803345
0,3,371,0.018989086151123047
0,3,372,-0.17948272824287415
0,3,373,0.31951820850372314
0,3,374,-0.43884941935539246
0,3,375,-0.16407844424247742
0,3,376,0.4043811559677124
0,3,377,0.3042287230491638
0,3,378,-0.14848610758781433
0,3,379,0.06293612718582153
0,3,380,-0.20488335192203522
0,3,381,0.26203644275665283
0,3,382,0.054447829723358154
0,3,383,0.1505834460258484
0,3,384,0.1831355094909668
0,3,385,-9.170082092285156
0,3,386,-0.043445885181427
0,3,387,-0.272948294878006
0,3,388,0.4403442144393921
0,3,389,-0.08064550161361694
0,3,390,-9.474576950073242
0,3,391,-0.44531765580177307
0,3,392,-0.2733156681060791
0,3,393,0.23099327087402344
0,3,394,-0.44412854313850403
0,3,395,-0.16257590055465698
0,3,396,0.10941100120544434
0,3,397,-0.13084590435028076
0,3,398,-0.17893660068511963
0,3,399,0.35079216957092285
0,3,400,-0.0010706782341003418
0,3,401,0.35527288913726807
0,3,402,-0.3443104028701782
0,3,403,-0.24435929954051971
0,3,404,0.1488661766052246
0,3,405,-0.27490234375
0,3,406,0.2127862572669983
0,3,407,-0.1543024480342865
0,3,408,0.36938953399658203
0,3,409,-0.416077196598053
0,3,410,0.2956409454345703
0,3,411,0.11246663331985474
0,3,412,0.29590415954589844
0,3,413,-0.1736491322517395
0,3,414,0.16651475429534912
0,3,415,-0.04237842559814453
0,3,416,0.3850458264350891
0,3,417,0.1296900510787964
0,3,418,-0.3734437823295593
0,3,419,-0.4086988568305969
0,3,420,0.42534327507019043
0,3,421,-9.51992416381836
0,3,422,-0.08441877365112305
0,3,423,0.3205340504646301
0,3,424,0.3068689703941345
0,3,425,-0.0810559093952179
0,3,426,0.17875957489013672
0,3,427,-0.1521434783935547
0,3,428,0.04246103763580322
0,3,429,-0.002439349889755249
0,3,430,0.39285707473754883
0,3,431,-0.28691673278808594
0,3,432,0.348177433013916
0,3,433,-0.094450443983078
0,3,434,-0.2881016433238983
0,3,435,-9.351339340209961
0,3,436,-0.16443860530853271
0,3,437,-0.39420369267463684
0,3,438,-0.4396384358406067
0,3,439,0.3805510401725769
0,3,440,0.4014933705329895
0,3,441,-0.13715550303459167
0,3,442,0.2660410404205322
0,3,443,0.24273920059204102
0,3,444,-0.11768260598182678
0,3,445,-0.026115059852600098
0,3,446,-0.33687910437583923
0,3,447,-0.03434348106384277
0,3,448,-4.035977363586426
0,3,449,-0.1741810142993927
0,3,450,-0.30059492588043213
0,3,451,0.41961973905563354
0,3,452,0.09562373161315918
0,3,453,0.1164243221282959
0,3,454,0.09008151292800903
0,3,455,0.04162672162055969
0,3,456,-0.08335429430007935
0,3,457,-0.38495784997940063
0,3,458,0.03814014792442322
0,3,459,0.13513648509979248
0,3,460,0.4414183497428894
0,3,461,-0.19198957085609436
0,3,462,0.23686623573303223
0,3,463,0.4032374620437622
0,3,464,0.15629911422729492
0,3,465,0.28843897581100464
0,3,466,0.03667590022087097
0,3,467,-0.2723163366317749
0,3,468,-0.16126367449760437
0,3,469,-8.772445678710938
0,3,470,0.38017719984054565
0,3,471,-0.2436845302581787
0,3,472,0.043676942586898804
0,3,473,0.1623096466064453
0,3,474,9.195549964904785
0,3,475,0.21998435258865356
0,3,476,-8.810845375061035
0,3,477,0.40794670581817627
0,3,478,0.38062846660614014
0,3,479,0.25074082612991333
0,3,480,0.43535315990448
0,3,481,-0.03767523169517517
0,3,482,-0.30993589758872986
0,3,483,-0.10230693221092224
0,3,484,0.07555848360061646
0,3,485,-0.13631194829940796
0,3,486,0.42080020904541016
0,3,487,-9.004193305969238
0,3,488,0.21887868642807007
0,3,489,0.153908371925354
0,3,490,0.13214236497879028
0,3,491,-0.0012120604515075684
0,3,492,0.08973544836044312
0,3,493,0.07526665925979614
0,3,494,-0.37567999958992004
0,3,495,-0.4106537699699402
0,3,496,-0.07336777448654175
0,3,497,-0.22476740181446075
0,3,498,9.23893928527832
0,3,499,0.2634764313697815
0,3,500,-9.450502395629883
0,3,501,0.4299768805503845
0,3,502,-0.28749799728393555
0,3,503,0.016428321599960327
0,3,504,0.011128604412078857
0,3,505,-0.04226177930831909
0,3,506,-8.721256256103516
0,3,507,0.16795384883880615
0,3,508,-9.33028507232666
0,3,509,0.3511871099472046
0,3,510,0.06716024875640869
0,3,511,0.028519630432128906
0,4,0,-0.3983638286590576
0,4,1,0.42773163318634033
0,4,2,0.07477521896362305
0,4,3,-0.20384472608566284
0,4,4,-0.43198224902153015
0,4,5,0.2522937059402466
0,4,6,-0.08586081862449646
0,4,7,0.21859592199325562
0,4,8,-0.41289791464805603
0,4,9,-0.2583619952201843
0,4,10,0.07341969013214111
0,4,11,0.11321139335632324
0,4,12,0.3443198800086975
0,4,13,-0.1287180781364441
0,4,14,-0.289215087890625
0,4,15,0.18074017763137817
0,4,16,0.09074336290359497
0,4,17,0.19850748777389526
0,4,18,0.08255565166473389
0,4,19,-0.371805876493454
0,4,20,0.1345323920249939
0,4,21,0.17670732736587524
0,4,22,0.002567768096923828
0,4,23,0.21146738529205322
0,4,24,0.04546639323234558
0,4,25,-0.02057093381881714
0,4,26,0.3504052758216858
0,4,27,0.24377137422561646
0,4,28,0.13592493534088135
0,4,29,-0.16473603248596191
0,4,30,-0.15713587403297424
0,4,31,-0.07530924677848816
0,4,32,0.40058696269989014
0,4,33,-0.09056171774864197
0,4,34,0.2104474902153015
0,4,35,0.050638943910598755
0,4,36,-0.14529070258140564
0,4,37,-0.28535160422325134
0,4,38,0.36985158920288086
0,4,39,0.3269160985946655
0,4,40,0.1517663598060608
0,4,41,-0.17001697421073914
0,4,42,-0.35507938265800476
0,4,43,0.3090401291847229
0,4,44,-0.437885046005249
0,4,45,0.22552651166915894
0,4,46,0.2545014023780823
0,4,47,-0.4364754855632782
0,4,48,-0.3996899127960205
0,4,49,-0.1101190447807312
0,4,50,-0.36481767892837524
0,4,51,0.0910537838935852
0,4,52,-0.44497358798980713
0,4,53,-0.4403531849384308
0,4,54,0.15142273902893066
0,4,55,-0.3909764587879181
0,4,56,-0.1465679407119751
0,4,57,0.3394542336463928
0,4,58,0.4118400812149048
0,4,59,0.19378381967544556
0,4,60,-0.036754995584487915
0,4,61,0.0045053958892822266
0,4,62,-0.05519664287567139
0,4,63,-0.05360192060470581
0,4,64,0.42125385999679565
0,4,65,0.093048095703125
0,4,66,0.0206030011177063
0,4,67,0.05958777666091919
0,4,68,-0.12114381790161133
0,4,69,0.3700155019760132
0,4,70,0.13161683082580566
0,4,71,-0.18317848443984985
0,4,72,-0.16717097163200378
0,4,73,0.21752899885177612
0,4,74,0.17227160930633545
0,4,75,0.1745544672012329
0,4,76,-0.031221747398376465
0,4,77,-0.07884451746940613
0,4,78,-0.19175362586975098
0,4,79,-0.07794040441513062
0,4,80,-0.38738328218460083
0,4,81,0.236069917678833
0,4,82,-0.21852439641952515
0,4,83,-0.28697335720062256
0,4,84,-0.28898143768310547
0,4,85,-0.11844965815544128
0,4,86,0.20729023218154907
0,4,87,-0.4134412705898285
0,4,88,0.44104015827178955
0,4,89,-0.1778983473777771
0,4,90,0.3671122193336487
0,4,91,0.035189032554626465
0,4,92,-0.18785607814788818
0,4,93,0.02778637409210205
0,4,94,0.4257802367210388
0,4,95,0.20634311437606812
0,4,96,0.08323687314987183
0,4,97,0.3270546793937683
0,4,98,0.0848650336265564
0,4,99,0.1373719573020935
0,4,100,-0.02461165189743042
0,4,101,0.40048927068710327
0,4,102,-0.36483508348464966
0,4,103,-0.014805495738983154
0,4,104,-0.1937297284603119
0,4,105,-0.43588200211524963
0,4,106,0.14893949031829834
0,4,107,0.1919524073600769
0,4,108,-0.24962124228477478
0,4,109,0.20903754234313965
0,4,110,0.02624058723449707
0,4,111,0.39302122592926025
0,4,112,-0.09824392199516296
0,4,113,0.10720914602279663
0,4,114,-0.07090115547180176
0,4,115,0.18034636974334717
0,4,116,-0.42277663946151733
0,4,117,-0.3063167631626129
0,4,118,-0.3789003789424896
0,4,119,-0.048303574323654175
0,4,120,-0.19991402328014374
0,4,121,-0.18533840775489807
0,4,122,0.06021523475646973
0,4,123,0.006406545639038086
0,4,124,0.39678508043289185
0,4,125,0.38954025506973267
0,4,126,-0.1379299759864807
0,4,127,-0.07595276832580566
0,4,128,0.03380131721496582
0,4,129,0.32582521438598633
0,4,130,0.018757551908493042
0,4,131,-0.3893088102340698
0,4,132,0.32729899883270264
0,4,133,-0.031886279582977295
0,4,134,0.20419883728027344
0,4,135,0.3792591094970703
0,4,136,-0.32720717787742615
0,4,137,-0.40376460552215576
0,4,138,-0.12051239609718323
0,4,139,0.42644715309143066
0,4,140,-0.14359021186828613
0,4,141,0.1535390019416809
0,4,142,0.42885470390319824
0,4,143,-0.2223970890045166
0,4,144,0.03854095935821533
0,4,145,0.001970618963241577
0,4,146,0.26542073488235474
0,4,147,-0.00057181715965271
0,4,148,-0.19976454973220825
0,4,149,-0.42854756116867065
0,4,150,0.22110819816589355
0,4,151,-0.18534892797470093
0,4,152,0.10678130388259888
0,4,153,-0.07879093289375305
0,4,154,0.15279698371887207
0,4,155,-0.42427492141723633
0,4,156,0.3519625663757324
0,4,157,0.25912439823150635
0,4,158,0.40145212411880493
0,4,159,0.28316831588745117
0,4,160,-0.1634942889213562
0,4,161,-0.21195417642593384
0,4,162,0.08335280418395996
0,4,163,-0.4350402057170868
0,4,164,0.2548123002052307
0,4,165,0.3902381658554077
0,4,166,-0.276201069355011
0,4,167,-0.3690352439880371
0,4,168,0.34749412536621094
0,4,169,0.34188514947891235
0,4,170,0.3966144919395447
0,4,171,-0.050435036420822144
0,4,172,-0.4440317153930664
0,4,173,-0.285649836063385
0,4,174,0.3453090786933899
0,4,175,0.12603813409805298
0,4,176,0.4088020920753479
0,4,177,0.24994301795959473
0,4,178,0.0991714596748352
0,4,179,0.31939440965652466
0,4,180,0.3174131512641907
0,4,181,-0.29386547207832336
0,4,182,-0.2179524153470993
0,4,183,0.315250039100647
0,4,184,-0.33882755041122437
0,4,185,0.0021507740020751953
0,4,186,-0.1846630573272705
0,4,187,-0.4003565311431885
0,4,188,0.14918220043182373
0,4,189,-0.3060552179813385
0,4,190,0.20498532056808472
0,4,191,-0.19842204451560974
0,4,192,-0.1671639382839203
0,4,193,0.012813806533813477
0,4,194,0.4173765778541565
0,4,195,-0.13675332069396973
0,4,196,-0.057266175746917725
0,4,197,0.296619713306427
0,4,198,0.26951515674591064
0,4,199,0.4239237308502197
0,4,200,0.027072906494140625
0,4,201,-0.44154876470565796
0,4,202,-0.23314911127090454
0,4,203,0.22850608825683594
0,4,204,-0.052083343267440796
0,4,205,-0.005458950996398926
0,4,206,0.2448762059211731
0,4,207,0.034527212381362915
0,4,208,-0.25244465470314026
0,4,209,0.09971481561660767
0,4,210,-0.33220434188842773
0,4,211,0.011501520872116089
0,4,212,-0.33558622002601624
0,4,213,-0.058337002992630005
0,4,214,-0.34843218326568604
0,4,215,-0.07992526888847351
0,4,216,0.3986690044403076
0,4,217,-0.05520603060722351
0,4,218,-0.018172740936279297
0,4,219,-0.39099574089050293
0,4,220,0.3648756742477417
0,4,221,0.17058837413787842
0,4,222,-0.05744412541389465
0,4,223,-0.027495503425598145
0,4,224,0.1933445930480957
0,4,225,-0.06523162126541138
0,4,226,0.1666584610939026
0,4,227,0.13295859098434448
0,4,228,0.028241515159606934
0,4,229,0.2985098361968994
0,4,230,0.1974775791168213
0,4,231,0.39525675773620605
0,4,232,-0.4409969747066498
0,4,233,0.047274112701416016
0,4,234,-0.15354424715042114
0,4,235,0.2607898712158203
0,4,236,-0.32155653834342957
0,4,237,0.11502164602279663
0,4,238,0.07887578010559082
0,4,239,-0.33122098445892334
0,4,240,-0.43018749356269836
0,4,241,0.32991623878479004
0,4,242,0.329664409160614
0,4,243,0.07715040445327759
0,4,244,-0.290132999420166
0,4,245,-0.3592996895313263
0,4,246,0.08298790454864502
0,4,247,-0.28744250535964966
0,4,248,0.13793790340423584
0,4,249,-0.26447466015815735
0,4,250,0.33315199613571167
0,4,251,-0.3428550064563751
0,4,252,-0.37710148096084595
0,4,253,0.41956907510757446
0,4,254,0.3102436661720276
0,4,255,-0.288490355014801
0,4,256,-0.1889452040195465
0,4,257,-0.08396109938621521
0,4,258,-0.33585336804389954
0,4,259,0.27847474813461304
0,4,260,-0.43907833099365234
0,4,261,0.2557936906814575
0,4,262,0.4135676622390747
0,4,263,0.002037644386291504
0,4,264,0.3257893919944763
0,4,265,-0.2503697872161865
0,4,266,-0.10626006126403809
0,4,267,0.1709578037261963
0,4,268,-0.24325019121170044
0,4,269,0.007957398891448975
0,4,270,-0.2398746907711029
0,4,271,0.4448009133338928
0,4,272,-0.3305337429046631
0,4,273,-0.44274869561195374
0,4,274,-0.36382731795310974
0,4,275,0.2615051865577698
0,4,276,0.23351043462753296
0,4,277,0.16016322374343872
0,4,278,0.4337572455406189
0,4,279,-0.22050638496875763
0,4,280,0.13243907690048218
0,4,281,0.05838167667388916
0,4,282,-0.09552106261253357
0,4,283,0.3206799030303955
0,4,284,0.16907364130020142
0,4,285,0.3225290775299072
0,4,286,0.02939465641975403
0,4,287,-0.3654422461986542
0,4,288,0.25747066736221313
0,4,289,-0.40529078245162964
0,4,290,0.2414109706878662
0,4,291,0.1786535382270813
0,4,292,0.41543519496917725
0,4,293,0.11109691858291626
0,4,294,0.2247636914253235
0,4,295,0.1946309208869934
0,4,296,-0.4306092858314514
0,4,297,-0.07889533042907715
0,4,298,-0.2568996548652649
0,4,299,0.09163874387741089
0,4,300,0.06985694169998169
0,4,301,0.42323946952819824
0,4,302,-0.23194602131843567
0,4,303,0.10436862707138062
0,4,304,-0.4301757216453552
0,4,305,-0.06334075331687927
0,4,306,0.10609227418899536
0,4,307,-0.23580095171928406
0,4,308,0.06308716535568237
0,4,309,0.08082318305969238
0,4,310,0.4111438989639282
0,4,311,0.37222784757614136
0,4,312,-0.22335761785507202
0,4,313,-0.06784695386886597
0,4,314,-0.36975908279418945
0,4,315,-0.28117603063583374
0,4,316,0.038418978452682495
0,4,317,-0.14920556545257568
0,4,318,0.1493777632713318
0,4,319,0.28582513332366943
0,4,320,0.421084463596344
0,4,321,-0.30361974239349365
0,4,322,-0.3813903033733368
0,4,323,-0.35320404171943665
0,4,324,0.41618257761001587
0,4,325,-0.3416638970375061
0,4,326,0.23913514614105225
0,4,327,0.16037940979003906
0,4,328,0.05652409791946411
0,4,329,0.3765507936477661
0,4,330,-0.239683136343956
0,4,331,-0.08077025413513184
0,4,332,-0.05504816770553589
0,4,333,-0.35608187317848206
0,4,334,-0.1592031717300415
0,4,335,-0.30254408717155457
0,4,336,0.23429179191589355
0,4,337,-0.17145171761512756
0,4,338,0.24990314245224
0,4,339,-0.23849572241306305
0,4,340,0.11108583211898804
0,4,341,-0.38702085614204407
0,4,342,0.26591652631759644
0,4,343,-0.3375033736228943
0,4,344,-0.1614658236503601
0,4,345,0.1626601219177246
0,4,346,-0.037676870822906494
0,4,347,-0.20884934067726135
0,4,348,-0.4105461835861206
0,4,349,0.153925359249115
0,4,350,-0.2680821418762207
0,4,351,-0.17009535431861877
0,4,352,-0.0038281679153442383
0,4,353,-0.07301607728004456
0,4,354,-0.35430675745010376
0,4,355,-0.2283645123243332
0,4,356,0.19401371479034424
0,4,357,0.2828162908554077
0,4,358,0.05090826749801636
0,4,359,-0.20163953304290771
0,4,360,-0.41033515334129333
0,4,361,0.19106578826904297
0,4,362,-0.3942779004573822
0,4,363,0.33303511142730713
0,4,364,0.35161465406417847
0,4,365,-0.11648732423782349
0,4,366,0.04374110698699951
0,4,367,0.00012111663818359375
0,4,368,0.1123003363609314
0,4,369,-0.19516098499298096
0,4,370,0.41592586040496826
0,4,371,-0.03599339723587036
0,4,372,-0.17648360133171082
0,4,373,0.1471661925315857
0,4,374,0.4083424210548401
0,4,375,-0.2092679888010025
0,4,376,-0.3852842152118683
0,4,377,-0.40197718143463135
0,4,378,-0.4156646728515625
0,4,379,0.05858486890792847
0,4,380,-0.2733420729637146
0,4,381,0.23398476839065552
0,4,382,0.3501471281051636
0,4,383,0.4165906310081482
0,4,384,0.23274511098861694
0,4,385,0.3460347652435303
0,4,386,0.25454479455947876
0,4,387,-0.13912096619606018
0,4,388,-0.2412744015455246
0,4,389,0.10296440124511719
0,4,390,0.11636555194854736
0,4,391,-0.26147234439849854
0,4,392,-0.24615633487701416
0,4,393,-0.17079377174377441
0,4,394,-0.34162840247154236
0,4,395,0.04780936241149902
0,4,396,0.06720626354217529
0,4,397,0.3155195116996765
0,4,398,-0.27391761541366577
0,4,399,-0.19507840275764465
0,4,400,0.3578072786331177
0,4,401,-0.018515855073928833
0,4,402,0.2047508955001831
0,4,403,0.3598371148109436
0,4,404,-0.03960832953453064
0,4,405,0.12109553813934326
0,4,406,0.4298233985900879
0,4,407,0.06898355484008789
0,4,408,-0.4233909547328949
0,4,409,-0.12897557020187378
0,4,410,0.004445582628250122
0,4,411,0.031149357557296753
0,4,412,0.3550190329551697
0,4,413,-0.14901885390281677
0,4,414,-0.39085906744003296
0,4,415,0.40093910694122314
0,4,416,-0.14303651452064514
0,4,417,0.2802470922470093
0,4,418,-0.22150054574012756
0,4,419,-0.16343864798545837
0,4,420,-0.10266613960266113
0,4,421,0.07812851667404175
0,4,422,-0.35645851492881775
0,4,423,0.3392317295074463
0,4,424,0.029850631952285767
0,4,425,-0.2890656292438507
0,4,426,0.2779601812362671
0,4,427,0.23023569583892822
0,4,428,-0.4432829022407532
0,4,429,0.435271680355072
0,4,430,-0.015001475811004639
0,4,431,-0.2541292607784271
0,4,432,-0.43333765864372253
0,4,433,0.1696215271949768
0,4,434,0.2884734272956848
0,4,435,0.005265533924102783
0,4,436,-0.11095499992370605
0,4,437,-0.2392885833978653
0,4,438,-0.08758822083473206
0,4,439,0.10959899425506592
0,4,440,-0.35692158341407776
0,4,441,-0.1895318329334259
0,4,442,-0.23303017020225525
0,4,443,0.3878440260887146
0,4,444,0.0449366569519043
0,4,445,-0.21307191252708435
0,4,446,0.2760887145996094
0,4,447,-0.025165945291519165
0,4,448,0.143996000289917
0,4,449,-0.3436526656150818
0,4,450,-0.1862715780735016
0,4,451,-0.4157371520996094
0,4,452,-0.04361093044281006
0,4,453,-0.40839648246765137
0,4,454,0.44302088022232056
0,4,455,-0.30300694704055786
0,4,456,0.18002188205718994
0,4,457,0.31558823585510254
0,4,458,0.32090699672698975
0,4,459,-0.2462194561958313
0,4,460,-0.4005756080150604
0,4,461,-0.39819180965423584
0,4,462,-0.29776960611343384
0,4,463,-0.3132699728012085
0,4,464,0.44711267948150635
0,4,465,0.41554516553878784
0,4,466,-0.21760503947734833
0,4,467,-0.3563143014907837
0,4,468,-0.11474910378456116
0,4,469,-0.12414348125457764
0,4,470,-0.21176160871982574
0,4,471,-0.3473512828350067
0,4,472,0.2405892014503479
0,4,473,-0.004644930362701416
0,4,474,0.2109852433204651
0,4,475,-0.17663800716400146
0,4,476,-0.16830649971961975
0,4,477,-0.41698312759399414
0,4,478,-0.2352062165737152
0,4,479,0.2710503935813904
0,4,480,0.415774405002594
0,4,481,0.1405569314956665
0,4,482,-0.4025731384754181
0,4,483,-0.15030154585838318
0,4,484,-0.2108209729194641
0,4,485,0.39659231901168823
0,4,486,0.3901199698448181
0,4,487,0.06051373481750488
0,4,488,0.026924580335617065
0,4,489,-0.04470446705818176
0,4,490,0.3835543990135193
0,4,491,0.389390766620636
0,4,492,0.3266032338142395
0,4,493,0.3690906763076782
0,4,494,-0.20278707146644592
0,4,495,-0.09787055850028992
0,4,496,-0.09530651569366455
0,4,497,0.3732911944389343
0,4,498,-0.3529466390609741
0,4,499,0.4107573628425598
0,4,500,0.4465908408164978
0,4,501,-0.36915823817253113
0,4,502,-0.4197007119655609
0,4,503,-0.19217103719711304
0,4,504,0.2788125276565552
0,4,505,0.06136500835418701
0,4,506,-0.3941602408885956
0,4,507,0.32325804233551025
0,4,508,-0.38321852684020996
0,4,509,-0.22262808680534363
0,4,510,-0.11270725727081299
0,4,511,0.13456660509109497
1,0,0,0.02997191622853279
1,0,1,2.9916584491729736
1,0,2,-2.9661319255828857
1,0,3,0.024903174489736557
1,0,4,3.042680501937866
1,0,5,0.02788415178656578
1,0,6,3.040184736251831
1,0,7,-2.975742816925049
1,0,8,0.018290899693965912
1,0,9,0.012486208230257034
1,0,10,-0.035401929169893265
1,0,11,3.039557456970215
1,0,12,-3.0168702602386475
1,0,13,-0.01760030724108219
1,0,14,-2.958939552307129
1,0,15,2.9731290340423584
1,0,16,-0.041489508002996445
1,0,17,-0.03325710818171501
1,0,18,-0.004595845937728882
1,0,19,3.032484769821167
1,0,20,-2.984158754348755
1,0,21,2.989076614379883
1,0,22,-0.001460537314414978
1,0,23,-2.976362705230713
1,0,24,-0.041449934244155884
1,0,25,0.01671852543950081
1,0,26,3.031916618347168
1,0,27,0.035891201347112656
1,0,28,3.035710334777832
1,0,29,0.018571536988019943
1,0,30,-3.0372796058654785
1,0,31,2.9953582286834717
1,0,32,-3.0261220932006836
1,0,33,2.9670486450195312
1,0,34,0.034944962710142136
1,0,35,-0.027417009696364403
1,0,36,3.037963390350342
1,0,37,-2.9648354053497314
1,0,38,-0.033350683748722076
1,0,39,2.973642349243164
1,0,40,-2.9697489738464355
1,0,41,-0.03742431849241257
1,0,42,-3.0231101512908936
1,0,43,0.023605328053236008
1,0,44,0.025708261877298355
1,0,45,2.9621689319610596
1,0,46,-0.01803746446967125
1,0,47,-2.994274377822876
1,0,48,-0.0022266022861003876
1,0,49,2.994746446609497
1,0,50,-0.03751840814948082
1,0,51,0.04313577339053154
1,0,52,3.0467171669006348
1,0,53,-3.0460495948791504
1,0,54,-0.024912154302001
1,0,55,0.034488495439291
1,0,56,-2.984738826751709
1,0,57,-0.035370826721191406
1,0,58,0.011307720094919205
1,0,59,0.017826825380325317
1,0,60,3.0372722148895264
1,0,61,2.992556095123291
1,0,62,-0.009211871773004532
1,0,63,3.0235610008239746
1,0,64,-2.981541156768799
1,0,65,3.012749195098877
1,0,66,0.004358306527137756
1,0,67,0.013173792511224747
1,0,68,-2.9785330295562744
1,0,69,-0.00014755502343177795
1,0,70,3.0434963703155518
1,0,71,-0.0413145013153553
1,0,72,-3.00634503364563
1,0,73,-2.9612624645233154
1,0,74,-0.017502352595329285
1,0,75,3.029362916946411
1,0,76,-3.03068208694458
1,0,77,-0.014319928362965584
1,0,78,0.03360637649893761
1,0,79,0.03350266441702843
1,0,80,-0.028844133019447327
1,0,81,0.04331248626112938
1,0,82,-3.0032787322998047
1,0,83,-0.00487247109413147
1,0,84,-7.655471563339233e-05
1,0,85,-0.04165084660053253
1,0,86,0.043431077152490616
1,0,87,0.031887512654066086
1,0,88,-0.02907720021903515
1,0,89,-2.9980804920196533
1,0,90,-3.0028915405273438
1,0,91,-3.0329790115356445
1,0,92,-3.007014751434326
1,0,93,2.9965145587921143
1,0,94,-0.03275486081838608
1,0,95,-2.983015537261963
1,0,96,-0.03960424289107323
1,0,97,-2.9861767292022705
1,0,98,2.983903169631958
1,0,99,-0.03970517963171005
1,0,100,-0.0008153356611728668
1,0,101,-2.9657821655273438
1,0,102,0.025795932859182358
1,0,103,-3.0281929969787598
1,0,104,-0.019385358318686485
1,0,105,-2.962765693664551
1,0,106,0.004513289779424667
1,0,107,3.02055025100708
1,0,108,-2.964232921600342
1,0,109,-0.026469284668564796
1,0,110,2.9953339099884033
1,0,111,-0.023749981075525284
1,0,112,-3.01082181930542
1,0,113,2.9990761280059814
1,0,114,0.017861735075712204
1,0,115,-0.01939416117966175
1,0,116,-2.9751973152160645
1,0,117,-3.0158722400665283
1,0,118,-3.0024406909942627
1,0,119,2.9768381118774414
1,0,120,-0.02517184056341648
1,0,121,-0.036670222878456116
1,0,122,0.015123363584280014
1,0,123,-3.024366617202759
1,0,124,-0.007824376225471497
1,0,125,3.0348474979400635
1,0,126,3.0114598274230957
1,0,127,-3.0192344188690186
1,0,128,-2.9676501750946045
1,0,129,-2.9676122665405273
1,0,130,-2.9784231185913086
1,0,131,0.02503081038594246
1,0,132,0.024664688855409622
1,0,133,-3.029581308364868
1,0,134,0.0041875168681144714
1,0,135,3.0193405151367188
1,0,136,0.013395432382822037
1,0,137,2.961606979370117
1,0,138,2.983593225479126
1,0,139,-3.035372018814087
1,0,140,-3.0251944065093994
1,0,141,0.025016557425260544
1,0,142,0.041416872292757034
1,0,143,2.995837450027466
1,0,144,3.0162508487701416
1,0,145,-3.0088138580322266
1,0,146,0.023137029260396957
1,0,147,-3.018282651901245
1,0,148,-0.013613894581794739
1,0,149,-0.043326813727617264
1,0,150,-2.994779109954834
1,0,151,-3.027925729751587
1,0,152,-2.985269069671631
1,0,153,-0.024562997743487358
1,0,154,0.016880128532648087
1,0,155,0.03937257453799248
1,0,156,-2.973984479904175
1,0,157,3.0159122943878174
1,0,158,-0.032204169780015945
1,0,159,-0.03069557622075081
1,0,160,3.002509832382202
1,0,161,0.00832771509885788
1,0,162,-0.022422069683670998
1,0,163,-2.987971067428589
1,0,164,-2.9850974082946777
1,0,165,0.01325872540473938
1,0,166,0.0006383359432220459
1,0,167,2.9935367107391357
1,0,168,0.009937308728694916
1,0,169,3.0194191932678223
1,0,170,2.9989025592803955
1,0,171,-0.031597692519426346
1,0,172,-0.041331011801958084
1,0,173,0.030440296977758408
1,0,174,-0.04339471459388733
1,0,175,3.0381081104278564
1,0,176,-0.005008969455957413
1,0,177,-2.998232841491699
1,0,178,-0.03346872329711914
1,0,179,-2.9610023498535156
1,0,180,0.024328436702489853
1,0,181,-3.0434699058532715
1,0,182,-2.981931686401367
1,0,183,0.010211501270532608
1,0,184,3.0162978172302246
1,0,185,-0.004075825214385986
1,0,186,-3.0012433528900146
1,0,187,2.9824342727661133
1,0,188,2.9664790630340576
1,0,189,-0.030012834817171097
1,0,190,0.00980779156088829
1,0,191,-3.0256752967834473
1,0,192,-0.027150236070156097
1,0,193,2.962407112121582
1,0,194,3.031233549118042
1,0,195,-0.02813822031021118
1,0,196,-2.9643540382385254
1,0,197,-0.021457213908433914
1,0,198,0.028142224997282028
1,0,199,-0.033068954944610596
1,0,200,-0.03359273076057434
1,0,201,-2.9638850688934326
1,0,202,0.027506601065397263
1,0,203,0.0019709691405296326
1,0,204,-3.032860279083252
1,0,205,0.0013878010213375092
1,0,206,-2.9890546798706055
1,0,207,-2.9834659099578857
1,0,208,-2.963310718536377
1,0,209,-2.9732067584991455
1,0,210,-3.0453479290008545
1,0,211,3.039933204650879
1,0,212,3.0060577392578125
1,0,213,0.042260076850652695
1,0,214,3.028454303741455
1,0,215,-0.005202259868383408
1,0,216,3.0350465774536133
1,0,217,-2.967512845993042
1,0,218,0.04334929957985878
1,0,219,2.96932053565979
1,0,220,2.972710371017456
1,0,221,0.004053458571434021
1,0,222,-2.9613089561462402
1,0,223,-3.0081429481506348
1,0,224,0.0023207589983940125
1,0,225,-0.03427872806787491
1,0,226,-0.021473828703165054
1,0,227,-0.04293741658329964
1,0,228,3.030910015106201
1,0,229,3.0009169578552246
1,0,230,3.029832601547241
1,0,231,-3.0271713733673096
1,0,232,-2.997342824935913
1,0,233,3.0245938301086426
1,0,234,0.01698068529367447
1,0,235,3.0071053504943848
1,0,236,3.019455909729004
1,0,237,-2.969724655151367
1,0,238,2.991365671157837
1,0,239,0.011221207678318024
1,0,240,-3.0056586265563965
1,0,241,0.007320929318666458
1,0,242,-3.016676425933838
1,0,243,-2.9688706398010254
1,0,244,-0.001451980322599411
1,0,245,-0.043840646743774414
1,0,246,0.013165414333343506
1,0,247,0.021553274244070053
1,0,248,-0.007889509201049805
1,0,249,-2.9752137660980225
1,0,250,0.026043672114610672
1,0,251,-0.031053129583597183
1,0,252,2.969646453857422
1,0,253,-2.9721810817718506
1,0,254,-2.974979877471924
1,0,255,-3.045358419418335
1,1,0,-0.03490370139479637
1,1,1,0.03263359144330025
1,1,2,-0.01416926458477974
1,1,3,-0.00362531840801239
1,1,4,0.02614186331629753
1,1,5,0.018517788499593735
1,1,6,-0.021534014493227005
1,1,7,-0.029355444014072418
1,1,8,-0.03781280666589737
1,1,9,-0.004674937576055527
1,1,10,-0.016607485711574554
1,1,11,-0.026121167466044426
1,1,12,-0.00646534189581871
1,1,13,0.02242523804306984
1,1,14,-0.00637475773692131
1,1,15,-0.028754644095897675
1,1,16,-0.02553670108318329
1,1,17,0.024733353406190872
1,1,18,0.01428554579615593
1,1,19,-0.01581680029630661
1,1,20,-0.013322960585355759
1,1,21,-0.0225776769220829
1,1,22,0.017469029873609543
1,1,23,0.01614120602607727
1,1,24,0.0064927153289318085
1,1,25,-0.034823816269636154
1,1,26,0.01618190109729767
1,1,27,0.038596753031015396
1,1,28,0.03688623383641243
1,1,29,0.0033079683780670166
1,1,30,0.03266412392258644
1,1,31,0.020035866647958755
1,1,32,0.014340180903673172
1,1,33,-0.019568733870983124
1,1,34,0.03521494194865227
1,1,35,0.010308496654033661
1,1,36,-0.023397265002131462
1,1,37,0.02410532906651497
1,1,38,-0.011244185268878937
1,1,39,0.03241158649325371
1,1,40,-0.041917167603969574
1,1,41,-0.044042665511369705
1,1,42,-0.036452583968639374
1,1,43,-0.010448608547449112
1,1,44,0.03690436854958534
1,1,45,-0.0021154098212718964
1,1,46,0.008445348590612411
1,1,47,-0.015959816053509712
1,1,48,0.007111936807632446
1,1,49,0.03402106091380119
1,1,50,-0.021166663616895676
1,1,51,-0.04170243442058563
1,1,52,0.04107453301548958
1,1,53,0.00949416309595108
1,1,54,-0.03164560720324516
1,1,55,0.00566970556974411
1,1,56,0.037652697414159775
1,1,57,0.0030375346541404724
1,1,58,0.00028990209102630615
1,1,59,0.016799822449684143
1,1,60,-0.023624245077371597
1,1,61,-0.019428543746471405
1,1,62,-0.017747636884450912
1,1,63,-0.00487108901143074
1,1,64,0.029122386127710342
1,1,65,0.04038118198513985
1,1,66,-0.04182896763086319
1,1,67,0.0008749067783355713
1,1,68,-0.006501905620098114
1,1,69,0.017394009977579117
1,1,70,0.022568490356206894
1,1,71,0.029170218855142593
1,1,72,0.03625034913420677
1,1,73,-0.006317060440778732
1,1,74,-0.0328441746532917
1,1,75,0.016696356236934662
1,1,76,-0.022919613867998123
1,1,77,0.0428481362760067
1,1,78,-0.03399764746427536
1,1,79,-0.032274212688207626
1,1,80,-0.016231641173362732
1,1,81,0.005947701632976532
1,1,82,-0.009403839707374573
1,1,83,0.01724967733025551
1,1,84,-0.00015242397785186768
1,1,85,0.010678626596927643
1,1,86,0.03976989910006523
1,1,87,-0.04142250865697861
1,1,88,-0.00990254059433937
1,1,89,-0.04358038678765297
1,1,90,0.0017907209694385529
1,1,91,0.01003400981426239
1,1,92,-0.02476433478295803
1,1,93,0.0031823888421058655
1,1,94,0.022688020020723343
1,1,95,-0.019363820552825928
1,1,96,0.044055189937353134
1,1,97,-0.03482510894536972
1,1,98,0.03503572568297386
1,1,99,-0.00939905270934105
1,1,100,-0.026509681716561317
1,1,101,0.039430562406778336
1,1,102,-0.026556191965937614
1,1,103,-0.04298119619488716
1,1,104,0.030450988560914993
1,1,105,-0.02853032946586609
1,1,106,-0.035252802073955536
1,1,107,-0.020885290578007698
1,1,108,-0.0009154751896858215
1,1,109,-0.0195621270686388
1,1,110,0.031411584466695786
1,1,111,0.00048554688692092896
1,1,112,-0.0024867020547389984
1,1,113,0.0001164264976978302
1,1,114,-0.011646945029497147
1,1,115,0.04054511711001396
1,1,116,0.012884221971035004
1,1,117,-0.04130890965461731
1,1,118,0.005805306136608124
1,1,119,-0.004738792777061462
1,1,120,0.04175284132361412
1,1,121,-0.012053165584802628
1,1,122,-0.025670580565929413
1,1,123,0.010826032608747482
1,1,124,-0.03293874114751816
1,1,125,0.027634646743535995
1,1,126,0.008153613656759262
1,1,127,-0.024107376113533974
1,1,128,0.021030958741903305
1,1,129,0.009678374975919724
1,1,130,0.027080927044153214
1,1,131,-0.014123698696494102
1,1,132,-0.01845618337392807
1,1,133,-0.03137477859854698
1,1,134,0.031302329152822495
1,1,135,-0.025005778297781944
1,1,136,0.03920377418398857
1,1,137,0.039849136024713516
1,1,138,0.037933286279439926
1,1,139,-0.028609585016965866
1,1,140,-0.043291546404361725
1,1,141,0.020158778876066208
1,1,142,0.012528907507658005
1,1,143,0.04050324484705925
1,1,144,-0.01147850975394249
1,1,145,0.020413193851709366
1,1,146,0.012594826519489288
1,1,147,0.04325632378458977
1,1,148,0.011366862803697586
1,1,149,-0.009335100650787354
1,1,150,-0.026804594323039055
1,1,151,0.011745668947696686
1,1,152,0.03048579767346382
1,1,153,0.014529898762702942
1,1,154,-0.03413926064968109
1,1,155,-0.0005237869918346405
1,1,156,0.03564516827464104
1,1,157,-0.039610907435417175
1,1,158,0.03513641282916069
1,1,159,-0.007995940744876862
1,1,160,-0.0392729751765728
1,1,161,0.006232015788555145
1,1,162,0.024196814745664597
1,1,163,-0.03480243682861328
1,1,164,-0.023256493732333183
1,1,165,0.013457566499710083
1,1,166,-0.043977923691272736
1,1,167,-0.00723523274064064
1,1,168,-0.02368006855249405
1,1,169,-0.030914291739463806
1,1,170,-0.008378323167562485
1,1,171,-0.012814104557037354
1,1,172,-0.0008297041058540344
1,1,173,-0.00846625491976738
1,1,174,-0.032227374613285065
1,1,175,0.010320797562599182
1,1,176,-0.023243948817253113
1,1,177,-0.041514765471220016
1,1,178,-0.01899597980082035
1,1,179,-0.014292038977146149
1,1,180,0.03447066619992256
1,1,181,-0.0013138428330421448
1,1,182,0.03963181748986244
1,1,183,-0.0002346634864807129
1,1,184,-0.0119827501475811
1,1,185,0.023762058466672897
1,1,186,0.00661308690905571
1,1,187,0.033188264816999435
1,1,188,0.03898172453045845
1,1,189,-0.029528003185987473
1,1,190,-0.0008007250726222992
1,1,191,0.04239613935351372
1,1,192,0.0013900399208068848
1,1,193,0.01644863933324814
1,1,194,0.008141059428453445
1,1,195,-0.016440853476524353
1,1,196,-0.00974869355559349
1,1,197,-0.018147146329283714
1,1,198,0.02213113382458687
1,1,199,0.02165577933192253
1,1,200,-0.023166926577687263
1,1,201,0.01160290464758873
1,1,202,0.03451012447476387
1,1,203,-0.0011969655752182007
1,1,204,0.017666220664978027
1,1,205,-0.040798623114824295
1,1,206,0.02159183844923973
1,1,207,0.008058041334152222
1,1,208,-0.012982023879885674
1,1,209,-0.025705603882670403
1,1,210,0.006670176982879639
1,1,211,-0.020862674340605736
1,1,212,0.002095848321914673
1,1,213,-0.02017306722700596
1,1,214,0.012734737247228622
1,1,215,-0.031102171167731285
1,1,216,-0.013228684663772583
1,1,217,-0.003791157156229019
1,1,218,-0.009913250803947449
1,1,219,-0.04010220989584923
1,1,220,-0.013109376654028893
1,1,221,-0.005990467965602875
1,1,222,-0.027977999299764633
1,1,223,-0.026948852464556694
1,1,224,0.03893721476197243
1,1,225,0.001116771250963211
1,1,226,-0.004933714866638184
1,1,227,-0.020883899182081223
1,1,228,0.030932005494832993
1,1,229,-0.0021224208176136017
1,1,230,0.0008725151419639587
1,1,231,0.013491272926330566
1,1,232,-0.02892039343714714
1,1,233,0.006652627140283585
1,1,234,-0.0008777976036071777
1,1,235,-0.028542082756757736
1,1,236,-0.021769115701317787
1,1,237,-0.024884015321731567
1,1,238,0.04041269049048424
1,1,239,0.0023640021681785583
1,1,240,-0.006290927529335022
1,1,241,-0.02051031030714512
1,1,242,0.01677519455552101
1,1,243,0.04329628869891167
1,1,244,-0.01925407163798809
1,1,245,-0.005286350846290588
1,1,246,0.04159050062298775
1,1,247,-0.0037869736552238464
1,1,248,-0.018745005130767822
1,1,249,-0.014286300167441368
1,1,250,0.030388321727514267
1,1,251,0.04191242530941963
1,1,252,-0.03371968865394592
1,1,253,-0.037284575402736664
1,1,254,0.003335706889629364
1,1,255,0.018293242901563644
1,2,0,-0.03796239197254181
1,2,1,3.0061137676239014
1,2,2,-3.0024452209472656
1,2,3,0.013379529118537903
1,2,4,3.022871255874634
1,2,5,0.00025983527302742004
1,2,6,2.9769821166992188
1,2,7,-2.958726644515991
1,2,8,-0.036281973123550415
1,2,9,-0.03453409671783447
1,2,10,-0.029935471713542938
1,2,11,2.971369504928589
1,2,12,-2.977147102355957
1,2,13,-0.026637449860572815
1,2,14,-2.9720609188079834
1,2,15,2.99114990234375
1,2,16,0.006472073495388031
1,2,17,-0.03783545270562172
1,2,18,0.031429190188646317
1,2,19,3.0062711238861084
1,2,20,-2.9781742095947266
1,2,21,3.000089168548584
1,2,22,-0.02637930028140545
1,2,23,-2.9833950996398926
1,2,24,-0.01831689290702343
1,2,25,-0.03365738317370415
1,2,26,3.0465657711029053
1,2,27,0.01699201762676239
1,2,28,2.9985504150390625
1,2,29,0.023669827729463577
1,2,30,-3.0088984966278076
1,2,31,3.0232906341552734
1,2,32,-2.992248296737671
1,2,33,3.0164499282836914
1,2,34,0.0047994256019592285
1,2,35,0.025403525680303574
1,2,36,3.009039878845215
1,2,37,-3.0248520374298096
1,2,38,0.013314079493284225
1,2,39,3.046339750289917
1,2,40,-3.0413105487823486
1,2,41,-0.03488212823867798
1,2,42,-2.9638428688049316
1,2,43,-0.006187085062265396
1,2,44,0.03181735798716545
1,2,45,2.9801793098449707
1,2,46,-0.04102057218551636
1,2,47,-3.0072600841522217
1,2,48,0.018417689949274063
1,2,49,2.9865500926971436
1,2,50,-0.032727330923080444
1,2,51,-0.028054753318428993
1,2,52,2.988633632659912
1,2,53,-2.969090700149536
1,2,54,0.03652871772646904
1,2,55,-0.028459031134843826
1,2,56,-2.9769256114959717
1,2,57,-0.03039165958762169
1,2,58,-0.0022914037108421326
1,2,59,0.0011277608573436737
1,2,60,3.020101308822632
1,2,61,2.991283416748047
1,2,62,0.032656121999025345
1,2,63,2.9796719551086426
1,2,64,-2.9846537113189697
1,2,65,2.979463815689087
1,2,66,0.01984197273850441
1,2,67,-0.0006518475711345673
1,2,68,-2.967407464981079
1,2,69,-0.034252241253852844
1,2,70,3.015641689300537
1,2,71,-0.028631586581468582
1,2,72,-3.0167059898376465
1,2,73,-2.962064504623413
1,2,74,0.04229465499520302
1,2,75,3.0356030464172363
1,2,76,-2.997403144836426
1,2,77,0.02315022423863411
1,2,78,0.026037845760583878
1,2,79,0.016958389431238174
1,2,80,-0.04130959138274193
1,2,81,0.0325821153819561
1,2,82,-2.974203586578369
1,2,83,-0.012502167373895645
1,2,84,0.0073603130877017975
1,2,85,-0.01066054031252861
1,2,86,0.03384331986308098
1,2,87,0.008563440293073654
1,2,88,0.016477201133966446
1,2,89,-2.9673573970794678
1,2,90,-3.032174587249756
1,2,91,-2.970560073852539
1,2,92,-2.979480743408203
1,2,93,3.001119613647461
1,2,94,0.011062726378440857
1,2,95,-3.0272421836853027
1,2,96,-0.02804057113826275
1,2,97,-3.0084481239318848
1,2,98,2.99341082572937
1,2,99,0.03722738102078438
1,2,100,-0.0026676319539546967
1,2,101,-3.002544403076172
1,2,102,0.04324113950133324
1,2,103,-2.967984437942505
1,2,104,-0.04378402605652809
1,2,105,-3.00300931930542
1,2,106,-0.022917484864592552
1,2,107,3.0230932235717773
1,2,108,-2.9942383766174316
1,2,109,-0.035109974443912506
1,2,110,2.9890570640563965
1,2,111,-0.024327518418431282
1,2,112,-2.9629709720611572
1,2,113,3.0372982025146484
1,2,114,0.029471900314092636
1,2,115,0.028257284313440323
1,2,116,-3.0009450912475586
1,2,117,-3.0155153274536133
1,2,118,-3.0308547019958496
1,2,119,3.006885051727295
1,2,120,0.001682080328464508
1,2,121,-0.030414186418056488
1,2,122,0.03605901822447777
1,2,123,-3.021221160888672
1,2,124,0.019721392542123795
1,2,125,2.9824280738830566
1,2,126,2.982283592224121
1,2,127,-3.0200719833374023
1,2,128,-2.9836158752441406
1,2,129,-3.021406650543213
1,2,130,-3.000931978225708
1,2,131,0.01599970832467079
1,2,132,-0.038894638419151306
1,2,133,-3.011669874191284
1,2,134,-0.021940674632787704
1,2,135,2.9656970500946045
1,2,136,0.03460846468806267
1,2,137,3.0292105674743652
1,2,138,2.9866063594818115
1,2,139,-3.0377676486968994
1,2,140,-3.007499933242798
1,2,141,-0.036120735108852386
1,2,142,-0.0138541329652071
1,2,143,2.9906015396118164
1,2,144,2.9999818801879883
1,2,145,-3.037078619003296
1,2,146,0.020504716783761978
1,2,147,-2.9748928546905518
1,2,148,0.024534005671739578
1,2,149,0.016094088554382324
1,2,150,-3.0016860961914062
1,2,151,-3.0222764015197754
1,2,152,-3.000234365463257
1,2,153,0.02628326788544655
1,2,154,0.04004016891121864
1,2,155,0.02043415978550911
1,2,156,-2.9992003440856934
1,2,157,2.970268964767456
1,2,158,-0.019182363525032997
1,2,159,0.020333725959062576
1,2,160,3.0311977863311768
1,2,161,0.03388555720448494
1,2,162,-0.025673573836684227
1,2,163,-3.0426387786865234
1,2,164,-3.010503053665161
1,2,165,0.011988077312707901
1,2,166,0.012151900678873062
1,2,167,2.9814913272857666
1,2,168,-0.019173016771674156
1,2,169,2.964580535888672
1,2,170,2.9844963550567627
1,2,171,0.007805522531270981
1,2,172,-0.04316946119070053
1,2,173,0.033709440380334854
1,2,174,-0.030639030039310455
1,2,175,3.006544589996338
1,2,176,-0.026241285726428032
1,2,177,-3.0320866107940674
1,2,178,-0.011671975255012512
1,2,179,-3.028888463973999
1,2,180,0.00545843318104744
1,2,181,-2.983541965484619
1,2,182,-3.044682264328003
1,2,183,0.002973996102809906
1,2,184,3.0354292392730713
1,2,185,-0.02263813652098179
1,2,186,-2.995328187942505
1,2,187,2.987281322479248
1,2,188,2.990165948867798
1,2,189,-0.007750384509563446
1,2,190,0.04035179689526558
1,2,191,-2.9838318824768066
1,2,192,-0.043609410524368286
1,2,193,2.983914613723755
1,2,194,2.9737589359283447
1,2,195,-0.03816569223999977
1,2,196,-3.0239760875701904
1,2,197,0.007100507616996765
1,2,198,0.0016619041562080383
1,2,199,-0.01679956540465355
1,2,200,0.022517595440149307
1,2,201,-3.0268542766571045
1,2,202,-0.009706225246191025
1,2,203,0.0335543192923069
1,2,204,-2.9835221767425537
1,2,205,0.028627362102270126
1,2,206,-2.9882850646972656
1,2,207,-2.9606292247772217
1,2,208,-2.972407817840576
1,2,209,-2.962245464324951
1,2,210,-3.008235454559326
1,2,211,2.9878523349761963
1,2,212,2.995100498199463
1,2,213,-0.0005967617034912109
1,2,214,3.002941131591797
1,2,215,-0.03333752602338791
1,2,216,3.0398378372192383
1,2,217,-3.020801067352295
1,2,218,0.03496909514069557
1,2,219,2.9678499698638916
1,2,220,2.9714365005493164
1,2,221,0.012303434312343597
1,2,222,-2.990326404571533
1,2,223,-3.001857042312622
1,2,224,-0.008545853197574615
1,2,225,0.005185253918170929
1,2,226,-0.008709892630577087
1,2,227,0.032419536262750626
1,2,228,2.971787929534912
1,2,229,2.9672372341156006
1,2,230,3.002544403076172
1,2,231,-2.9723854064941406
1,2,232,-3.006580114364624
1,2,233,3.0246224403381348
1,2,234,-0.03274092078208923
1,2,235,2.990293264389038
1,2,236,2.9677188396453857
1,2,237,-3.025465726852417
1,2,238,2.9700543880462646
1,2,239,0.0012292973697185516
1,2,240,-2.9633731842041016
1,2,241,-0.010286189615726471
1,2,242,-2.9788780212402344
1,2,243,-2.986562490463257
1,2,244,0.009960852563381195
1,2,245,0.043197061866521835
1,2,246,-0.011157818138599396
1,2,247,-0.0338975265622139
1,2,248,-0.03681883215904236
1,2,249,-3.0225961208343506
1,2,250,-0.023607725277543068
1,2,251,-0.04239198938012123
1,2,252,2.9780948162078857
1,2,253,-3.0238420963287354
1,2,254,-2.9869771003723145
1,2,255,-3.0444743633270264
1,3,0,-0.008581109344959259
1,3,1,-0.024500569328665733
1,3,2,0.011175069957971573
1,3,3,5.503744602203369
1,3,4,-0.021180491894483566
1,3,5,-0.019328907132148743
1,3,6,5.46294641494751
1,3,7,-5.4187774658203125
1,3,8,-0.01727280579507351
1,3,9,5.4819560050964355
1,3,10,0.005673382431268692
1,3,11,5.430100440979004
1,3,12,-0.03348909318447113
1,3,13,-0.01008768379688263
1,3,14,-0.005725875496864319
1,3,15,0.006872229278087616
1,3,16,0.0285157673060894
1,3,17,-0.007639080286026001
1,3,18,-5.440155982971191
1,3,19,5.459297180175781
1,3,20,-5.45473575592041
1,3,21,5.487054347991943
1,3,22,-5.480517864227295
1,3,23,-0.020300187170505524
1,3,24,-5.478384017944336
1,3,25,-0.04333696886897087
1,3,26,5.4940924644470215
1,3,27,-0.03669578582048416
1,3,28,-0.023004893213510513
1,3,29,-5.435642242431641
1,3,30,0.0015176869928836823
1,3,31,5.485428333282471
1,3,32,-5.42803955078125
1,3,33,5.4662041664123535
1,3,34,-5.45762825012207
1,3,35,5.477501392364502
1,3,36,5.506582736968994
1,3,37,-5.458377361297607
1,3,38,-0.004259329289197922
1,3,39,-0.033043134957551956
1,3,40,-5.453927040100098
1,3,41,5.494447708129883
1,3,42,-5.421126842498779
1,3,43,0.00788881629705429
1,3,44,-5.449387550354004
1,3,45,-0.03757058456540108
1,3,46,-0.02272166684269905
1,3,47,-5.458889484405518
1,3,48,-5.423175811767578
1,3,49,-0.042356498539447784
1,3,50,-5.430716037750244
1,3,51,-5.504086017608643
1,3,52,5.485350608825684
1,3,53,-0.029078669846057892
1,3,54,-5.469683647155762
1,3,55,-0.01817779242992401
1,3,56,-0.018743177875876427
1,3,57,-0.00731191411614418
1,3,58,-0.030739808455109596
1,3,59,-0.02184782549738884
1,3,60,-0.013532893732190132
1,3,61,-0.011872515082359314
1,3,62,-5.499189853668213
1,3,63,-0.004190824925899506
1,3,64,-5.425734996795654
1,3,65,5.4908647537231445
1,3,66,-0.004656758159399033
1,3,67,-0.018739931285381317
1,3,68,-5.441705703735352
1,3,69,-0.021381769329309464
1,3,70,5.492504596710205
1,3,71,0.04238991066813469
1,3,72,-5.4416823387146
1,3,73,0.026670459657907486
1,3,74,0.010766152292490005
1,3,75,5.502309799194336
1,3,76,-5.42009162902832
1,3,77,-0.037402618676424026
1,3,78,-0.02173776365816593
1,3,79,-5.430504322052002
1,3,80,-5.453449726104736
1,3,81,5.488983631134033
1,3,82,0.00943923369050026
1,3,83,-0.001457270234823227
1,3,84,-5.473633766174316
1,3,85,-5.474618911743164
1,3,86,-5.4910807609558105
1,3,87,-5.492714881896973
1,3,88,-5.504151344299316
1,3,89,0.018246151506900787
1,3,90,-5.447857856750488
1,3,91,-5.437552452087402
1,3,92,0.025792855769395828
1,3,93,5.445004940032959
1,3,94,-5.503702163696289
1,3,95,-0.03022671863436699
1,3,96,0.01341693103313446
1,3,97,-0.021649355068802834
1,3,98,5.470464706420898
1,3,99,-0.012464482337236404
1,3,100,-0.037486545741558075
1,3,101,-5.440471649169922
1,3,102,0.012500695884227753
1,3,103,-0.03784521296620369
1,3,104,0.03002839908003807
1,3,105,-5.440723419189453
1,3,106,-0.04318825528025627
1,3,107,-0.02060605213046074
1,3,108,0.0058494023978710175
1,3,109,0.021274399012327194
1,3,110,5.429061412811279
1,3,111,0.009188883006572723
1,3,112,-0.040416423231363297
1,3,113,-0.012212567031383514
1,3,114,-5.450259208679199
1,3,115,-5.458784580230713
1,3,116,-5.443987846374512
1,3,117,-0.005656443536281586
1,3,118,-0.043775469064712524
1,3,119,-0.03859885036945343
1,3,120,-0.03508367761969566
1,3,121,-5.437526702880859
1,3,122,-5.467287540435791
1,3,123,0.007805168628692627
1,3,124,-5.463339805603027
1,3,125,0.004266384989023209
1,3,126,5.461784362792969
1,3,127,0.008619420230388641
1,3,128,-0.038207873702049255
1,3,129,-0.0032907314598560333
1,3,130,-0.02108142152428627
1,3,131,-5.45327615737915
1,3,132,-5.4670209884643555
1,3,133,-0.002193976193666458
1,3,134,-0.04340424761176109
1,3,135,-0.015178307890892029
1,3,136,-0.04330988973379135
1,3,137,0.02778080478310585
1,3,138,-0.037551149725914
1,3,139,-0.02886219322681427
1,3,140,-0.03105810657143593
1,3,141,-5.461424827575684
1,3,142,-0.0073517486453056335
1,3,143,-0.014632437378168106
1,3,144,5.49300479888916
1,3,145,-5.458532810211182
1,3,146,0.024873871356248856
1,3,147,-5.466932773590088
1,3,148,-5.41949987411499
1,3,149,0.0048565007746219635
1,3,150,-5.488577842712402
1,3,151,-0.0031167790293693542
1,3,152,-0.03299768269062042
1,3,153,-0.015180045738816261
1,3,154,-5.438901901245117
1,3,155,-0.004612740129232407
1,3,156,-0.002190530300140381
1,3,157,5.506518363952637
1,3,158,-5.446994781494141
1,3,159,-0.024053474888205528
1,3,160,5.497105121612549
1,3,161,-5.475571632385254
1,3,162,-0.012118730694055557
1,3,163,-5.495141506195068
1,3,164,0.004743315279483795
1,3,165,-0.030059415847063065
1,3,166,5.44879674911499
1,3,167,-0.043201565742492676
1,3,168,5.455868721008301
1,3,169,-0.032174594700336456
1,3,170,-0.038650788366794586
1,3,171,-5.474055767059326
1,3,172,5.506639003753662
1,3,173,-5.448525428771973
1,3,174,-0.035874851047992706
1,3,175,-0.0351782962679863
1,3,176,0.016094960272312164
1,3,177,-5.440291404724121
1,3,178,-0.002746548503637314
1,3,179,0.021086666733026505
1,3,180,-5.4887237548828125
1,3,181,-5.440120697021484
1,3,182,-5.487859725952148
1,3,183,0.010030806064605713
1,3,184,5.483942985534668
1,3,185,0.011768676340579987
1,3,186,-5.454553604125977
1,3,187,5.4941325187683105
1,3,188,5.4557271003723145
1,3,189,-5.480045795440674
1,3,190,-0.03446982055902481
1,3,191,-0.030305437743663788
1,3,192,-0.03733506426215172
1,3,193,5.501276016235352
1,3,194,5.467490196228027
1,3,195,-5.495728969573975
1,3,196,0.0366128645837307
1,3,197,-0.015310822054743767
1,3,198,-5.435265064239502
1,3,199,-0.04021243751049042
1,3,200,0.03497821465134621
1,3,201,-0.007197443395853043
1,3,202,-5.420565605163574
1,3,203,-0.036677055060863495
1,3,204,-0.009795218706130981
1,3,205,0.01087735965847969
1,3,206,0.034865740686655045
1,3,207,0.003128301352262497
1,3,208,-0.02752964198589325
1,3,209,0.031747955828905106
1,3,210,-0.009285565465688705
1,3,211,5.476233005523682
1,3,212,5.449742317199707
1,3,213,-0.03318942338228226
1,3,214,-0.010699983686208725
1,3,215,-0.0010339058935642242
1,3,216,5.459245681762695
1,3,217,-5.479991912841797
1,3,218,0.026772934943437576
1,3,219,-0.012973569333553314
1,3,220,-0.023058466613292694
1,3,221,-0.034421514719724655
1,3,222,-0.02758408896625042
1,3,223,-5.452908992767334
1,3,224,0.02261194959282875
1,3,225,0.0013169795274734497
1,3,226,-5.45720100402832
1,3,227,0.027579594403505325
1,3,228,5.496452331542969
1,3,229,0.0036165304481983185
1,3,230,-0.010473456233739853
1,3,231,0.02533755823969841
1,3,232,-5.471895694732666
1,3,233,5.461811542510986
1,3,234,-0.03344365209341049
1,3,235,-0.04193826764822006
1,3,236,-0.01771952584385872
1,3,237,-5.419032573699951
1,3,238,5.489477157592773
1,3,239,0.030349720269441605
1,3,240,-0.03385388106107712
1,3,241,-0.0061338432133197784
1,3,242,-0.027521880343556404
1,3,243,-0.04341822862625122
1,3,244,-0.009294308722019196
1,3,245,0.024603452533483505
1,3,246,-5.470521450042725
1,3,247,-5.424191474914551
1,3,248,-5.451986789703369
1,3,249,0.005580417811870575
1,3,250,-0.002658482640981674
1,3,251,5.495361328125
1,3,252,0.010146837681531906
1,3,253,-0.006575867533683777
1,3,254,0.04158611223101616
1,3,255,-5.486661911010742
1,4,0,-2.766982078552246
1,4,1,-2.2441749572753906
1,4,2,-2.9992623329162598
1,4,3,-2.7697486877441406
1,4,4,-2.295837163925171
1,4,5,2.6178646087646484
1,4,6,-2.3024473190307617
1,4,7,-3.0207529067993164
1,4,8,-0.0018692165613174438
1,4,9,2.601287364959717
1,4,10,2.60923433303833
1,4,11,-2.2316479682922363
1,4,12,-2.967622995376587
1,4,13,0.04223744943737984
1,4,14,-2.9975807666778564
1,4,15,-2.299626350402832
1,4,16,-0.0010236091911792755
1,4,17,0.011237945407629013
1,4,18,-0.01894672028720379
1,4,19,-2.267611026763916
1,4,20,-3.02071213722229
1,4,21,-2.308988332748413
1,4,22,2.3675873279571533
1,4,23,-2.968700885772705
1,4,24,-0.03755141422152519
1,4,25,-2.7376036643981934
