weight_set_ID,in_node_ID,out_node_ID,weight
0,0,0,-2.0647754669189453
0,0,1,-3.4168291091918945
0,0,2,-2.5722293853759766
0,0,3,-8.142845153808594
0,0,4,-2.9299821853637695
0,0,5,-2.57021164894104
0,0,6,-0.3295750916004181
0,0,7,0.013615041971206665
0,0,8,-2.212493658065796
0,0,9,-3.286824941635132
0,0,10,-1.8896592855453491
0,0,11,-1.8962143659591675
0,0,12,-3.3401389122009277
0,0,13,-9.046326637268066
0,0,14,-9.07750129699707
0,0,15,-3.0499770641326904
0,0,16,-2.8072192668914795
0,0,17,-3.0613465309143066
0,0,18,-2.5142149925231934
0,0,19,-0.1108739972114563
0,0,20,-2.636950969696045
0,0,21,-15.865068435668945
0,0,22,-1.9266784191131592
0,0,23,-3.4022409915924072
0,0,24,-0.3077557682991028
0,0,25,-2.729733943939209
0,0,26,-5.811159610748291
0,0,27,-15.863417625427246
0,0,28,-6.173911094665527
0,0,29,-0.41274434328079224
0,0,30,-0.3404688537120819
0,0,31,-2.9347479343414307
0,0,32,-8.753111839294434
0,0,33,-0.18920737504959106
0,0,34,-8.056917190551758
0,0,35,-8.903351783752441
0,0,36,-3.026529312133789
0,0,37,-2.118964433670044
0,0,38,-8.832928657531738
0,0,39,-10.672877311706543
0,0,40,-0.3129150867462158
0,0,41,-0.1807452142238617
0,0,42,-2.4541730880737305
0,0,43,-2.7948355674743652
0,0,44,-2.0827746391296387
0,0,45,-0.2766742706298828
0,0,46,-2.7150795459747314
0,0,47,-0.34345608949661255
0,0,48,-2.9622318744659424
0,0,49,-2.6878273487091064
0,0,50,-3.2168822288513184
0,0,51,-2.5701825618743896
0,0,52,-2.6044647693634033
0,0,53,-3.2332212924957275
0,0,54,-0.2340666651725769
0,0,55,-0.21445365250110626
0,0,56,-1.9609397649765015
0,0,57,-2.596755266189575
0,0,58,-2.7504348754882812
0,0,59,-0.34586063027381897
0,0,60,-2.918848991394043
0,0,61,-2.8679771423339844
0,0,62,-8.091287612915039
0,0,63,-0.24586157500743866
0,0,64,-3.4821581840515137
0,0,65,-2.1637065410614014
0,0,66,-1.883182406425476
0,0,67,-8.000935554504395
0,0,68,-8.895750999450684
0,0,69,-2.5555849075317383
0,0,70,-0.29600971937179565
0,0,71,-0.15693479776382446
0,0,72,-2.70154070854187
0,0,73,-2.289429187774658
0,0,74,-8.81470775604248
0,0,75,-2.495894193649292
0,0,76,-2.780064821243286
0,0,77,-0.31083112955093384
0,0,78,-3.379988193511963
0,0,79,-0.05916541814804077
0,0,80,-3.3718008995056152
0,0,81,-2.460036039352417
0,0,82,-2.4881086349487305
0,0,83,-2.7319939136505127
0,0,84,-1.863893747329712
0,0,85,-0.3233758509159088
0,0,86,-2.603754997253418
0,0,87,-9.020804405212402
0,0,88,-2.164275884628296
0,0,89,-2.952876091003418
0,0,90,-8.72830581665039
0,0,91,-0.35307368636131287
0,0,92,-2.2348783016204834
0,0,93,-3.522472858428955
0,0,94,-1.916772484779358
0,0,95,-3.4615278244018555
0,0,96,-3.590407609939575
0,0,97,-3.139070749282837
0,0,98,-2.6238350868225098
0,0,99,-2.0057828426361084
0,0,100,-0.08875676989555359
0,0,101,-3.1305766105651855
0,0,102,-8.734969139099121
0,0,103,-2.545896291732788
0,0,104,-2.0428473949432373
0,0,105,-2.985015630722046
0,0,106,-2.616269588470459
0,0,107,-2.4118824005126953
0,0,108,-0.13144344091415405
0,0,109,-1.8622721433639526
0,0,110,-2.6644654273986816
0,0,111,-3.32366943359375
0,0,112,-2.683840036392212
0,0,113,0.005830734968185425
0,0,114,-0.3026423454284668
0,0,115,-8.773062705993652
0,0,116,-0.1101483702659607
0,0,117,-2.807138204574585
0,0,118,-2.811246871948242
0,0,119,-0.37430238723754883
0,0,120,-3.9527599811553955
0,0,121,-8.016214370727539
0,0,122,-2.560352087020874
0,0,123,-0.024641722440719604
0,0,124,-0.2900879383087158
0,0,125,-0.1922384798526764
0,0,126,-3.262653350830078
0,0,127,-2.261030912399292
0,0,128,-2.6596498489379883
0,0,129,-3.8391942977905273
0,0,130,-0.31399333477020264
0,0,131,-3.1803014278411865
0,0,132,-2.338963747024536
0,0,133,-0.15187036991119385
0,0,134,-7.959187984466553
0,0,135,-0.20133911073207855
0,0,136,-2.94809889793396
0,0,137,-2.2327890396118164
0,0,138,-5.052845478057861
0,0,139,-2.9301273822784424
0,0,140,-9.047455787658691
0,0,141,-2.183405637741089
0,0,142,-2.511183977127075
0,0,143,-0.05288097262382507
0,0,144,-2.7105860710144043
0,0,145,-2.59899640083313
0,0,146,-0.17921015620231628
0,0,147,-2.913106679916382
0,0,148,-0.23669089376926422
0,0,149,-8.721015930175781
0,0,150,-4.828357219696045
0,0,151,-2.616614580154419
0,0,152,-2.8355298042297363
0,0,153,-2.6545848846435547
0,0,154,-1.9291622638702393
0,0,155,-0.05726057291030884
0,0,156,-3.4972493648529053
0,0,157,-3.052424430847168
0,0,158,-3.2761363983154297
0,0,159,-2.8004977703094482
0,0,160,-2.17012095451355
0,0,161,-3.1557483673095703
0,0,162,-0.2136705070734024
0,0,163,-0.28052401542663574
0,0,164,-3.3895277976989746
0,0,165,-3.1075844764709473
0,0,166,-2.7399706840515137
0,0,167,-1.981174111366272
0,0,168,-8.135440826416016
0,0,169,0.030020594596862793
0,0,170,-3.918011426925659
0,0,171,-3.0522191524505615
0,0,172,-9.041997909545898
0,0,173,-0.39021724462509155
0,0,174,-3.5953617095947266
0,0,175,-2.3248789310455322
0,0,176,-0.0012472271919250488
0,0,177,-2.521139621734619
0,0,178,-3.520789623260498
0,0,179,-2.9591023921966553
0,0,180,-0.1326635777950287
0,0,181,-3.1135034561157227
0,0,182,-3.1244475841522217
0,0,183,-7.853627681732178
0,0,184,-2.5777571201324463
0,0,185,-2.5104851722717285
0,0,186,-2.4110422134399414
0,0,187,-3.207073926925659
0,0,188,-2.8545455932617188
0,0,189,-2.7803092002868652
0,0,190,-3.7563693523406982
0,0,191,-5.124385833740234
0,0,192,-3.282888650894165
0,0,193,-5.491705894470215
0,0,194,-2.9335434436798096
0,0,195,-9.489566802978516
0,0,196,-0.3398166298866272
0,0,197,-2.86026668548584
0,0,198,-0.037511974573135376
0,0,199,-0.03556594252586365
0,0,200,-2.6879003047943115
0,0,201,-2.104262113571167
0,0,202,-3.615586519241333
0,0,203,-2.677811622619629
0,0,204,-2.0488033294677734
0,0,205,-3.2908406257629395
0,0,206,-3.269484519958496
0,0,207,-3.00040864944458
0,0,208,-3.263446807861328
0,0,209,-3.2227444648742676
0,0,210,-0.36944299936294556
0,0,211,-6.17586612701416
0,0,212,-0.09938830137252808
0,0,213,-2.0494320392608643
0,0,214,-2.999035120010376
0,0,215,-7.977802753448486
0,0,216,-2.4137866497039795
0,0,217,-2.7988157272338867
0,0,218,-3.37980318069458
0,0,219,-2.266052722930908
0,0,220,-3.0404083728790283
0,0,221,-3.6235508918762207
0,0,222,-0.24304558336734772
0,0,223,-9.001266479492188
0,0,224,-2.758744239807129
0,0,225,-2.1386799812316895
0,0,226,-0.30887120962142944
0,0,227,-9.051008224487305
0,0,228,-3.3433845043182373
0,0,229,-0.03798380494117737
0,0,230,-2.2309913635253906
0,0,231,-0.279316246509552
0,0,232,-0.39901435375213623
0,0,233,-2.693232297897339
0,0,234,-1.9862139225006104
0,0,235,-8.019275665283203
0,0,236,-8.1417236328125
0,0,237,-8.857649803161621
0,0,238,-15.85262680053711
0,0,239,-2.6753368377685547
0,0,240,-0.033643513917922974
0,0,241,-0.08909675478935242
0,0,242,-3.4516968727111816
0,0,243,-2.1003847122192383
0,0,244,-3.3054592609405518
0,0,245,-0.24829937517642975
0,0,246,-2.389392375946045
0,0,247,-8.912097930908203
0,0,248,-2.6063497066497803
0,0,249,-8.94538402557373
0,0,250,-1.9293944835662842
0,0,251,-3.8634841442108154
0,0,252,-8.149384498596191
0,0,253,-8.784860610961914
0,0,254,-2.3835232257843018
0,0,255,-9.536474227905273
0,1,0,-2.1668894290924072
0,1,1,-2.5669548511505127
0,1,2,-1.8683851957321167
0,1,3,-8.514266014099121
0,1,4,-2.8232412338256836
0,1,5,-2.1033661365509033
0,1,6,-0.42336201667785645
0,1,7,-0.21618613600730896
0,1,8,-2.2211854457855225
0,1,9,-2.917205333709717
0,1,10,-1.8485736846923828
0,1,11,-2.2434561252593994
0,1,12,-2.9189958572387695
0,1,13,-9.347355842590332
0,1,14,-9.215242385864258
0,1,15,-2.757065773010254
0,1,16,-2.9950149059295654
0,1,17,-2.5911803245544434
0,1,18,-2.2108237743377686
0,1,19,-0.20344866812229156
0,1,20,-2.1217963695526123
0,1,21,-16.07956886291504
0,1,22,-2.0585134029388428
0,1,23,-2.765979528427124
0,1,24,-0.2823963463306427
0,1,25,-2.065199136734009
0,1,26,-5.963205337524414
0,1,27,-16.092252731323242
0,1,28,-6.783531665802002
0,1,29,-0.3634923994541168
0,1,30,-0.2698085904121399
0,1,31,-2.7743968963623047
0,1,32,-9.482917785644531
0,1,33,-0.44476619362831116
0,1,34,-8.413419723510742
0,1,35,-9.376450538635254
0,1,36,-2.6449549198150635
0,1,37,-2.189236879348755
0,1,38,-9.521332740783691
0,1,39,-11.071760177612305
0,1,40,-0.19033023715019226
0,1,41,-0.2058999091386795
0,1,42,-2.0705771446228027
0,1,43,-2.9887518882751465
0,1,44,-1.9363183975219727
0,1,45,-0.2215384989976883
0,1,46,-2.834348201751709
0,1,47,-0.07959559559822083
0,1,48,-2.639869213104248
0,1,49,-2.239013433456421
0,1,50,-2.893043279647827
0,1,51,-2.627305507659912
0,1,52,-2.991668939590454
0,1,53,-2.812192440032959
0,1,54,-0.18442800641059875
0,1,55,-0.10359072685241699
0,1,56,-2.223135232925415
0,1,57,-2.255164384841919
0,1,58,-2.7754149436950684
0,1,59,-0.2730211615562439
0,1,60,-2.8669278621673584
0,1,61,-2.741114616394043
0,1,62,-8.612823486328125
0,1,63,-0.13468310236930847
0,1,64,-3.9953062534332275
0,1,65,-2.26541805267334
0,1,66,-2.249166250228882
0,1,67,-8.585866928100586
0,1,68,-9.451728820800781
0,1,69,-2.687347888946533
0,1,70,-0.20915967226028442
0,1,71,-0.041089802980422974
0,1,72,-1.862259030342102
0,1,73,-2.145735502243042
0,1,74,-9.483057975769043
0,1,75,-2.1816325187683105
0,1,76,-2.8889312744140625
0,1,77,-0.28294169902801514
0,1,78,-2.8639161586761475
0,1,79,-0.0343644917011261
0,1,80,-2.8026793003082275
0,1,81,-2.1745593547821045
0,1,82,-2.021855115890503
0,1,83,-2.9685451984405518
0,1,84,-1.8470937013626099
0,1,85,-0.1839398741722107
0,1,86,-1.9928034543991089
0,1,87,-9.233855247497559
0,1,88,-2.047498941421509
0,1,89,-2.974095582962036
0,1,90,-9.548937797546387
0,1,91,-0.3120957314968109
0,1,92,-2.6198222637176514
0,1,93,-4.02418327331543
0,1,94,-2.246821880340576
0,1,95,-4.060595512390137
0,1,96,-3.9747588634490967
0,1,97,-2.792670249938965
0,1,98,-2.2796525955200195
0,1,99,-1.856137990951538
0,1,100,-0.35377049446105957
0,1,101,-2.963942527770996
0,1,102,-9.554725646972656
0,1,103,-2.1808321475982666
0,1,104,-2.003762722015381
0,1,105,-2.7008907794952393
0,1,106,-1.950722098350525
0,1,107,-2.22698974609375
0,1,108,-0.041872650384902954
0,1,109,-1.8727474212646484
0,1,110,-1.8887618780136108
0,1,111,-2.7096939086914062
0,1,112,-2.241302490234375
0,1,113,-0.38979730010032654
0,1,114,-0.07566824555397034
0,1,115,-9.56721019744873
0,1,116,-0.10445380210876465
0,1,117,-2.8983254432678223
0,1,118,-2.6760473251342773
0,1,119,-0.30890512466430664
0,1,120,-4.388967037200928
0,1,121,-8.685285568237305
0,1,122,-2.990961790084839
0,1,123,-0.05624955892562866
0,1,124,-0.2505130469799042
0,1,125,-0.10480070114135742
0,1,126,-2.9256045818328857
0,1,127,-1.9672374725341797
0,1,128,-1.9077816009521484
0,1,129,-4.413880825042725
0,1,130,-0.4019457697868347
0,1,131,-2.9642202854156494
0,1,132,-2.672766923904419
0,1,133,-0.30166471004486084
0,1,134,-8.481989860534668
0,1,135,-0.02113187313079834
0,1,136,-2.918461561203003
0,1,137,-2.036189079284668
0,1,138,-5.744894504547119
0,1,139,-2.6562201976776123
0,1,140,-9.250410079956055
0,1,141,-2.6222827434539795
0,1,142,-2.6170966625213623
0,1,143,-0.4302707016468048
0,1,144,-2.280998468399048
0,1,145,-1.9176373481750488
0,1,146,-0.08161243796348572
0,1,147,-2.940065622329712
0,1,148,-0.3957468271255493
0,1,149,-9.564321517944336
0,1,150,-5.039580821990967
0,1,151,-2.825606107711792
0,1,152,-2.889608383178711
0,1,153,-2.734065532684326
0,1,154,-2.227888822555542
0,1,155,-0.3781035244464874
0,1,156,-3.9878523349761963
0,1,157,-2.9678893089294434
0,1,158,-2.7620162963867188
0,1,159,-2.6912448406219482
0,1,160,-2.1424400806427
0,1,161,-2.6860833168029785
0,1,162,-0.10132011771202087
0,1,163,-0.15190160274505615
0,1,164,-2.9721944332122803
0,1,165,-2.901293992996216
0,1,166,-2.1818456649780273
0,1,167,-1.934906244277954
0,1,168,-8.354795455932617
0,1,169,-0.4430614411830902
0,1,170,-4.418854713439941
0,1,171,-2.624697208404541
0,1,172,-9.374774932861328
0,1,173,-0.44146591424942017
0,1,174,-4.017435550689697
0,1,175,-1.9304090738296509
0,1,176,-0.1697545051574707
0,1,177,-2.033745288848877
0,1,178,-3.981957197189331
0,1,179,-2.9820315837860107
0,1,180,-0.23065096139907837
0,1,181,-2.865614175796509
0,1,182,-2.6607189178466797
0,1,183,-8.628312110900879
0,1,184,-2.220735549926758
0,1,185,-1.9207713603973389
0,1,186,-2.2540571689605713
0,1,187,-2.8512496948242188
0,1,188,-2.867683172225952
0,1,189,-2.9157330989837646
0,1,190,-3.9306564331054688
0,1,191,-5.698208808898926
0,1,192,-2.8408706188201904
0,1,193,-6.213682174682617
0,1,194,-2.9072647094726562
0,1,195,-10.058489799499512
0,1,196,-0.2828900218009949
0,1,197,-2.59544038772583
0,1,198,-0.2220877707004547
0,1,199,-0.2909340560436249
0,1,200,-2.623753070831299
0,1,201,-2.2910244464874268
0,1,202,-3.9887194633483887
0,1,203,-2.799753189086914
0,1,204,-2.214595079421997
0,1,205,-2.8258728981018066
0,1,206,-2.8970272541046143
0,1,207,-2.8999805450439453
0,1,208,-2.6399290561676025
0,1,209,-2.65529465675354
0,1,210,-0.25468504428863525
0,1,211,-6.792747497558594
0,1,212,-0.40343382954597473
0,1,213,-1.854432225227356
0,1,214,-2.7969436645507812
0,1,215,-8.513223648071289
0,1,216,-1.9232561588287354
0,1,217,-2.601405382156372
0,1,218,-2.7961039543151855
0,1,219,-2.0472965240478516
0,1,220,-2.8156943321228027
0,1,221,-3.983942985534668
0,1,222,-0.010996043682098389
0,1,223,-9.420902252197266
0,1,224,-2.9491965770721436
0,1,225,-2.202845811843872
0,1,226,-0.07130253314971924
0,1,227,-9.45433521270752
0,1,228,-2.650595188140869
0,1,229,-0.17302173376083374
0,1,230,-2.2082831859588623
0,1,231,-0.04867589473724365
0,1,232,-0.10080042481422424
0,1,233,-2.851062297821045
0,1,234,-2.187688112258911
0,1,235,-8.661763191223145
0,1,236,-8.41650104522705
0,1,237,-9.449097633361816
0,1,238,-16.0910701751709
0,1,239,-2.082819700241089
0,1,240,-0.0364643931388855
0,1,241,-0.31479811668395996
0,1,242,-3.9825992584228516
0,1,243,-2.125396490097046
0,1,244,-2.900996685028076
0,1,245,-0.030356407165527344
0,1,246,-2.146575450897217
0,1,247,-9.573019027709961
0,1,248,-2.926417112350464
0,1,249,-9.371649742126465
0,1,250,-1.9234744310379028
0,1,251,-4.444619655609131
0,1,252,-8.554447174072266
0,1,253,-9.55162525177002
0,1,254,-2.1466827392578125
0,1,255,-9.921719551086426
0,2,0,-2.0896382331848145
0,2,1,-3.1285080909729004
0,2,2,-2.4228501319885254
0,2,3,-7.895878791809082
0,2,4,-2.756690502166748
0,2,5,-1.9879353046417236
0,2,6,0.1358104944229126
0,2,7,0.3852717876434326
0,2,8,-1.9334461688995361
0,2,9,-3.446648597717285
0,2,10,-2.5864548683166504
0,2,11,-2.0411946773529053
0,2,12,-2.819427967071533
0,2,13,-9.15107536315918
0,2,14,-9.083786010742188
0,2,15,-3.0337324142456055
0,2,16,-3.1919031143188477
0,2,17,-3.1092560291290283
0,2,18,-2.7268543243408203
0,2,19,0.1621418595314026
0,2,20,-2.6541194915771484
0,2,21,-15.456642150878906
0,2,22,-1.8791319131851196
0,2,23,-2.8919239044189453
0,2,24,0.40700089931488037
0,2,25,-1.9448106288909912
0,2,26,-5.7048258781433105
0,2,27,-15.619136810302734
0,2,28,-6.261175632476807
0,2,29,0.13543599843978882
0,2,30,0.15335392951965332
0,2,31,-2.804403066635132
0,2,32,-9.471528053283691
0,2,33,0.4046693444252014
0,2,34,-7.9273362159729
0,2,35,-8.759586334228516
0,2,36,-3.3896079063415527
0,2,37,-2.523158073425293
0,2,38,-9.017491340637207
0,2,39,-10.513690948486328
0,2,40,-0.029421687126159668
0,2,41,0.1393805742263794
0,2,42,-2.090510368347168
0,2,43,-2.9711475372314453
0,2,44,-2.0996811389923096
0,2,45,0.14894402027130127
0,2,46,-2.9439053535461426
0,2,47,-0.3026829957962036
0,2,48,-2.7745087146759033
0,2,49,-1.909845232963562
0,2,50,-3.285118579864502
0,2,51,-2.9631333351135254
0,2,52,-2.7061617374420166
0,2,53,-3.2122347354888916
0,2,54,0.3010697364807129
0,2,55,-0.3877089023590088
0,2,56,-2.5998573303222656
0,2,57,-2.1997604370117188
0,2,58,-3.1456148624420166
0,2,59,0.3928842544555664
0,2,60,-2.707216739654541
0,2,61,-3.075986385345459
0,2,62,-7.789583683013916
0,2,63,0.22814249992370605
0,2,64,-4.297521114349365
0,2,65,-1.9716203212738037
0,2,66,-2.2413620948791504
0,2,67,-8.556729316711426
0,2,68,-8.86991024017334
0,2,69,-2.849792003631592
0,2,70,0.32504040002822876
0,2,71,0.25349879264831543
0,2,72,-2.0059125423431396
0,2,73,-2.0572996139526367
0,2,74,-8.908262252807617
0,2,75,-2.0134732723236084
0,2,76,-3.423227548599243
0,2,77,-0.21579067409038544
0,2,78,-3.3860456943511963
0,2,79,0.30559152364730835
0,2,80,-2.7070255279541016
0,2,81,-1.9788017272949219
0,2,82,-2.5619118213653564
0,2,83,-2.8402276039123535
0,2,84,-2.173391342163086
0,2,85,-0.3902767300605774
0,2,86,-2.207223892211914
0,2,87,-9.199636459350586
0,2,88,-2.2537553310394287
0,2,89,-3.2663090229034424
0,2,90,-9.165433883666992
0,2,91,-0.34884679317474365
0,2,92,-2.6750853061676025
0,2,93,-4.009733200073242
0,2,94,-2.2931907176971436
0,2,95,-4.258148193359375
0,2,96,-3.905913829803467
0,2,97,-3.326630115509033
0,2,98,-2.28214955329895
0,2,99,-2.197392702102661
0,2,100,-0.2748900055885315
0,2,101,-3.388706922531128
0,2,102,-9.316414833068848
0,2,103,-1.9955899715423584
0,2,104,-2.1311120986938477
0,2,105,-2.604369878768921
0,2,106,-1.9455472230911255
0,2,107,-2.5280182361602783
0,2,108,-0.03918763995170593
0,2,109,-1.8937207460403442
0,2,110,-2.001404047012329
0,2,111,-2.8328630924224854
0,2,112,-1.919956088066101
0,2,113,-0.3056134581565857
0,2,114,-0.06719350814819336
0,2,115,-8.882583618164062
0,2,116,-0.4032028615474701
0,2,117,-3.3454020023345947
0,2,118,-2.9429543018341064
0,2,119,0.30650949478149414
0,2,120,-4.3277587890625
0,2,121,-8.602800369262695
0,2,122,-2.903496503829956
0,2,123,-0.36027461290359497
0,2,124,0.3674106001853943
0,2,125,0.32502567768096924
0,2,126,-3.130190849304199
0,2,127,-2.0517418384552
0,2,128,-2.2477080821990967
0,2,129,-3.8445611000061035
0,2,130,0.2306060791015625
0,2,131,-3.122633457183838
0,2,132,-2.910435199737549
0,2,133,0.05728942155838013
0,2,134,-8.501039505004883
0,2,135,0.36480820178985596
0,2,136,-2.8424978256225586
0,2,137,-2.4228525161743164
0,2,138,-5.65033483505249
0,2,139,-3.167511463165283
0,2,140,-9.132037162780762
0,2,141,-2.546999216079712
0,2,142,-2.9697983264923096
0,2,143,-0.009769320487976074
0,2,144,-2.30257511138916
0,2,145,-2.031424045562744
0,2,146,-0.18374508619308472
0,2,147,-2.9252898693084717
0,2,148,0.11188375949859619
0,2,149,-9.4849271774292
0,2,150,-5.300632953643799
0,2,151,-3.0264759063720703
0,2,152,-2.9458906650543213
0,2,153,-2.57472562789917
0,2,154,-2.045804500579834
0,2,155,0.27525949478149414
0,2,156,-3.7750606536865234
0,2,157,-2.5729010105133057
0,2,158,-2.6716973781585693
0,2,159,-3.085190773010254
0,2,160,-2.640833854675293
0,2,161,-2.626603126525879
0,2,162,0.4270482063293457
0,2,163,0.211880624294281
0,2,164,-3.240163803100586
0,2,165,-2.6566262245178223
0,2,166,-2.283534288406372
0,2,167,-2.6120121479034424
0,2,168,-8.412100791931152
0,2,169,-0.2140105813741684
0,2,170,-4.127789497375488
0,2,171,-3.148498773574829
0,2,172,-9.37155532836914
0,2,173,-0.13321799039840698
0,2,174,-3.957636833190918
0,2,175,-2.6569855213165283
0,2,176,-0.06458911299705505
0,2,177,-2.6174139976501465
0,2,178,-3.636641025543213
0,2,179,-2.8292124271392822
0,2,180,0.037130206823349
0,2,181,-3.371896743774414
0,2,182,-2.5745649337768555
0,2,183,-8.607687950134277
0,2,184,-2.5823349952697754
0,2,185,-1.9814629554748535
0,2,186,-2.37837815284729
0,2,187,-2.7365972995758057
0,2,188,-2.7007603645324707
0,2,189,-2.5857439041137695
0,2,190,-3.8495583534240723
0,2,191,-5.9034833908081055
0,2,192,-2.770296812057495
0,2,193,-6.139735698699951
0,2,194,-2.6824073791503906
0,2,195,-9.51619815826416
0,2,196,0.2265186905860901
0,2,197,-3.177995443344116
0,2,198,0.22760462760925293
0,2,199,-0.4276640713214874
0,2,200,-2.9838707447052
0,2,201,-2.5245440006256104
0,2,202,-4.037187099456787
0,2,203,-3.426085948944092
0,2,204,-2.5012853145599365
0,2,205,-3.025402545928955
0,2,206,-2.817810297012329
0,2,207,-3.442014455795288
0,2,208,-3.1142795085906982
0,2,209,-3.065103530883789
0,2,210,-0.17324474453926086
0,2,211,-6.27669095993042
0,2,212,0.014573425054550171
0,2,213,-2.4452896118164062
0,2,214,-2.723341703414917
0,2,215,-8.075139045715332
0,2,216,-2.397568702697754
0,2,217,-2.9628641605377197
0,2,218,-2.975931406021118
0,2,219,-2.3793106079101562
0,2,220,-3.033107280731201
0,2,221,-3.539001941680908
0,2,222,0.1470268964767456
0,2,223,-9.53785228729248
0,2,224,-3.168989896774292
0,2,225,-2.5268096923828125
0,2,226,-0.3376731276512146
0,2,227,-8.692428588867188
0,2,228,-2.6211252212524414
0,2,229,0.07827746868133545
0,2,230,-2.4872124195098877
0,2,231,0.08590954542160034
0,2,232,-0.16035950183868408
0,2,233,-3.3916869163513184
0,2,234,-1.8998774290084839
0,2,235,-7.792268753051758
0,2,236,-8.500833511352539
0,2,237,-9.177613258361816
0,2,238,-16.246896743774414
0,2,239,-1.952519416809082
0,2,240,-0.4122820496559143
0,2,241,-0.28085780143737793
0,2,242,-3.469597816467285
0,2,243,-2.3098270893096924
0,2,244,-3.0494630336761475
0,2,245,-0.34334665536880493
0,2,246,-2.361302614212036
0,2,247,-9.490293502807617
0,2,248,-2.8008034229278564
0,2,249,-8.79382038116455
0,2,250,-2.02227783203125
0,2,251,-4.474308013916016
0,2,252,-8.349924087524414
0,2,253,-9.266498565673828
0,2,254,-2.4836909770965576
0,2,255,-9.586357116699219
0,3,0,-0.1581980288028717
0,3,1,-0.39129745960235596
0,3,2,-0.03915351629257202
0,3,3,9.297247886657715
0,3,4,-0.2599359452724457
0,3,5,0.44658589363098145
0,3,6,0.006538450717926025
0,3,7,-0.22259189188480377
0,3,8,-0.1577390432357788
0,3,9,-0.3268788754940033
0,3,10,0.036185890436172485
0,3,11,0.016514688730239868
0,3,12,0.34492260217666626
0,3,13,-9.431596755981445
0,3,14,-9.521163940429688
0,3,15,0.23553043603897095
0,3,16,0.10782760381698608
0,3,17,0.03943797945976257
0,3,18,-0.08319398760795593
0,3,19,0.2099570631980896
0,3,20,0.31377071142196655
0,3,21,0.3226097822189331
0,3,22,-0.15308800339698792
0,3,23,-0.2543346881866455
0,3,24,-0.1443159282207489
0,3,25,-0.3470699191093445
0,3,26,0.36657559871673584
0,3,27,0.2459123134613037
0,3,28,-0.3252650797367096
0,3,29,-0.11810731887817383
0,3,30,-0.3136604428291321
0,3,31,-0.17106768488883972
0,3,32,-8.821043968200684
0,3,33,0.24957197904586792
0,3,34,9.14355182647705
0,3,35,-8.825944900512695
0,3,36,0.16185420751571655
0,3,37,-0.2522461712360382
0,3,38,-8.815079689025879
0,3,39,-0.04724714159965515
0,3,40,-0.10259220004081726
0,3,41,0.230932354927063
0,3,42,-0.34879353642463684
0,3,43,-0.07236957550048828
0,3,44,-0.397357702255249
0,3,45,-0.1949104368686676
0,3,46,0.26337772607803345
0,3,47,-0.3040546774864197
0,3,48,0.4066319465637207
0,3,49,-0.16212528944015503
0,3,50,0.36749744415283203
0,3,51,-0.1978759616613388
0,3,52,-0.15219774842262268
0,3,53,-0.22095239162445068
0,3,54,0.05939584970474243
0,3,55,0.10696756839752197
0,3,56,-0.4401611089706421
0,3,57,-0.4086390435695648
0,3,58,0.3872622847557068
0,3,59,-0.15357762575149536
0,3,60,0.13512933254241943
0,3,61,-0.14745330810546875
0,3,62,9.11894702911377
0,3,63,0.23295807838439941
0,3,64,-0.16206040978431702
0,3,65,-0.3281415104866028
0,3,66,-0.05892741680145264
0,3,67,8.784902572631836
0,3,68,-8.685596466064453
0,3,69,0.29509401321411133
0,3,70,-0.18129020929336548
0,3,71,-0.3317025601863861
0,3,72,-0.3486577570438385
0,3,73,-0.20210078358650208
0,3,74,-9.425533294677734
0,3,75,0.44187211990356445
0,3,76,-0.2571563720703125
0,3,77,0.41728323698043823
0,3,78,0.4316712021827698
0,3,79,0.10964226722717285
0,3,80,0.4135690927505493
0,3,81,0.004824191331863403
0,3,82,0.17183125019073486
0,3,83,0.13781845569610596
0,3,84,-0.3466108441352844
0,3,85,-0.3486977219581604
0,3,86,0.023048490285873413
0,3,87,-9.218598365783691
0,3,88,-0.3143034279346466
0,3,89,0.0909421443939209
0,3,90,-8.928805351257324
0,3,91,-0.35027310252189636
0,3,92,0.2883182764053345
0,3,93,0.2293252944946289
0,3,94,0.32247453927993774
0,3,95,-0.028862595558166504
0,3,96,0.38557201623916626
0,3,97,-0.15591365098953247
0,3,98,0.05967366695404053
0,3,99,-0.07060536742210388
0,3,100,-0.2502919137477875
0,3,101,0.11649823188781738
0,3,102,-9.557087898254395
0,3,103,0.26353955268859863
0,3,104,-0.0803985595703125
0,3,105,-0.4186426103115082
0,3,106,-0.3184245526790619
0,3,107,-0.04185366630554199
0,3,108,0.1246267557144165
0,3,109,0.24563342332839966
0,3,110,-0.14505618810653687
0,3,111,-0.3200116753578186
0,3,112,0.3861922025680542
0,3,113,-0.06623083353042603
0,3,114,0.18699431419372559
0,3,115,-8.687812805175781
0,3,116,0.352928102016449
0,3,117,-0.21856439113616943
0,3,118,0.06550484895706177
0,3,119,-0.3398169279098511
0,3,120,-0.28158384561538696
0,3,121,8.993573188781738
0,3,122,-0.28747448325157166
0,3,123,-0.2831539511680603
0,3,124,-0.04748550057411194
0,3,125,0.44616228342056274
0,3,126,0.28551506996154785
0,3,127,0.21569126844406128
0,3,128,0.32528477907180786
0,3,129,0.17724943161010742
0,3,130,0.32606619596481323
0,3,131,-0.35554081201553345
0,3,132,3.0671935081481934
0,3,133,-0.2736307382583618
0,3,134,9.17410945892334
0,3,135,0.34308481216430664
0,3,136,0.27360814809799194
0,3,137,0.20284712314605713
0,3,138,0.09586435556411743
0,3,139,0.34955936670303345
0,3,140,-9.004865646362305
0,3,141,-0.09349951148033142
0,3,142,0.014612764120101929
0,3,143,0.17984944581985474
0,3,144,-0.16041600704193115
0,3,145,0.21459496021270752
0,3,146,-0.3134389817714691
0,3,147,0.05193677544593811
0,3,148,0.08992058038711548
0,3,149,-9.108733177185059
0,3,150,0.3054683208465576
0,3,151,-0.17972230911254883
0,3,152,-0.31331491470336914
0,3,153,0.008049964904785156
0,3,154,0.029068320989608765
0,3,155,-0.10437330603599548
0,3,156,0.19439458847045898
0,3,157,0.013476639986038208
0,3,158,-0.4470207095146179
0,3,159,0.11972916126251221
0,3,160,0.05061420798301697
0,3,161,-0.36392977833747864
0,3,162,-0.34810522198677063
0,3,163,0.4193567633628845
0,3,164,0.12338006496429443
0,3,165,0.12378638982772827
0,3,166,-0.3451092839241028
0,3,167,-0.20383252203464508
0,3,168,8.728968620300293
0,3,169,-0.1155441403388977
0,3,170,-0.07297530770301819
0,3,171,-0.38062795996665955
0,3,172,-9.338106155395508
0,3,173,0.1679919958114624
0,3,174,0.2029716968536377
0,3,175,-0.43639248609542847
0,3,176,-0.30987176299095154
0,3,177,0.07675999402999878
0,3,178,0.10115450620651245
0,3,179,-0.10924512147903442
0,3,180,-0.20339477062225342
0,3,181,-0.3071972131729126
0,3,182,0.2120073437690735
0,3,183,9.455289840698242
0,3,184,0.409518301486969
0,3,185,-0.10136094689369202
0,3,186,-0.1536814272403717
0,3,187,0.09257239103317261
0,3,188,0.22929400205612183
0,3,189,-0.34269219636917114
0,3,190,-0.3379582464694977
0,3,191,0.2095845341682434
0,3,192,0.36790239810943604
0,3,193,-0.3939032256603241
0,3,194,0.14178508520126343
0,3,195,-0.005665898323059082
0,3,196,0.14501315355300903
0,3,197,-0.4215697646141052
0,3,198,0.011562258005142212
0,3,199,0.13724946975708008
0,3,200,-0.1649879515171051
0,3,201,0.06773906946182251
0,3,202,-0.17682790756225586
0,3,203,-0.33566778898239136
0,3,204,-0.14995092153549194
0,3,205,0.33608269691467285
0,3,206,-0.2172377109527588
0,3,207,-0.12074056267738342
0,3,208,0.2743768095970154
0,3,209,0.252561092376709
0,3,210,0.20692592859268188
0,3,211,-0.11580079793930054
0,3,212,-0.35918495059013367
0,3,213,0.4090811014175415
0,3,214,-0.23650527000427246
0,3,215,8.755943298339844
0,3,216,-0.3781336843967438
0,3,217,0.01864832639694214
0,3,218,-0.24326565861701965
0,3,219,-0.06565400958061218
0,3,220,0.2718115448951721
0,3,221,0.44546759128570557
0,3,222,0.423750102519989
0,3,223,-8.860027313232422
0,3,224,-0.38847029209136963
0,3,225,0.3575226068496704
0,3,226,-0.1643865406513214
0,3,227,-9.496063232421875
0,3,228,0.3106847405433655
0,3,229,-0.28635740280151367
0,3,230,-0.37496259808540344
0,3,231,-0.24185208976268768
0,3,232,-0.31059783697128296
0,3,233,-0.30210763216018677
0,3,234,-0.40108802914619446
0,3,235,9.400449752807617
0,3,236,9.220340728759766
0,3,237,-9.020273208618164
0,3,238,0.21985512971878052
0,3,239,-0.17216330766677856
0,3,240,-0.3846856355667114
0,3,241,-0.17384663224220276
0,3,242,0.4231047034263611
0,3,243,-0.05369064211845398
0,3,244,0.027354121208190918
0,3,245,-0.14857518672943115
0,3,246,-0.33555424213409424
0,3,247,-8.822944641113281
0,3,248,0.42409658432006836
0,3,249,-8.932036399841309
0,3,250,0.2179921269416809
0,3,251,-0.18740874528884888
0,3,252,9.008249282836914
0,3,253,-9.452701568603516
0,3,254,-0.3040127754211426
0,3,255,0.13116240501403809
0,4,0,-0.06902214884757996
0,4,1,0.44399523735046387
0,4,2,-0.3605423867702484
0,4,3,0.2226082682609558
0,4,4,0.36853229999542236
0,4,5,0.19526273012161255
0,4,6,-0.060893625020980835
0,4,7,-0.42768386006355286
0,4,8,-0.37452712655067444
0,4,9,0.04795736074447632
0,4,10,-0.20191386342048645
0,4,11,-0.3063996136188507
0,4,12,-0.43527597188949585
0,4,13,-0.06288310885429382
0,4,14,0.021402597427368164
0,4,15,0.28301185369491577
0,4,16,-0.42086514830589294
0,4,17,0.3155452013015747
0,4,18,0.06715869903564453
0,4,19,-0.39351677894592285
0,4,20,0.23189735412597656
0,4,21,-0.2598218023777008
0,4,22,-0.31023934483528137
0,4,23,-0.0796160101890564
0,4,24,0.4325307607650757
0,4,25,0.30517303943634033
0,4,26,0.18238770961761475
0,4,27,0.14475977420806885
0,4,28,0.32304441928863525
0,4,29,0.1937946081161499
0,4,30,-0.06885561347007751
0,4,31,0.43629854917526245
0,4,32,-0.13641473650932312
0,4,33,-0.24558861553668976
0,4,34,0.3178035020828247
0,4,35,-0.07719621062278748
0,4,36,-0.3500698208808899
0,4,37,0.41290366649627686
0,4,38,-0.31729835271835327
0,4,39,-0.326249897480011
0,4,40,0.39028751850128174
0,4,41,0.4134156107902527
0,4,42,-0.2655787467956543
0,4,43,-0.39878883957862854
0,4,44,-0.27333950996398926
0,4,45,-0.02728530764579773
0,4,46,0.41073882579803467
0,4,47,0.22611749172210693
0,4,48,-0.02746182680130005
0,4,49,-0.3207404315471649
0,4,50,-0.37031757831573486
0,4,51,-0.2854195833206177
0,4,52,0.18023532629013062
0,4,53,-0.4375736713409424
0,4,54,-0.12954258918762207
0,4,55,0.09813940525054932
0,4,56,-0.021370291709899902
0,4,57,-0.06778261065483093
0,4,58,0.32540959119796753
0,4,59,-7.510185241699219e-05
0,4,60,-0.19867265224456787
0,4,61,-0.3307980000972748
0,4,62,-0.37987422943115234
0,4,63,0.35284143686294556
0,4,64,0.4324134588241577
0,4,65,0.41024249792099
0,4,66,0.25130969285964966
0,4,67,-0.3955397605895996
0,4,68,0.4152894616127014
0,4,69,-0.013029783964157104
0,4,70,0.34006810188293457
0,4,71,-0.1805088222026825
0,4,72,0.3715552091598511
0,4,73,0.15071624517440796
0,4,74,-0.17968085408210754
0,4,75,-0.038833171129226685
0,4,76,-0.4461205303668976
0,4,77,0.030770212411880493
0,4,78,-0.15714037418365479
0,4,79,-0.14817354083061218
0,4,80,0.2655957341194153
0,4,81,0.15505260229110718
0,4,82,-0.20165535807609558
0,4,83,-0.21114276349544525
0,4,84,-0.04940024018287659
0,4,85,-0.09498447179794312
0,4,86,-0.1471395492553711
0,4,87,0.2951602339744568
0,4,88,-0.1369030773639679
0,4,89,-0.16762647032737732
0,4,90,0.09568458795547485
0,4,91,0.1652548909187317
0,4,92,0.1349692940711975
0,4,93,-0.23592746257781982
0,4,94,0.2810017466545105
0,4,95,0.32802432775497437
0,4,96,0.1253865361213684
0,4,97,-0.06656959652900696
0,4,98,-0.3227134943008423
0,4,99,0.22828567028045654
0,4,100,-0.11136502027511597
0,4,101,0.07549858093261719
0,4,102,0.27748823165893555
0,4,103,-0.056537240743637085
0,4,104,0.043829143047332764
0,4,105,0.14916211366653442
0,4,106,-0.18861976265907288
0,4,107,-0.18940746784210205
0,4,108,-0.29010698199272156
0,4,109,0.2538939118385315
0,4,110,0.31570935249328613
0,4,111,-0.43159428238868713
0,4,112,0.28305184841156006
0,4,113,-0.33953505754470825
0,4,114,-0.17210882902145386
0,4,115,0.29126858711242676
0,4,116,-0.018059223890304565
0,4,117,0.1998184323310852
0,4,118,-0.1508503556251526
0,4,119,-0.10320132970809937
0,4,120,0.27208012342453003
0,4,121,-0.04489538073539734
0,4,122,0.18625134229660034
0,4,123,-0.13794079422950745
0,4,124,0.15264976024627686
0,4,125,0.1336842179298401
0,4,126,0.17919468879699707
0,4,127,0.14784198999404907
0,4,128,-0.22802656888961792
0,4,129,-0.05505591630935669
0,4,130,0.13262063264846802
0,4,131,-0.44607803225517273
0,4,132,0.06591516733169556
0,4,133,-0.38819393515586853
0,4,134,0.0020432770252227783
0,4,135,0.33139193058013916
0,4,136,0.3785853385925293
0,4,137,0.41650938987731934
0,4,138,0.14701509475708008
0,4,139,-0.2469274401664734
0,4,140,0.08184814453125
0,4,141,0.4408484101295471
0,4,142,0.16551154851913452
0,4,143,-0.3032066226005554
0,4,144,-0.30453550815582275
0,4,145,-0.16188278794288635
0,4,146,0.08369892835617065
0,4,147,-0.20406974852085114
0,4,148,0.3086668848991394
0,4,149,0.2496616244316101
0,4,150,-0.10453164577484131
0,4,151,0.12340056896209717
0,4,152,-0.3693411946296692
0,4,153,0.25742441415786743
0,4,154,-0.2842874825000763
0,4,155,-0.0036832094192504883
0,4,156,-0.42764103412628174
0,4,157,0.15692591667175293
0,4,158,0.3846409320831299
0,4,159,0.2885543704032898
0,4,160,0.01006227731704712
0,4,161,0.40470564365386963
0,4,162,-0.3418436050415039
0,4,163,0.1591935157775879
0,4,164,-0.27565068006515503
0,4,165,0.39405786991119385
0,4,166,0.1383647918701172
0,4,167,0.21216601133346558
0,4,168,0.3205221891403198
0,4,169,-0.21775074303150177
0,4,170,-0.30312228202819824
0,4,171,-0.10660675168037415
0,4,172,-0.056567609310150146
0,4,173,-0.10762378573417664
0,4,174,-0.03020375967025757
0,4,175,-0.25033116340637207
0,4,176,-0.3285125195980072
0,4,177,0.3728336691856384
0,4,178,0.2430180311203003
0,4,179,-0.23105975985527039
0,4,180,0.3200359344482422
0,4,181,0.063967764377594
0,4,182,0.21690881252288818
0,4,183,-0.267823725938797
0,4,184,-0.0640069842338562
0,4,185,0.36904287338256836
0,4,186,-0.30814626812934875
0,4,187,0.03659015893936157
0,4,188,-0.11234095692634583
0,4,189,0.03437387943267822
0,4,190,-0.3490171730518341
0,4,191,-0.06560838222503662
0,4,192,-0.1290586292743683
0,4,193,0.2852433919906616
0,4,194,0.18621468544006348
0,4,195,0.3663862347602844
0,4,196,-0.355037122964859
0,4,197,-0.271811842918396
0,4,198,0.2856230139732361
0,4,199,-0.3465438187122345
0,4,200,-0.013007014989852905
0,4,201,0.09661561250686646
0,4,202,0.2928727865219116
0,4,203,-0.01067247986793518
0,4,204,0.30264341831207275
0,4,205,-0.264704167842865
0,4,206,-0.23428316414356232
0,4,207,-0.42846259474754333
0,4,208,-0.185990571975708
0,4,209,0.42165863513946533
0,4,210,-0.04838225245475769
0,4,211,-0.06293290853500366
0,4,212,0.37974369525909424
0,4,213,-0.3761533498764038
0,4,214,-0.22009438276290894
0,4,215,-0.3127858638763428
0,4,216,0.2906549572944641
0,4,217,-0.2736364006996155
0,4,218,-0.16612419486045837
0,4,219,0.03809809684753418
0,4,220,0.18012428283691406
0,4,221,0.34200406074523926
0,4,222,0.05085545778274536
0,4,223,0.41282665729522705
0,4,224,0.1976848840713501
0,4,225,-0.3992708921432495
0,4,226,-0.35008421540260315
0,4,227,-0.20051410794258118
0,4,228,-0.19292280077934265
0,4,229,0.4110375642776489
0,4,230,0.05814158916473389
0,4,231,-0.2110554426908493
0,4,232,-0.36331263184547424
0,4,233,-0.4365409016609192
0,4,234,-0.0007010102272033691
0,4,235,0.2680361270904541
0,4,236,-0.39647120237350464
0,4,237,0.00872686505317688
0,4,238,-0.07458773255348206
0,4,239,-0.38313931226730347
0,4,240,-0.33696499466896057
0,4,241,0.09565198421478271
0,4,242,0.41203099489212036
0,4,243,0.4422021508216858
0,4,244,-0.15813547372817993
0,4,245,0.03343382477760315
0,4,246,0.14556479454040527
0,4,247,-0.1915619969367981
0,4,248,-0.3407919406890869
0,4,249,0.28458172082901
0,4,250,0.21323233842849731
0,4,251,-0.2789292633533478
0,4,252,0.06349879503250122
0,4,253,0.10099422931671143
0,4,254,0.4286625385284424
0,4,255,0.4108629822731018
1,0,0,-3.0107243061065674
1,0,1,-2.946781635284424
1,0,2,-2.2865638732910156
1,0,3,-3.046576499938965
1,0,4,0.019159965217113495
1,0,5,-2.2465567588806152
1,0,6,-2.2836992740631104
1,0,7,-0.019334368407726288
1,0,8,-0.037824176251888275
1,0,9,0.009431116282939911
1,0,10,-2.2076070308685303
1,0,11,-3.0186047554016113
1,0,12,-3.027428150177002
1,0,13,-3.0509097576141357
1,0,14,0.041742317378520966
1,0,15,-2.991384506225586
1,0,16,-3.0113179683685303
1,0,17,-0.020910821855068207
1,0,18,2.5271120071411133
1,0,19,-2.9810612201690674
1,0,20,-2.277229070663452
1,0,21,-2.7984490394592285
1,0,22,-3.0072500705718994
1,0,23,2.3893699645996094
1,0,24,-2.829054117202759
1,0,25,-0.02186330407857895
1,0,26,0.05093704164028168
1,0,27,-3.0322928428649902
1,0,28,-0.004611499607563019
1,0,29,-0.044481709599494934
1,0,30,-3.005542039871216
1,0,31,-2.2579615116119385
1,0,32,-3.0467419624328613
1,0,33,-2.2436611652374268
1,0,34,-2.952648639678955
1,0,35,-0.05368794500827789
1,0,36,0.04344937950372696
1,0,37,-0.017410025000572205
1,0,38,-2.821658134460449
1,0,39,-2.2794535160064697
1,0,40,-2.7590487003326416
1,0,41,0.008873790502548218
1,0,42,0.028603874146938324
1,0,43,2.32061505317688
1,0,44,-2.9787588119506836
1,0,45,-2.268764019012451
1,0,46,0.003746435046195984
1,0,47,-2.775174140930176
1,0,48,-2.2923014163970947
1,0,49,-0.01328124850988388
1,0,50,-0.026855088770389557
1,0,51,-2.7462892532348633
1,0,52,-0.016771629452705383
1,0,53,-2.2860677242279053
1,0,54,0.03222595155239105
1,0,55,-3.057559013366699
1,0,56,-2.2328319549560547
1,0,57,0.0008704066276550293
1,0,58,-3.0264508724212646
1,0,59,-2.962782621383667
1,0,60,-0.011255167424678802
1,0,61,-0.004603289067745209
1,0,62,-3.0450005531311035
1,0,63,0.012278072535991669
1,0,64,-2.9780495166778564
1,0,65,0.016715429723262787
1,0,66,-0.029317952692508698
1,0,67,-3.0353527069091797
1,0,68,-2.967372179031372
1,0,69,-2.824345588684082
1,0,70,2.2229952812194824
1,0,71,-2.775576591491699
1,0,72,1.0449745655059814
1,0,73,-2.7415904998779297
1,0,74,-3.015732526779175
1,0,75,0.058399446308612823
1,0,76,-0.03441070020198822
1,0,77,-3.004368782043457
1,0,78,-2.2489700317382812
1,0,79,-2.3189661502838135
1,0,80,-2.252537965774536
1,0,81,-0.03139796108007431
1,0,82,0.7636432647705078
1,0,83,-2.274066686630249
1,0,84,0.04674495756626129
1,0,85,0.018615715205669403
1,0,86,-3.038410186767578
1,0,87,-2.3069777488708496
1,0,88,-2.305856704711914
1,0,89,0.027187496423721313
1,0,90,-3.0200252532958984
1,0,91,0.012239672243595123
1,0,92,0.03991582244634628
1,0,93,-2.2314586639404297
1,0,94,-2.809051990509033
1,0,95,-2.9796533584594727
1,0,96,-2.7572238445281982
1,0,97,-2.8324174880981445
1,0,98,0.054853036999702454
1,0,99,-2.296398401260376
1,0,100,-2.2482876777648926
1,0,101,0.030841238796710968
1,0,102,-2.292421340942383
1,0,103,-0.0450652539730072
1,0,104,-3.064352512359619
1,0,105,-2.239642858505249
1,0,106,-2.968992233276367
1,0,107,-2.282864570617676
1,0,108,-0.029197953641414642
1,0,109,-2.822108507156372
1,0,110,-3.0618066787719727
1,0,111,-2.7171483039855957
1,0,112,-2.8207972049713135
1,0,113,0.0025794431567192078
1,0,114,0.03752540051937103
1,0,115,2.3828606605529785
1,0,116,-0.16602389514446259
1,0,117,2.1991753578186035
1,0,118,-2.253429889678955
1,0,119,-2.2607693672180176
1,0,120,-3.025606155395508
1,0,121,-0.01239769160747528
1,0,122,-3.0191352367401123
1,0,123,0.03893395513296127
1,0,124,0.047146186232566833
1,0,125,-3.023772716522217
1,0,126,-0.05967330187559128
1,0,127,-0.03713592141866684
1,1,0,-2.945482015609741
1,1,1,-2.972200870513916
1,1,2,3.058115243911743
1,1,3,-2.9690144062042236
1,1,4,0.03650566190481186
1,1,5,2.9834084510803223
1,1,6,2.9742324352264404
1,1,7,-0.004423715174198151
1,1,8,-0.03730688989162445
1,1,9,0.036401621997356415
1,1,10,2.9845223426818848
1,1,11,-2.9473533630371094
1,1,12,-2.9608993530273438
1,1,13,-2.9421277046203613
1,1,14,0.011526167392730713
1,1,15,-2.9848499298095703
1,1,16,-2.952907085418701
1,1,17,0.05439005792140961
1,1,18,0.015463009476661682
1,1,19,-2.984354257583618
1,1,20,3.0050532817840576
1,1,21,-0.03879614919424057
1,1,22,-3.0008554458618164
1,1,23,0.020325668156147003
1,1,24,-0.00970052182674408
1,1,25,-0.019029788672924042
1,1,26,-0.02997910976409912
1,1,27,-3.0306649208068848
1,1,28,-0.006147958338260651
1,1,29,-0.030290834605693817
1,1,30,-3.052898406982422
1,1,31,3.032986879348755
1,1,32,-3.039976119995117
1,1,33,3.049217462539673
1,1,34,-3.0447070598602295
1,1,35,0.0012958571314811707
1,1,36,0.013339892029762268
1,1,37,-0.022440679371356964
1,1,38,-0.04463919252157211
1,1,39,2.943765878677368
1,1,40,-0.03034476935863495
1,1,41,-0.007445491850376129
1,1,42,-0.04907560348510742
1,1,43,-0.018239781260490417
1,1,44,-3.019289016723633
1,1,45,2.957218647003174
1,1,46,0.023814193904399872
1,1,47,0.01888614147901535
1,1,48,2.943514823913574
1,1,49,0.0062932297587394714
1,1,50,0.004273824393749237
1,1,51,-0.016967900097370148
1,1,52,0.04961899667978287
1,1,53,2.991240978240967
1,1,54,-0.008999668061733246
1,1,55,-2.9750614166259766
1,1,56,3.0084598064422607
1,1,57,-0.044298410415649414
1,1,58,-2.9848406314849854
1,1,59,-2.94077730178833
1,1,60,-0.0390586256980896
1,1,61,-0.021167926490306854
1,1,62,-2.950528860092163
1,1,63,-0.0020484328269958496
1,1,64,-3.022587776184082
1,1,65,0.042027346789836884
1,1,66,0.05647755414247513
1,1,67,-3.00154972076416
1,1,68,-2.97812819480896
1,1,69,0.03356355428695679
1,1,70,-0.045426227152347565
1,1,71,-0.05155579000711441
1,1,72,0.0453418493270874
1,1,73,-0.055322691798210144
1,1,74,-2.969322681427002
1,1,75,0.04040857404470444
1,1,76,-0.039836689829826355
1,1,77,-2.9543662071228027
1,1,78,3.0378222465515137
1,1,79,3.0515968799591064
1,1,80,3.056027889251709
1,1,81,-0.00887182354927063
1,1,82,-0.03986520320177078
1,1,83,3.033916711807251
1,1,84,-0.012262322008609772
1,1,85,-0.03760438412427902
1,1,86,-3.0204432010650635
1,1,87,2.9699161052703857
1,1,88,2.9707589149475098
1,1,89,0.05446226894855499
1,1,90,-2.9995157718658447
1,1,91,0.042863719165325165
1,1,92,0.04408670961856842
1,1,93,2.9643805027008057
1,1,94,0.01081821322441101
1,1,95,-2.9970057010650635
1,1,96,-0.024679481983184814
1,1,97,0.032384902238845825
1,1,98,-0.04946945607662201
1,1,99,2.9775757789611816
1,1,100,3.0651934146881104
1,1,101,0.005093023180961609
1,1,102,2.993460178375244
1,1,103,0.03068288415670395
1,1,104,-3.038170337677002
1,1,105,3.027265787124634
1,1,106,-3.0475637912750244
1,1,107,2.9873766899108887
1,1,108,0.016840390861034393
1,1,109,0.042301490902900696
1,1,110,-2.9871644973754883
1,1,111,0.03368150442838669
1,1,112,-0.05174688249826431
1,1,113,-0.040501683950424194
1,1,114,-0.0514582097530365
1,1,115,0.041251666843891144
1,1,116,-0.05554059147834778
1,1,117,0.028323166072368622
1,1,118,3.0536766052246094
1,1,119,2.997720718383789
1,1,120,-2.9688284397125244
1,1,121,-0.04831723868846893
1,1,122,-2.9925596714019775
1,1,123,0.028952501714229584
1,1,124,-4.842877388000488e-05
1,1,125,-2.984290361404419
1,1,126,-0.0015926435589790344
1,1,127,-0.06014493107795715
1,2,0,-3.0319056510925293
1,2,1,-2.9874937534332275
1,2,2,-2.231843948364258
1,2,3,-2.9660234451293945
1,2,4,0.010836310684680939
1,2,5,-2.1947097778320312
1,2,6,-2.1995480060577393
1,2,7,-0.051745980978012085
1,2,8,0.0591500848531723
1,2,9,-2.561504364013672
1,2,10,-2.195579767227173
1,2,11,-3.008201837539673
1,2,12,-2.940955877304077
1,2,13,-3.053692579269409
1,2,14,-0.026585735380649567
1,2,15,-2.96311354637146
1,2,16,-3.063011407852173
1,2,17,-0.004912719130516052
1,2,18,2.313554525375366
1,2,19,-2.9999828338623047
1,2,20,-2.25671124458313
1,2,21,-2.8105764389038086
1,2,22,-3.0379252433776855
1,2,23,2.152069330215454
1,2,24,-2.743475914001465
1,2,25,0.006995923817157745
1,2,26,-0.02848021686077118
1,2,27,-2.941786050796509
1,2,28,-7.627159357070923e-05
1,2,29,-0.037912435829639435
1,2,30,-2.968439817428589
1,2,31,-2.2806777954101562
1,2,32,-2.9720840454101562
1,2,33,-2.2113115787506104
1,2,34,-2.949985980987549
1,2,35,-0.02320064604282379
1,2,36,0.03192799538373947
1,2,37,0.03642803430557251
1,2,38,-2.749788284301758
1,2,39,-2.297898530960083
1,2,40,-2.8371191024780273
1,2,41,0.05494070053100586
1,2,42,2.613164186477661
1,2,43,2.198432445526123
1,2,44,-3.0110321044921875
1,2,45,-2.2518858909606934
1,2,46,0.05593176931142807
1,2,47,-2.794783115386963
1,2,48,-2.2711689472198486
1,2,49,-0.0520496740937233
1,2,50,-0.04569865018129349
1,2,51,-2.725674867630005
1,2,52,0.018642529845237732
1,2,53,-2.2804019451141357
1,2,54,-0.027677513659000397
1,2,55,-3.0360569953918457
1,2,56,-2.214446783065796
1,2,57,-0.037473492324352264
1,2,58,-2.9718852043151855
1,2,59,-2.990853786468506
1,2,60,-0.01269829273223877
1,2,61,-0.05567542463541031
1,2,62,-2.9852545261383057
1,2,63,0.030272625386714935
1,2,64,-3.0391058921813965
1,2,65,0.05950704216957092
1,2,66,0.00882008671760559
1,2,67,-2.9787063598632812
1,2,68,-3.027617931365967
1,2,69,-2.7597947120666504
1,2,70,1.8542298078536987
1,2,71,-2.8349690437316895
1,2,72,0.3109036087989807
1,2,73,-2.768497943878174
1,2,74,-3.011618137359619
1,2,75,-0.03359028697013855
1,2,76,-0.007372036576271057
1,2,77,-3.052736282348633
1,2,78,-2.213531494140625
1,2,79,-2.220897912979126
1,2,80,-2.3115739822387695
1,2,81,0.007344923913478851
1,2,82,0.08345905691385269
1,2,83,-2.2941808700561523
1,2,84,-0.06010271608829498
1,2,85,0.044201746582984924
1,2,86,-2.9818191528320312
1,2,87,-2.202786445617676
1,2,88,-2.2673258781433105
1,2,89,-0.02548307180404663
1,2,90,-2.9490437507629395
1,2,91,-0.02703661471605301
1,2,92,0.03428535908460617
1,2,93,-2.272738218307495
1,2,94,-2.830871343612671
1,2,95,-2.997729778289795
1,2,96,-2.767096519470215
1,2,97,-2.7803430557250977
1,2,98,-0.05879547446966171
1,2,99,-2.209301471710205
1,2,100,-2.279142379760742
1,2,101,-0.03898119181394577
1,2,102,-2.307305097579956
1,2,103,-0.046539805829524994
1,2,104,-3.0627522468566895
1,2,105,-2.294259786605835
1,2,106,-3.031787157058716
1,2,107,-2.2254574298858643
1,2,108,-0.027314454317092896
1,2,109,-2.841775417327881
1,2,110,-3.0498054027557373
1,2,111,-2.7821810245513916
1,2,112,-2.7591910362243652
1,2,113,-0.04549575597047806
1,2,114,2.6267521381378174
1,2,115,2.1212942600250244
1,2,116,-0.8281151652336121
1,2,117,1.98231041431427
1,2,118,-2.222835063934326
1,2,119,-2.2283143997192383
1,2,120,-3.0132815837860107
1,2,121,-0.01238696277141571
1,2,122,-2.948798179626465
1,2,123,0.0009555742144584656
1,2,124,-0.058219246566295624
1,2,125,-3.0149059295654297
1,2,126,-0.004776112735271454
1,2,127,0.055507153272628784
1,3,0,0.016250699758529663
1,3,1,-8.243790626525879
1,3,2,-9.129212379455566
1,3,3,-9.168472290039062
1,3,4,-9.109641075134277
1,3,5,-9.077220916748047
1,3,6,-0.04079076647758484
1,3,7,-9.12673568725586
1,3,8,-9.108341217041016
1,3,9,-8.285640716552734
1,3,10,9.119866371154785
1,3,11,9.121851921081543
1,3,12,-9.168132781982422
1,3,13,0.002399928867816925
1,3,14,9.098801612854004
1,3,15,-0.010967336595058441
1,3,16,-9.125176429748535
1,3,17,-9.10600471496582
1,3,18,-8.243042945861816
1,3,19,-9.12022590637207
1,3,20,-9.089262008666992
1,3,21,0.012507334351539612
1,3,22,-9.175413131713867
1,3,23,-8.242266654968262
1,3,24,-9.116924285888672
1,3,25,-8.176610946655273
1,3,26,9.133819580078125
1,3,27,-9.189117431640625
1,3,28,-9.117622375488281
1,3,29,-9.113266944885254
1,3,30,-9.088644981384277
1,3,31,-9.162400245666504
1,3,32,-0.039574094116687775
1,3,33,9.109519958496094
1,3,34,-9.178726196289062
1,3,35,0.027378752827644348
1,3,36,0.014916695654392242
1,3,37,-9.184893608093262
1,3,38,-9.132925987243652
1,3,39,-0.03296712785959244
1,3,40,-9.098401069641113
1,3,41,-0.005056224763393402
1,3,42,-9.087800025939941
1,3,43,-8.284004211425781
1,3,44,-8.213664054870605
1,3,45,-9.074348449707031
1,3,46,-9.187551498413086
1,3,47,0.04264295846223831
1,3,48,0.01001119613647461
1,3,49,-9.147088050842285
1,3,50,-9.14504623413086
1,3,51,-9.186049461364746
1,3,52,9.20026969909668
1,3,53,0.04429022967815399
1,3,54,-9.080650329589844
1,3,55,-0.01702573150396347
1,3,56,9.09673023223877
1,3,57,-9.112955093383789
1,3,58,-8.214298248291016
1,3,59,9.154531478881836
1,3,60,9.124547004699707
1,3,61,-9.088967323303223
1,3,62,-9.182564735412598
1,3,63,9.12052059173584
1,3,64,9.109688758850098
1,3,65,-8.222625732421875
1,3,66,-9.120139122009277
1,3,67,9.19905948638916
1,3,68,-9.087030410766602
1,3,69,-9.118698120117188
1,3,70,-0.04546389728784561
1,3,71,-9.10947036743164
1,3,72,-8.180071830749512
1,3,73,0.018744714558124542
1,3,74,-9.129197120666504
1,3,75,9.13671588897705
1,3,76,-9.137104988098145
1,3,77,-9.173336029052734
1,3,78,-9.13095760345459
1,3,79,-9.080814361572266
1,3,80,9.159560203552246
1,3,81,9.083013534545898
1,3,82,-9.129944801330566
1,3,83,-9.073083877563477
1,3,84,-9.1810884475708
1,3,85,-9.107187271118164
1,3,86,-9.162449836730957
1,3,87,0.047416865825653076
1,3,88,0.021069727838039398
1,3,89,0.05463644117116928
1,3,90,-8.27606201171875
1,3,91,9.136563301086426
1,3,92,-0.0354214608669281
1,3,93,9.08643913269043
1,3,94,0.022389888763427734
1,3,95,-0.057171404361724854
1,3,96,0.04562138020992279
1,3,97,0.029941722750663757
1,3,98,-0.03891211003065109
1,3,99,0.030375979840755463
1,3,100,-9.12020492553711
1,3,101,-0.01768045872449875
1,3,102,-9.155885696411133
1,3,103,-0.036025576293468475
1,3,104,-9.152462005615234
1,3,105,9.117446899414062
1,3,106,-0.038466162979602814
1,3,107,0.04039471596479416
1,3,108,0.00982414186000824
1,3,109,-9.106497764587402
1,3,110,9.108827590942383
1,3,111,-9.187957763671875
1,3,112,9.191479682922363
1,3,113,0.018627233803272247
1,3,114,-9.075840950012207
1,3,115,-8.176010131835938
1,3,116,-8.26968765258789
1,3,117,-8.262887001037598
1,3,118,0.02109101414680481
1,3,119,-9.079998016357422
1,3,120,-9.132497787475586
1,3,121,-0.035818666219711304
1,3,122,-0.0072589293122291565
1,3,123,-9.150655746459961
1,3,124,-9.132414817810059
1,3,125,-9.095861434936523
1,3,126,-9.12621784210205
1,3,127,0.0618707612156868
1,4,0,-3.049670934677124
1,4,1,-2.9609570503234863
1,4,2,2.998354434967041
1,4,3,-2.9730334281921387
1,4,4,-0.022617921233177185
1,4,5,2.986159324645996
1,4,6,3.0195343494415283
1,4,7,0.05309437960386276
1,4,8,-0.04642491042613983
1,4,9,0.025474391877651215
1,4,10,2.9821014404296875
1,4,11,-2.967113971710205
1,4,12,-3.0465657711029053
1,4,13,-3.0617055892944336
1,4,14,-0.02040410041809082
1,4,15,-2.9943692684173584
1,4,16,-2.9403316974639893
1,4,17,0.03822013735771179
1,4,18,0.014410704374313354
1,4,19,-3.0317301750183105
1,4,20,2.947986125946045
1,4,21,-0.04739612340927124
1,4,22,-3.0608439445495605
1,4,23,-0.0055223554372787476
1,4,24,0.0015386193990707397
1,4,25,-0.00616791844367981
1,4,26,-0.03171826899051666
1,4,27,-2.9775567054748535
1,4,28,-0.04098723828792572
1,4,29,-0.024704329669475555
1,4,30,-2.976806640625
1,4,31,3.0216691493988037
1,4,32,-2.9633495807647705
1,4,33,3.0391690731048584
1,4,34,-2.993067741394043
1,4,35,0.041972480714321136
1,4,36,0.057318657636642456
1,4,37,0.04290531575679779
1,4,38,0.03684394806623459
1,4,39,3.0064034461975098
1,4,40,-0.038512177765369415
1,4,41,-0.0228443443775177
1,4,42,-0.05730908364057541
1,4,43,-0.03241114318370819
1,4,44,-3.026104688644409
1,4,45,3.0034170150756836
1,4,46,-0.03756554424762726
1,4,47,0.02672840654850006
1,4,48,2.9667036533355713
1,4,49,-0.020152412354946136
1,4,50,-0.01711013913154602
1,4,51,-0.022131353616714478
1,4,52,-0.03225205838680267
1,4,53,3.0568952560424805
1,4,54,0.01928369700908661
1,4,55,-3.019303321838379
1,4,56,3.0202550888061523
1,4,57,0.008849270641803741
1,4,58,-3.0094659328460693
1,4,59,-2.999542713165283
1,4,60,-0.0006446987390518188
1,4,61,-0.02814382314682007
1,4,62,-3.0066933631896973
1,4,63,0.031591564416885376
1,4,64,-3.035916566848755
1,4,65,0.0481221005320549
1,4,66,0.00624355673789978
1,4,67,-2.9659664630889893
1,4,68,-2.9549720287323
1,4,69,0.01860877126455307
1,4,70,0.041117288172245026
1,4,71,-0.04859092831611633
1,4,72,0.04485180228948593
1,4,73,-0.04077914357185364
1,4,74,-2.9443788528442383
1,4,75,-0.036798007786273956
1,4,76,0.0012744739651679993
1,4,77,-2.96409273147583
1,4,78,2.9505743980407715
1,4,79,2.9805850982666016
1,4,80,3.0265979766845703
1,4,81,0.05904962867498398
1,4,82,0.04649858921766281
1,4,83,3.0038862228393555
1,4,84,0.01993788778781891
1,4,85,0.04342111945152283
1,4,86,-3.0465798377990723
1,4,87,3.0333893299102783
1,4,88,2.9748635292053223
1,4,89,0.009079396724700928
1,4,90,-2.9435205459594727
1,4,91,-0.024310268461704254
1,4,92,-0.05881848931312561
1,4,93,3.018767833709717
1,4,94,0.01484614610671997
1,4,95,-3.039309024810791
1,4,96,0.022150926291942596
1,4,97,-0.042385511100292206
1,4,98,0.0009516775608062744
1,4,99,3.0588595867156982
1,4,100,3.047576665878296
1,4,101,0.028684288263320923
1,4,102,2.9452056884765625
1,4,103,0.004657275974750519
1,4,104,-2.9934117794036865
1,4,105,2.9509918689727783
1,4,106,-3.028684139251709
1,4,107,3.049354314804077
1,4,108,0.05850493162870407
1,4,109,-0.03435244411230087
1,4,110,-2.9592878818511963
1,4,111,0.02627255767583847
1,4,112,0.029343880712985992
1,4,113,0.06134640425443649
1,4,114,0.01619013398885727
1,4,115,0.044083237648010254
1,4,116,0.018433399498462677
1,4,117,-0.05582980811595917
1,4,118,3.0632407665252686
1,4,119,3.0494964122772217
1,4,120,-3.0222551822662354
1,4,121,-0.03301948308944702
1,4,122,-2.975649118423462
1,4,123,0.04054360091686249
1,4,124,0.050559550523757935
1,4,125,-3.023432970046997
1,4,126,0.04703615605831146
1,4,127,-0.011933878064155579
1,5,0,-3.0558950901031494
1,5,1,-3.05288028717041
1,5,2,-2.2907254695892334
1,5,3,-2.973966598510742
1,5,4,-0.0402679443359375
1,5,5,-2.3235960006713867
1,5,6,-2.233485698699951
1,5,7,-0.048587605357170105
1,5,8,-0.025654688477516174
1,5,9,-2.6675922870635986
1,5,10,-2.300020694732666
1,5,11,-2.9584243297576904
1,5,12,-3.063795566558838
1,5,13,-3.0340631008148193
1,5,14,-0.004174709320068359
1,5,15,-3.062997341156006
1,5,16,-3.0427370071411133
1,5,17,-0.02805653214454651
1,5,18,2.4282004833221436
1,5,19,-3.0344297885894775
1,5,20,-2.209636926651001
1,5,21,-2.722900867462158
1,5,22,-3.0465478897094727
1,5,23,2.3588666915893555
1,5,24,-2.7933058738708496
1,5,25,-0.012143082916736603
1,5,26,0.011774152517318726
1,5,27,-2.9744536876678467
1,5,28,-0.028357014060020447
1,5,29,0.0024707093834877014
1,5,30,-3.03812575340271
1,5,31,-2.2199690341949463
1,5,32,-2.9832727909088135
1,5,33,-2.211390972137451
1,5,34,-2.993650436401367
1,5,35,-0.04836636781692505
1,5,36,0.011441133916378021
1,5,37,0.046179480850696564
1,5,38,-2.755127429962158
1,5,39,-2.2592856884002686
1,5,40,-2.7423267364501953
1,5,41,0.01790742576122284
1,5,42,2.6242027282714844
1,5,43,2.3606793880462646
1,5,44,-3.0342843532562256
1,5,45,-2.2131941318511963
1,5,46,-0.05827365815639496
1,5,47,-2.799391746520996
1,5,48,-2.2559711933135986
1,5,49,-0.048044390976428986
1,5,50,-0.05083831399679184
1,5,51,-2.7195653915405273
1,5,52,0.05430631339550018
1,5,53,-2.227962017059326
1,5,54,0.003450736403465271
1,5,55,-2.963120460510254
1,5,56,-2.2507193088531494
1,5,57,-0.032578177750110626
1,5,58,-2.950131893157959
1,5,59,-2.9874563217163086
1,5,60,0.040824227035045624
1,5,61,0.035536669194698334
1,5,62,-3.019956350326538
1,5,63,-0.041979119181632996
1,5,64,-3.0085196495056152
1,5,65,-0.04494486749172211
1,5,66,0.034074053168296814
1,5,67,-3.058201789855957
1,5,68,-3.0110185146331787
1,5,69,-2.7609760761260986
1,5,70,2.117931604385376
1,5,71,-2.8330628871917725
1,5,72,0.840342104434967
1,5,73,-2.8086442947387695
1,5,74,-3.012697219848633
1,5,75,-0.0582038089632988
1,5,76,-0.016901850700378418
1,5,77,-2.965317964553833
1,5,78,-2.2126214504241943
1,5,79,-2.217139720916748
1,5,80,-2.3039824962615967
1,5,81,-0.0054589807987213135
1,5,82,0.5765363574028015
1,5,83,-2.2625010013580322
1,5,84,0.0476137176156044
1,5,85,0.005852565169334412
1,5,86,-3.0037808418273926
1,5,87,-2.272923707962036
1,5,88,-2.2565438747406006
1,5,89,0.009800776839256287
1,5,90,-3.012371063232422
1,5,91,0.02813095599412918
1,5,92,-0.05349647253751755
1,5,93,-2.2332496643066406
1,5,94,-2.758565902709961
1,5,95,-2.9422202110290527
1,5,96,-2.7269861698150635
1,5,97,-2.8119754791259766
1,5,98,0.040721066296100616
1,5,99,-2.2553679943084717
1,5,100,-2.317976951599121
1,5,101,-0.031631484627723694
1,5,102,-2.3125083446502686
1,5,103,0.04390815645456314
1,5,104,-3.0182201862335205
1,5,105,-2.259291410446167
1,5,106,-3.031954526901245
1,5,107,-2.253772735595703
1,5,108,0.001808665692806244
1,5,109,-2.7671756744384766
1,5,110,-2.9501302242279053
1,5,111,-2.753708839416504
1,5,112,-2.786409854888916
1,5,113,-0.0388009175658226
1,5,114,2.597695827484131
1,5,115,2.3672051429748535
1,5,116,-0.4275524616241455
1,5,117,2.0763866901397705
1,5,118,-2.250946283340454
1,5,119,-2.3248519897460938
1,5,120,-3.0339388847351074
1,5,121,0.049618855118751526
1,5,122,-2.9634809494018555
1,5,123,-0.02036955952644348
1,5,124,0.016871653497219086
1,5,125,-3.040090799331665
1,5,126,-0.03934323042631149
1,5,127,-0.010054260492324829
1,6,0,0.00040584057569503784
1,6,1,0.04357626289129257
1,6,2,-0.04405905306339264
1,6,3,-0.002453632652759552
1,6,4,0.062471844255924225
1,6,5,0.01942901313304901
1,6,6,-0.04232402890920639
1,6,7,0.007795087993144989
1,6,8,-0.034549325704574585
1,6,9,0.03757864236831665
1,6,10,-0.04790152609348297
1,6,11,0.03911984711885452
1,6,12,0.052642591297626495
1,6,13,0.007925234735012054
1,6,14,-0.019778400659561157
1,6,15,0.016910463571548462
1,6,16,-0.06019337475299835
1,6,17,0.002136223018169403
1,6,18,0.061287470161914825
1,6,19,0.018426373600959778
1,6,20,-0.0320015475153923
1,6,21,0.011410936713218689
1,6,22,0.013894692063331604
1,6,23,-0.06199173629283905
1,6,24,-0.030524075031280518
1,6,25,0.004954598844051361
1,6,26,-0.014554820954799652
1,6,27,0.04759271442890167
1,6,28,-0.023525230586528778
1,6,29,-0.04757053405046463
1,6,30,-0.015255741775035858
1,6,31,-0.03261703997850418
1,6,32,-0.017475135624408722
1,6,33,-0.003310970962047577
1,6,34,0.043906137347221375
1,6,35,-0.018679790198802948
1,6,36,-0.020469151437282562
1,6,37,0.043434254825115204
1,6,38,0.031372882425785065
1,6,39,0.0002597421407699585
1,6,40,0.014039009809494019
1,6,41,0.02185273915529251
1,6,42,-0.036802515387535095
1,6,43,-0.06205996870994568
1,6,44,0.03714758902788162
1,6,45,0.042593955993652344
1,6,46,-0.018749497830867767
1,6,47,0.01539071649312973
1,6,48,-0.06148020923137665
1,6,49,-0.060304924845695496
1,6,50,0.03163157403469086
1,6,51,0.03295388072729111
1,6,52,0.03266558796167374
1,6,53,0.013042531907558441
1,6,54,0.03840216249227524
1,6,55,0.05312690883874893
1,6,56,0.029991745948791504
1,6,57,-0.030057206749916077
1,6,58,0.002239927649497986
1,6,59,-0.0485905185341835
1,6,60,-0.012880951166152954
1,6,61,-0.0017219632863998413
1,6,62,-0.04735468327999115
1,6,63,0.059446781873703
1,6,64,-0.04268835484981537
1,6,65,0.05343689024448395
1,6,66,-0.03223796933889389
1,6,67,0.0441136434674263
1,6,68,-0.02423366904258728
1,6,69,-0.048489950597286224
1,6,70,0.01642293483018875
1,6,71,0.043861545622348785
1,6,72,0.05994588881731033
1,6,73,0.01077580451965332
1,6,74,-0.06186836212873459
1,6,75,-0.05434401333332062
1,6,76,-0.03227756917476654
1,6,77,0.008306905627250671
1,6,78,0.05307032912969589
1,6,79,0.012463308870792389
1,6,80,0.046903595328330994
1,6,81,-0.0036415234208106995
1,6,82,-0.009772345423698425
1,6,83,0.029938027262687683
1,6,84,-0.05856341868638992
1,6,85,0.02006687968969345
1,6,86,0.026534810662269592
1,6,87,-0.04461115598678589
1,6,88,-0.05982230603694916
1,6,89,0.02806292474269867
1,6,90,0.029497765004634857
1,6,91,0.008302323520183563
1,6,92,0.01971299946308136
1,6,93,-0.022663839161396027
1,6,94,-0.061204344034194946
1,6,95,-0.03837215155363083
1,6,96,-0.05952807515859604
1,6,97,0.05950316786766052
1,6,98,-0.01465354859828949
1,6,99,0.038085296750068665
1,6,100,-0.05392880737781525
1,6,101,0.0022023245692253113
1,6,102,-0.052088961005210876
1,6,103,-0.05396635830402374
1,6,104,0.00939147174358368
1,6,105,-0.026083484292030334
1,6,106,0.055402785539627075
1,6,107,-0.02944175899028778
1,6,108,0.031073175370693207
1,6,109,-0.025236189365386963
1,6,110,-0.03540395200252533
1,6,111,-0.02409455180168152
1,6,112,0.029622629284858704
1,6,113,0.03072521835565567
1,6,114,-0.004950195550918579
1,6,115,-0.016176283359527588
1,6,116,0.046286456286907196
1,6,117,-0.026255525648593903
1,6,118,-0.028685733675956726
1,6,119,-0.03091295063495636
1,6,120,0.02043142169713974
1,6,121,0.03171822428703308
1,6,122,0.01365526020526886
1,6,123,0.0292421355843544
1,6,124,-0.05352708697319031
1,6,125,0.005193635821342468
1,6,126,0.02725920081138611
1,6,127,-0.02568696439266205
1,7,0,0.050735749304294586
1,7,1,0.03483457863330841
1,7,2,-0.05217406153678894
1,7,3,-0.04167982190847397
1,7,4,-0.0415605828166008
1,7,5,0.050625674426555634
1,7,6,0.02128475159406662
1,7,7,0.01839650422334671
1,7,8,-0.051384828984737396
1,7,9,-0.0483582466840744
1,7,10,-0.06220874935388565
1,7,11,-0.03138745576143265
1,7,12,0.06245313584804535
1,7,13,-0.02974548190832138
1,7,14,-0.01808103919029236
1,7,15,0.04539121687412262
1,7,16,0.05180644989013672
1,7,17,0.032992348074913025
1,7,18,-0.04620404541492462
1,7,19,-0.012599058449268341
1,7,20,-0.046794675290584564
1,7,21,0.056198544800281525
1,7,22,-0.03971380740404129
1,7,23,0.0364297553896904
1,7,24,0.022084049880504608
1,7,25,-0.030863285064697266
1,7,26,0.062135398387908936
1,7,27,0.041512422263622284
1,7,28,0.0006774216890335083
1,7,29,0.04360306262969971
1,7,30,0.013593129813671112
1,7,31,-0.04163873940706253
1,7,32,0.05552835762500763
1,7,33,-0.049805037677288055
1,7,34,0.041856057941913605
1,7,35,0.013144157826900482
1,7,36,-0.012604981660842896
1,7,37,0.014671280980110168
1,7,38,-0.031186789274215698
1,7,39,-0.024776004254817963
1,7,40,-0.010797597467899323
1,7,41,0.011370383203029633
1,7,42,0.02991955727338791
1,7,43,-0.040948010981082916
1,7,44,-0.0171593576669693
1,7,45,-0.02128680795431137
1,7,46,0.05795751512050629
1,7,47,0.016728825867176056
1,7,48,0.02172853797674179
1,7,49,0.009896114468574524
1,7,50,0.013551048934459686
1,7,51,-0.0022997409105300903
1,7,52,-0.019121959805488586
1,7,53,0.04838003218173981
1,7,54,-0.0039817169308662415
1,7,55,0.002811148762702942
1,7,56,-0.027671486139297485
1,7,57,0.0363440215587616
1,7,58,-0.04858141392469406
1,7,59,-0.010199002921581268
1,7,60,0.06214481592178345
1,7,61,-0.009097643196582794
1,7,62,0.04512865096330643
1,7,63,-0.0615139976143837
1,7,64,0.031560562551021576
1,7,65,-0.024636171758174896
1,7,66,0.053867727518081665
1,7,67,-0.000878646969795227
1,7,68,0.053405679762363434
1,7,69,-0.04136147350072861
1,7,70,0.005893394351005554
1,7,71,-0.04402635991573334
1,7,72,0.029718220233917236
1,7,73,0.0017655044794082642
1,7,74,-0.036673255264759064
1,7,75,-0.027263402938842773
1,7,76,0.054447807371616364
1,7,77,0.040669359266757965
1,7,78,-0.05400814861059189
1,7,79,0.029619820415973663
1,7,80,-0.037448108196258545
1,7,81,-0.06141962856054306
1,7,82,-0.019389480352401733
1,7,83,-0.038544781506061554
1,7,84,-0.040342509746551514
1,7,85,0.03681456297636032
1,7,86,0.05318577587604523
1,7,87,-0.013874121010303497
1,7,88,0.05672280490398407
1,7,89,0.01405131071805954
1,7,90,0.036784738302230835
1,7,91,-0.02722722291946411
1,7,92,0.0006882026791572571
1,7,93,0.04092206805944443
1,7,94,0.01928660273551941
1,7,95,0.010377347469329834
1,7,96,0.048720136284828186
1,7,97,0.014455020427703857
1,7,98,-0.0617365762591362
1,7,99,0.00011906027793884277
1,7,100,-0.04301983118057251
1,7,101,-0.031381651759147644
1,7,102,-0.04151846468448639
1,7,103,0.04482974112033844
1,7,104,0.0174667090177536
1,7,105,0.021433494985103607
1,7,106,0.026988424360752106
1,7,107,-0.006150186061859131
1,7,108,-0.009006470441818237
1,7,109,-0.029500894248485565
1,7,110,0.023639939725399017
1,7,111,0.0068786293268203735
1,7,112,0.04612235724925995
1,7,113,0.05867241322994232
1,7,114,0.013021610677242279
1,7,115,-0.01799018681049347
1,7,116,0.015343889594078064
1,7,117,0.005310952663421631
1,7,118,0.029851920902729034
1,7,119,0.05624202638864517
1,7,120,-0.012042894959449768
1,7,121,0.0311305969953537
1,7,122,-0.0356077179312706
1,7,123,0.06248386949300766
1,7,124,-0.048846520483493805
1,7,125,0.043736204504966736
1,7,126,0.027140945196151733
1,7,127,0.03638482093811035
1,8,0,-2.979038715362549
1,8,1,-2.949326753616333
1,8,2,-2.2418527603149414
1,8,3,-2.9413399696350098
1,8,4,0.043081894516944885
1,8,5,-2.2999329566955566
1,8,6,-2.309093952178955
1,8,7,0.04615962505340576
1,8,8,0.03918226808309555
1,8,9,-0.01278126984834671
1,8,10,-2.279841661453247
1,8,11,-2.9986324310302734
1,8,12,-2.947854995727539
1,8,13,-2.991508722305298
1,8,14,-0.007472105324268341
1,8,15,-3.040008544921875
1,8,16,-3.0603973865509033
1,8,17,0.02138805389404297
1,8,18,2.528193473815918
1,8,19,-3.0374319553375244
1,8,20,-2.240018606185913
1,8,21,-2.7314722537994385
1,8,22,-3.055955648422241
1,8,23,2.4425840377807617
1,8,24,-2.7445857524871826
1,8,25,0.04970240592956543
1,8,26,0.02031634747982025
1,8,27,-2.9666848182678223
1,8,28,-0.0022228211164474487
1,8,29,0.010121859610080719
1,8,30,-2.9417953491210938
1,8,31,-2.2076990604400635
1,8,32,-3.0650768280029297
1,8,33,-2.3203001022338867
1,8,34,-2.97926926612854
1,8,35,0.027575857937335968
1,8,36,-0.05342322587966919
1,8,37,0.05077562481164932
1,8,38,-2.7547078132629395
1,8,39,-2.2297558784484863
1,8,40,-2.7492170333862305
1,8,41,-0.036306098103523254
1,8,42,-0.03694634139537811
1,8,43,2.4191184043884277
1,8,44,-3.059558868408203
1,8,45,-2.3242034912109375
1,8,46,0.04784715920686722
1,8,47,-2.82783579826355
1,8,48,-2.2115366458892822
1,8,49,0.051058776676654816
1,8,50,-0.006173849105834961
1,8,51,-2.775047779083252
1,8,52,-0.05138731747865677
1,8,53,-2.207230567932129
1,8,54,0.030962303280830383
1,8,55,-2.9569249153137207
1,8,56,-2.31466007232666
1,8,57,-0.000788465142250061
1,8,58,-3.0635228157043457
1,8,59,-3.039397716522217
1,8,60,-0.008951142430305481
1,8,61,-0.011243365705013275
1,8,62,-3.0316812992095947
1,8,63,0.011245451867580414
1,8,64,-2.949397325515747
1,8,65,-0.02099110186100006
1,8,66,-0.026819393038749695
1,8,67,-3.0108492374420166
1,8,68,-3.041795015335083
1,8,69,-2.7861270904541016
1,8,70,2.222276210784912
1,8,71,-2.778313636779785
1,8,72,1.178520679473877
1,8,73,-2.824406385421753
1,8,74,-2.9694013595581055
1,8,75,0.0006661564111709595
1,8,76,-0.006669536232948303
1,8,77,-2.9940249919891357
1,8,78,-2.2094907760620117
1,8,79,-2.2804806232452393
1,8,80,-2.300515651702881
1,8,81,-0.040525153279304504
1,8,82,0.9512072801589966
1,8,83,-2.3061466217041016
1,8,84,0.05664609372615814
1,8,85,-0.01769707351922989
1,8,86,-3.0644490718841553
1,8,87,-2.219804286956787
1,8,88,-2.2614798545837402
1,8,89,0.04571571201086044
1,8,90,-3.063977003097534
1,8,91,-0.040934547781944275
1,8,92,0.02552887797355652
1,8,93,-2.3185324668884277
1,8,94,-2.729966640472412
1,8,95,-3.010584592819214
1,8,96,-2.8380074501037598
1,8,97,-2.7960643768310547
1,8,98,0.0044616833329200745
1,8,99,-2.305128574371338
1,8,100,-2.284663438796997
1,8,101,0.006989292800426483
1,8,102,-2.2591071128845215
1,8,103,-0.017444275319576263
1,8,104,-3.0652501583099365
1,8,105,-2.2140605449676514
1,8,106,-3.001307725906372
1,8,107,-2.2921721935272217
1,8,108,0.02977849543094635
1,8,109,-2.8188157081604004
1,8,110,-2.974210262298584
1,8,111,-2.7290289402008057
1,8,112,-2.7284629344940186
1,8,113,-0.029253274202346802
1,8,114,0.02965356409549713
1,8,115,2.403769016265869
1,8,116,0.05094467103481293
1,8,117,2.2733709812164307
1,8,118,-2.2915403842926025
1,8,119,-2.223839282989502
1,8,120,-3.0474255084991455
1,8,121,0.026102781295776367
1,8,122,-2.974497079849243
1,8,123,-0.06061697006225586
1,8,124,-0.04248751699924469
1,8,125,-2.969752073287964
1,8,126,-0.05578236281871796
1,8,127,-0.02197401225566864
1,9,0,-2.96893048286438
1,9,1,-2.954916477203369
1,9,2,3.010481834411621
1,9,3,-3.0130863189697266
1,9,4,-0.017291218042373657
1,9,5,3.0367588996887207
1,9,6,3.002976655960083
1,9,7,0.01788659393787384
1,9,8,-0.001482151448726654
1,9,9,-0.05883954465389252
1,9,10,2.9512176513671875
1,9,11,-2.956512928009033
1,9,12,-2.981689691543579
1,9,13,-2.97147274017334
1,9,14,-0.05169268697500229
1,9,15,-3.001199245452881
1,9,16,-3.049907922744751
1,9,17,-0.03817372024059296
1,9,18,-0.034689195454120636
1,9,19,-3.0217971801757812
1,9,20,3.053912401199341
1,9,21,0.020716428756713867
1,9,22,-2.99924373626709
1,9,23,0.05239284783601761
1,9,24,-0.05648159235715866
1,9,25,-0.028799094259738922
1,9,26,0.00828126072883606
1,9,27,-2.968557357788086
1,9,28,0.041537776589393616
1,9,29,-0.010919854044914246
1,9,30,-2.994612693786621
1,9,31,3.0596089363098145
1,9,32,-3.0427985191345215
1,9,33,3.0480079650878906
1,9,34,-2.964191198348999
1,9,35,0.045351795852184296
1,9,36,0.049054160714149475
1,9,37,-0.05283326655626297
1,9,38,-0.012290343642234802
1,9,39,2.997649669647217
1,9,40,-0.03692800551652908
1,9,41,-0.020173415541648865
1,9,42,-0.012839987874031067
1,9,43,-0.007625676691532135
1,9,44,-3.0351314544677734
1,9,45,2.9682838916778564
1,9,46,-0.04122989624738693
1,9,47,-0.007549092173576355
1,9,48,2.994140386581421
1,9,49,-0.04526129364967346
1,9,50,-0.03763425350189209
1,9,51,0.0525958314538002
1,9,52,0.05117601901292801
1,9,53,3.057281255722046
1,9,54,0.04438195377588272
1,9,55,-2.9521312713623047
1,9,56,2.941708564758301
1,9,57,0.04947042465209961
1,9,58,-3.023473024368286
1,9,59,-2.991177558898926
1,9,60,0.02415623515844345
1,9,61,0.041733503341674805
1,9,62,-2.983133554458618
1,9,63,0.0493931770324707
1,9,64,-3.0034611225128174
1,9,65,0.038893841207027435
1,9,66,-0.03561043739318848
1,9,67,-3.009772300720215
1,9,68,-2.9745242595672607
1,9,69,-0.024999327957630157
1,9,70,0.025439418852329254
1,9,71,0.013007231056690216
1,9,72,0.06228390336036682
1,9,73,-0.014616742730140686
1,9,74,-2.9503488540649414
1,9,75,-0.05205371230840683
1,9,76,0.007050693035125732
1,9,77,-2.9436588287353516
1,9,78,2.9803357124328613
1,9,79,2.969513416290283
1,9,80,2.9951958656311035
1,9,81,0.04835581034421921
1,9,82,-0.04707910120487213
1,9,83,2.996826648712158
1,9,84,-0.03350444138050079
1,9,85,-0.019120655953884125
1,9,86,-3.052260398864746
1,9,87,3.026671886444092
1,9,88,2.9503021240234375
1,9,89,0.05055909603834152
1,9,90,-3.005373954772949
1,9,91,-0.028793931007385254
1,9,92,-0.052063874900341034
1,9,93,3.0028762817382812
1,9,94,-0.029578760266304016
1,9,95,-2.975273847579956
1,9,96,-0.052544742822647095
1,9,97,-0.05910135805606842
1,9,98,0.020149365067481995
1,9,99,2.9971344470977783
1,9,100,3.001267671585083
1,9,101,0.04721945524215698
1,9,102,2.9536914825439453
1,9,103,0.05303848534822464
1,9,104,-3.0458500385284424
1,9,105,2.9577014446258545
1,9,106,-3.009892225265503
1,9,107,3.0532329082489014
1,9,108,-0.04121658205986023
1,9,109,0.031383730471134186
1,9,110,-2.9783403873443604
1,9,111,0.00473766028881073
1,9,112,0.03342214971780777
1,9,113,0.017672359943389893
1,9,114,-0.05022925138473511
1,9,115,0.00425594300031662
1,9,116,0.057509489357471466
1,9,117,-0.015090644359588623
1,9,118,3.0272910594940186
1,9,119,3.0351948738098145
1,9,120,-3.0006103515625
1,9,121,-0.006954848766326904
1,9,122,-3.022602081298828
1,9,123,-0.05745697021484375
1,9,124,-0.04567144066095352
1,9,125,-3.018187999725342
1,9,126,-0.04134530574083328
1,9,127,-0.02557568997144699
1,10,0,-3.049307107925415
1,10,1,-3.004556179046631
1,10,2,-2.199401617050171
1,10,3,-2.9791910648345947
1,10,4,-0.022269360721111298
1,10,5,-2.2646615505218506
1,10,6,-2.251042366027832
1,10,7,-0.0006075948476791382
1,10,8,0.027008481323719025
1,10,9,-2.5839548110961914
1,10,10,-2.2739391326904297
1,10,11,-2.987938165664673
1,10,12,-2.9679665565490723
1,10,13,-3.043766736984253
1,10,14,-0.05259634554386139
1,10,15,-2.9674856662750244
1,10,16,-2.9764163494110107
1,10,17,-0.019803084433078766
1,10,18,2.3005545139312744
1,10,19,-2.9880130290985107
1,10,20,-2.3037924766540527
1,10,21,-2.7219223976135254
1,10,22,-2.9791641235351562
1,10,23,2.2233221530914307
1,10,24,-2.7966103553771973
1,10,25,-0.020457245409488678
1,10,26,2.577061414718628
1,10,27,-3.036491870880127
1,10,28,-0.039733752608299255
1,10,29,-2.5500404834747314
1,10,30,-2.9667015075683594
1,10,31,-2.231706380844116
1,10,32,-2.9761791229248047
1,10,33,-2.2292990684509277
1,10,34,-3.052126884460449
1,10,35,-0.027429595589637756
1,10,36,-2.569169521331787
1,10,37,-2.537588119506836
1,10,38,-2.792922019958496
1,10,39,-2.267493963241577
1,10,40,-2.720555305480957
1,10,41,0.01861540973186493
1,10,42,3.7133686542510986
1,10,43,2.1560981273651123
1,10,44,-2.95851469039917
1,10,45,-2.2254128456115723
1,10,46,2.6249635219573975
1,10,47,-2.7964093685150146
1,10,48,-2.270686388015747
1,10,49,-0.05259885638952255
1,10,50,-0.017940901219844818
1,10,51,-2.7977075576782227
1,10,52,-2.582871913909912
1,10,53,-2.21091628074646
1,10,54,-0.05019303411245346
1,10,55,-3.0431201457977295
1,10,56,-2.2039430141448975
1,10,57,0.018997691571712494
1,10,58,-2.9557600021362305
1,10,59,-2.998488426208496
1,10,60,-0.03315390646457672
1,10,61,-0.0002243146300315857
1,10,62,-3.036614179611206
1,10,63,-0.03421857953071594
1,10,64,-3.0528595447540283
1,10,65,-2.5225765705108643
1,10,66,0.05806993693113327
1,10,67,-2.9989726543426514
1,10,68,-2.9961559772491455
1,10,69,-2.797609329223633
1,10,70,1.9132848978042603
1,10,71,-2.807690143585205
1,10,72,0.2678002417087555
1,10,73,-2.771090507507324
1,10,74,-2.980595111846924
1,10,75,0.044492922723293304
1,10,76,-0.032182514667510986
1,10,77,-3.016324281692505
1,10,78,-2.2222442626953125
1,10,79,-2.296480417251587
1,10,80,-2.244990348815918
1,10,81,-0.002361968159675598
1,10,82,0.01980382762849331
1,10,83,-2.231914758682251
1,10,84,-0.028869949281215668
1,10,85,0.022007398307323456
1,10,86,-3.052563428878784
1,10,87,-2.2212791442871094
1,10,88,-2.225198745727539
1,10,89,0.027023732662200928
1,10,90,-3.0116260051727295
1,10,91,-0.013083294034004211
1,10,92,-0.050055988132953644
1,10,93,-2.253589391708374
1,10,94,-2.745678424835205
1,10,95,-3.058154582977295
1,10,96,-2.7742910385131836
1,10,97,-2.7319211959838867
1,10,98,-0.025265753269195557
1,10,99,-2.1954092979431152
1,10,100,-2.3029890060424805
1,10,101,-0.05922553688287735
1,10,102,-2.2031090259552
1,10,103,2.6073803901672363
1,10,104,-3.0457675457000732
1,10,105,-2.309725761413574
1,10,106,-3.0404672622680664
1,10,107,-2.216287136077881
1,10,108,-0.012980610132217407
1,10,109,-2.824915885925293
1,10,110,-2.9646503925323486
1,10,111,-2.7653942108154297
1,10,112,-2.8351497650146484
1,10,113,-0.05451135337352753
1,10,114,3.446930170059204
1,10,115,2.1033077239990234
1,10,116,-0.8395730257034302
1,10,117,1.8423073291778564
1,10,118,-2.2042720317840576
1,10,119,-2.2498345375061035
1,10,120,-2.9787330627441406
1,10,121,-0.04326924681663513
1,10,122,-3.0390758514404297
1,10,123,0.007021233439445496
1,10,124,-0.057601846754550934
1,10,125,-2.944065809249878
1,10,126,-0.03645455837249756
1,10,127,-2.564605474472046
1,11,0,-3.0001320838928223
1,11,1,-3.0079150199890137
1,11,2,-2.2860264778137207
1,11,3,-2.9852991104125977
1,11,4,0.046908967196941376
1,11,5,-2.2195024490356445
1,11,6,-2.2184951305389404
1,11,7,-0.024598419666290283
1,11,8,0.03612479567527771
1,11,9,0.008388437330722809
1,11,10,-2.2253878116607666
1,11,11,-3.049039363861084
1,11,12,-3.050689697265625
1,11,13,-3.0029032230377197
1,11,14,0.01319625973701477
1,11,15,-3.0221009254455566
1,11,16,-2.9793012142181396
1,11,17,-0.06073973327875137
1,11,18,2.595872163772583
1,11,19,-3.0147600173950195
1,11,20,-2.3078439235687256
1,11,21,-2.7687220573425293
1,11,22,-2.942556142807007
1,11,23,2.470710039138794
1,11,24,-2.7360219955444336
1,11,25,-0.03989698737859726
1,11,26,-0.003987446427345276
1,11,27,-2.9998347759246826
1,11,28,0.04923263192176819
1,11,29,-0.05196893960237503
1,11,30,-3.060094118118286
1,11,31,-2.294919490814209
1,11,32,-3.06333589553833
1,11,33,-2.2352547645568848
1,11,34,-3.0039167404174805
1,11,35,-0.02176344394683838
1,11,36,0.015796765685081482
1,11,37,0.03198330104351044
1,11,38,-2.7204389572143555
1,11,39,-2.2502551078796387
1,11,40,-2.778123378753662
1,11,41,0.028082557022571564
1,11,42,0.03842874616384506
1,11,43,2.4294700622558594
1,11,44,-3.016913890838623
1,11,45,-2.2176036834716797
1,11,46,0.05325937271118164
1,11,47,-2.819218635559082
1,11,48,-2.207603693008423
1,11,49,0.039954960346221924
1,11,50,-0.016304783523082733
1,11,51,-2.766432762145996
1,11,52,-0.053815923631191254
1,11,53,-2.2890024185180664
1,11,54,0.016715392470359802
1,11,55,-3.0601754188537598
1,11,56,-2.2681236267089844
1,11,57,0.007305026054382324
1,11,58,-2.985150098800659
1,11,59,-3.0579943656921387
1,11,60,0.002767041325569153
1,11,61,-0.036521755158901215
1,11,62,-2.966543197631836
1,11,63,0.05321325361728668
1,11,64,-3.013333797454834
1,11,65,-0.002790123224258423
1,11,66,-0.05021325498819351
1,11,67,-3.063887119293213
1,11,68,-2.997023820877075
1,11,69,-2.775393009185791
1,11,70,2.2814927101135254
1,11,71,-2.8042829036712646
1,11,72,1.3835489749908447
1,11,73,-2.7267673015594482
1,11,74,-2.9745559692382812
1,11,75,0.0001024976372718811
1,11,76,0.06002449989318848
1,11,77,-3.022428512573242
1,11,78,-2.2713491916656494
1,11,79,-2.216963768005371
1,11,80,-2.2046639919281006
1,11,81,0.021039627492427826
1,11,82,1.085949182510376
1,11,83,-2.205275058746338
1,11,84,-0.04667523503303528
1,11,85,-0.05336199700832367
1,11,86,-3.0318374633789062
1,11,87,-2.2103655338287354
1,11,88,-2.2776126861572266
1,11,89,-0.03400714695453644
1,11,90,-3.0164241790771484
1,11,91,-0.029096052050590515
1,11,92,0.058794982731342316
1,11,93,-2.236668348312378
1,11,94,-2.839618682861328
1,11,95,-2.9909956455230713
1,11,96,-2.806056499481201
1,11,97,-2.8066492080688477
1,11,98,0.04012969136238098
1,11,99,-2.3140828609466553
1,11,100,-2.259700059890747
1,11,101,0.004061318933963776
1,11,102,-2.268669366836548
1,11,103,-0.009715765714645386
1,11,104,-3.006298065185547
1,11,105,-2.2721121311187744
1,11,106,-2.9548702239990234
1,11,107,-2.2993292808532715
1,11,108,0.05851469188928604
1,11,109,-2.7488455772399902
1,11,110,-2.945793867111206
1,11,111,-2.804201126098633
1,11,112,-2.7352423667907715
1,11,113,0.0034679025411605835
1,11,114,-0.039630912244319916
1,11,115,2.397836446762085
1,11,116,0.23596815764904022
1,11,117,2.3322205543518066
1,11,118,-2.222656488418579
1,11,119,-2.224731922149658
1,11,120,-3.015415906906128
1,11,121,0.0611623153090477
1,11,122,-3.0466744899749756
1,11,123,-0.038778141140937805
1,11,124,0.019514299929142
1,11,125,-2.9526236057281494
1,11,126,0.021961726248264313
1,11,127,-0.032527171075344086
1,12,0,-3.053971290588379
1,12,1,-3.0122878551483154
1,12,2,2.9539144039154053
1,12,3,-3.0069591999053955
1,12,4,0.05696289241313934
1,12,5,2.962125062942505
1,12,6,2.945160150527954
1,12,7,0.04480645805597305
1,12,8,0.04639986902475357
1,12,9,-0.02969697117805481
1,12,10,3.015967845916748
1,12,11,-3.041583299636841
1,12,12,-2.9783263206481934
1,12,13,-3.06474232673645
1,12,14,-0.015260040760040283
1,12,15,-2.975904941558838
1,12,16,-2.990208625793457
1,12,17,0.009619824588298798
1,12,18,0.008165717124938965
1,12,19,-3.006533145904541
1,12,20,2.951979637145996
1,12,21,-0.055781953036785126
1,12,22,-3.0561158657073975
1,12,23,0.01393776386976242
1,12,24,-0.058126695454120636
1,12,25,-0.017501384019851685
1,12,26,0.05254226177930832
1,12,27,-3.058168411254883
1,12,28,-0.05414760112762451
1,12,29,0.005466952919960022
1,12,30,-2.962350606918335
1,12,31,3.0256426334381104
1,12,32,-2.963726758956909
1,12,33,2.9987993240356445
1,12,34,-2.9495627880096436
1,12,35,-0.04480823129415512
1,12,36,-0.045577749609947205
1,12,37,0.005817733705043793
1,12,38,-0.0477767139673233
1,12,39,3.0474982261657715
1,12,40,-0.052766114473342896
1,12,41,-0.010606802999973297
1,12,42,0.04381490498781204
1,12,43,-0.05740506947040558
1,12,44,-3.0524063110351562
1,12,45,2.9580023288726807
1,12,46,-0.01166217029094696
1,12,47,-0.009451985359191895
1,12,48,2.983612298965454
1,12,49,0.02802557498216629
1,12,50,0.039467036724090576
1,12,51,0.03559253364801407
1,12,52,0.001315280795097351
1,12,53,2.9823031425476074
1,12,54,0.061925165355205536
1,12,55,-2.9786691665649414
1,12,56,2.952880382537842
1,12,57,-0.022396206855773926
1,12,58,-2.965813398361206
1,12,59,-3.0359160900115967
1,12,60,-0.04775700718164444
1,12,61,-0.010517820715904236
1,12,62,-3.0585854053497314
1,12,63,-0.020913131535053253
1,12,64,-3.0289740562438965
1,12,65,0.034147635102272034
1,12,66,0.05535440146923065
1,12,67,-2.9839441776275635
1,12,68,-3.0490074157714844
1,12,69,-0.01119793951511383
1,12,70,0.01910470426082611
1,12,71,-0.05878140777349472
1,12,72,0.03976578265428543
1,12,73,-0.04173317551612854
1,12,74,-2.9495553970336914
1,12,75,-0.020739562809467316
1,12,76,0.011052124202251434
1,12,77,-3.025634288787842
1,12,78,3.0138916969299316
1,12,79,3.0402817726135254
1,12,80,3.048882246017456
1,12,81,-0.04565976560115814
1,12,82,0.006233535706996918
1,12,83,3.0283117294311523
1,12,84,0.0015664547681808472
1,12,85,-0.04129229485988617
1,12,86,-3.008726119995117
1,12,87,2.9967644214630127
1,12,88,2.972464084625244
1,12,89,0.05571547895669937
1,12,90,-2.9740614891052246
1,12,91,-0.010665178298950195
1,12,92,0.06071474403142929
1,12,93,3.043956995010376
1,12,94,0.05023845285177231
1,12,95,-3.040536403656006
1,12,96,0.0453377440571785
1,12,97,-0.04144996404647827
1,12,98,-0.023472711443901062
1,12,99,2.9982869625091553
1,12,100,2.9614241123199463
1,12,101,0.004186637699604034
1,12,102,2.942683696746826
1,12,103,-0.06234056502580643
1,12,104,-2.990873098373413
1,12,105,3.0538253784179688
1,12,106,-2.9422104358673096
1,12,107,2.9727303981781006
1,12,108,0.03364455699920654
1,12,109,-0.05591939389705658
1,12,110,-2.944288730621338
1,12,111,0.0353052094578743
1,12,112,0.060995057225227356
1,12,113,0.0043442025780677795
1,12,114,0.005696460604667664
1,12,115,-0.04727394878864288
1,12,116,0.013228774070739746
1,12,117,0.041304610669612885
1,12,118,3.0024971961975098
1,12,119,3.0462496280670166
1,12,120,-2.9703991413116455
1,12,121,0.023796960711479187
1,12,122,-2.9564554691314697
1,12,123,-0.007923051714897156
1,12,124,-0.02163533866405487
1,12,125,-3.056271553039551
1,12,126,0.02260216325521469
1,12,127,-0.016578227281570435
1,13,0,0.05480777472257614
1,13,1,9.1143217086792
1,13,2,-9.086996078491211
1,13,3,0.022909745573997498
1,13,4,-0.020527303218841553
1,13,5,-9.107845306396484
1,13,6,-0.03846754878759384
1,13,7,-9.082985877990723
1,13,8,-9.114346504211426
1,13,9,9.147558212280273
1,13,10,0.011042408645153046
1,13,11,-0.045554205775260925
1,13,12,0.05429494380950928
1,13,13,0.023439869284629822
1,13,14,0.043953947722911835
1,13,15,-0.0013220086693763733
1,13,16,-9.121834754943848
1,13,17,-9.087788581848145
1,13,18,9.135263442993164
1,13,19,-9.185115814208984
1,13,20,-9.09470272064209
1,13,21,-0.01795901358127594
1,13,22,-9.163619041442871
1,13,23,9.126529693603516
1,13,24,-9.131336212158203
1,13,25,9.080965995788574
1,13,26,0.05019453167915344
1,13,27,-9.10606575012207
1,13,28,-9.191487312316895
1,13,29,-9.150404930114746
1,13,30,-9.1397123336792
1,13,31,-9.141641616821289
1,13,32,-0.01618334650993347
1,13,33,0.054175764322280884
1,13,34,-9.130377769470215
1,13,35,-0.052276186645030975
1,13,36,-0.019159428775310516
1,13,37,-9.09472370147705
1,13,38,-9.136655807495117
1,13,39,-0.047956451773643494
1,13,40,-9.128952026367188
1,13,41,0.04691675305366516
1,13,42,-9.128196716308594
1,13,43,9.0719575881958
1,13,44,9.115457534790039
1,13,45,-9.085198402404785
1,13,46,-9.082589149475098
1,13,47,0.0019122734665870667
1,13,48,0.05570758134126663
1,13,49,-9.09349250793457
1,13,50,-9.171597480773926
1,13,51,-9.083037376403809
1,13,52,-0.009351871907711029
1,13,53,-0.04672359675168991
1,13,54,-9.094571113586426
1,13,55,0.044947586953639984
1,13,56,-0.030482202768325806
1,13,57,-9.136970520019531
1,13,58,9.108297348022461
1,13,59,-0.04546491056680679
1,13,60,0.03097712993621826
1,13,61,-9.173603057861328
1,13,62,-9.114785194396973
1,13,63,0.008002281188964844
1,13,64,-0.011864542961120605
1,13,65,9.098077774047852
1,13,66,-9.165182113647461
1,13,67,-0.024713516235351562
1,13,68,-9.106760025024414
1,13,69,-9.148890495300293
1,13,70,0.02752399444580078
1,13,71,-9.133317947387695
1,13,72,9.139634132385254
1,13,73,0.030110061168670654
1,13,74,-9.078811645507812
1,13,75,-0.01397162675857544
1,13,76,-9.192219734191895
1,13,77,-0.010743431746959686
1,13,78,-9.153236389160156
1,13,79,-9.104166030883789
1,13,80,0.008687026798725128
1,13,81,-0.02640453726053238
1,13,82,-0.018628261983394623
1,13,83,-9.080519676208496
1,13,84,-9.175227165222168
1,13,85,-9.140013694763184
1,13,86,-9.187660217285156
1,13,87,0.02906656265258789
1,13,88,0.03889301419258118
1,13,89,0.04388240724802017
1,13,90,9.105447769165039
1,13,91,-0.028492778539657593
1,13,92,-0.05529189109802246
1,13,93,0.009701550006866455
1,13,94,-0.012938544154167175
1,13,95,0.029036223888397217
1,13,96,-0.031202487647533417
1,13,97,-0.0031318441033363342
1,13,98,0.05622817575931549
1,13,99,0.03387661278247833
1,13,100,-9.077162742614746
1,13,101,-0.030552439391613007
1,13,102,-9.167598724365234
1,13,103,-0.045106902718544006
1,13,104,-9.124728202819824
1,13,105,-0.04919819533824921
1,13,106,0.029483765363693237
1,13,107,-0.050300851464271545
1,13,108,0.05832450091838837
1,13,109,-9.080053329467773
1,13,110,-0.029130175709724426
1,13,111,-9.149826049804688
1,13,112,0.042669057846069336
1,13,113,0.02754424512386322
1,13,114,-9.134621620178223
1,13,115,9.13076114654541
1,13,116,9.143383979797363
1,13,117,9.13237476348877
1,13,118,0.03170178085565567
1,13,119,-9.084760665893555
1,13,120,-9.104830741882324
1,13,121,-0.0010997429490089417
1,13,122,0.004941239953041077
1,13,123,-9.133635520935059
1,13,124,-9.159605979919434
1,13,125,-9.185885429382324
1,13,126,-9.111270904541016
1,13,127,-0.01981627196073532
1,14,0,-0.03624480217695236
1,14,1,9.191703796386719
1,14,2,-9.178858757019043
1,14,3,-0.016480617225170135
1,14,4,-0.030263058841228485
1,14,5,-9.138859748840332
1,14,6,0.05361919850111008
1,14,7,-9.084441184997559
1,14,8,-9.078739166259766
1,14,9,9.132750511169434
1,14,10,-0.06058911979198456
1,14,11,0.058757275342941284
1,14,12,-0.043362461030483246
1,14,13,-0.01234978437423706
1,14,14,-0.04129277169704437
1,14,15,0.011103779077529907
1,14,16,-9.084080696105957
1,14,17,-9.186785697937012
1,14,18,9.085023880004883
1,14,19,-9.087194442749023
1,14,20,-9.069890022277832
1,14,21,-0.041770197451114655
1,14,22,-9.110946655273438
1,14,23,9.18073844909668
1,14,24,-9.130436897277832
1,14,25,9.096171379089355
1,14,26,-0.026072688400745392
1,14,27,-9.103287696838379
1,14,28,-9.076626777648926
1,14,29,-9.11152172088623
1,14,30,-9.138333320617676
1,14,31,-9.06849193572998
1,14,32,0.03351429104804993
1,14,33,-0.029120266437530518
1,14,34,-9.129353523254395
1,14,35,0.008669413626194
1,14,36,0.03181551396846771
1,14,37,-9.0956392288208
1,14,38,-9.16655445098877
1,14,39,-0.05780975520610809
1,14,40,-9.107462882995605
1,14,41,0.050187237560749054
1,14,42,-9.186873435974121
1,14,43,9.14792251586914
1,14,44,9.094916343688965
1,14,45,-9.17301082611084
1,14,46,-9.071748733520508
1,14,47,0.06247197091579437
1,14,48,0.006061196327209473
1,14,49,-9.069632530212402
1,14,50,-9.092755317687988
1,14,51,-9.078937530517578
1,14,52,-0.04596856236457825
1,14,53,-0.0037185773253440857
1,14,54,-9.12148380279541
1,14,55,0.016234755516052246
1,14,56,-0.04069555550813675
1,14,57,-9.144369125366211
1,14,58,9.101932525634766
1,14,59,-0.027883462607860565
1,14,60,0.05894032120704651
1,14,61,-9.082301139831543
1,14,62,-9.187503814697266
1,14,63,-0.030073873698711395
1,14,64,0.03452151268720627
1,14,65,9.102238655090332
1,14,66,-9.125587463378906
1,14,67,-0.05182237923145294
1,14,68,-9.098957061767578
1,14,69,-9.090935707092285
1,14,70,0.03061918169260025
1,14,71,-9.190566062927246
1,14,72,9.18652057647705
1,14,73,-0.008878335356712341
1,14,74,-9.140893936157227
1,14,75,0.030704282224178314
1,14,76,-9.188584327697754
1,14,77,0.01573602855205536
1,14,78,-9.104585647583008
1,14,79,-9.185836791992188
1,14,80,-0.02384054660797119
1,14,81,-0.024700216948986053
1,14,82,-0.062343746423721313
1,14,83,-9.080094337463379
1,14,84,-9.105844497680664
1,14,85,-9.139654159545898
1,14,86,-9.074459075927734
1,14,87,0.020002424716949463
1,14,88,0.015665479004383087
1,14,89,0.05907613784074783
1,14,90,9.07295036315918
1,14,91,-0.02454167604446411
1,14,92,0.0509181022644043
1,14,93,-0.027297355234622955
1,14,94,-0.0035908296704292297
1,14,95,0.05025126039981842
1,14,96,0.0027894005179405212
1,14,97,0.033925555646419525
1,14,98,0.05903833359479904
1,14,99,0.05935049057006836
1,14,100,-9.174899101257324
1,14,101,0.02413114160299301
1,14,102,-9.146663665771484
1,14,103,0.011476337909698486
1,14,104,-9.125893592834473
1,14,105,0.033663444221019745
1,14,106,-0.011565916240215302
1,14,107,0.044949889183044434
1,14,108,0.0005163475871086121
1,14,109,-9.104228019714355
1,14,110,-0.00151844322681427
1,14,111,-9.182714462280273
1,14,112,-0.026931069791316986
1,14,113,-0.004146642982959747
1,14,114,-9.090875625610352
1,14,115,9.17930793762207
1,14,116,9.186431884765625
1,14,117,9.129403114318848
1,14,118,0.05621414631605148
1,14,119,-9.140674591064453
1,14,120,-9.158608436584473
1,14,121,-0.03747181594371796
1,14,122,0.02054264396429062
1,14,123,-9.105569839477539
1,14,124,-9.09012508392334
1,14,125,-9.18972110748291
1,14,126,-9.190762519836426
1,14,127,-0.03558560460805893
1,15,0,-3.0290355682373047
1,15,1,-2.980083465576172
1,15,2,2.959812879562378
1,15,3,-2.9681904315948486
1,15,4,0.02902841567993164
1,15,5,3.0391526222229004
1,15,6,3.0554208755493164
1,15,7,0.052822940051555634
1,15,8,0.06140816956758499
1,15,9,-0.024670399725437164
1,15,10,3.0125458240509033
1,15,11,-3.01343035697937
1,15,12,-2.944841146469116
1,15,13,-3.0276296138763428
1,15,14,0.012647122144699097
1,15,15,-2.9656338691711426
1,15,16,-2.959548234939575
1,15,17,0.04271095246076584
1,15,18,0.06060893088579178
1,15,19,-3.034167528152466
1,15,20,3.0255746841430664
1,15,21,-0.05669461935758591
1,15,22,-2.9613914489746094
1,15,23,-0.061751045286655426
1,15,24,-0.032431721687316895
1,15,25,-0.059485599398612976
1,15,26,-0.05468358099460602
1,15,27,-3.030374765396118
1,15,28,0.01862756907939911
1,15,29,-0.0013290643692016602
1,15,30,-2.9812538623809814
1,15,31,3.023365020751953
1,15,32,-3.023865222930908
1,15,33,3.061079740524292
1,15,34,-2.9666318893432617
1,15,35,-0.04688773304224014
1,15,36,-0.035566650331020355
1,15,37,0.015508025884628296
1,15,38,0.04249224811792374
1,15,39,3.028559684753418
1,15,40,-0.03175932168960571
1,15,41,0.030720338225364685
1,15,42,-0.039133913815021515
1,15,43,-0.034595370292663574
1,15,44,-2.989806652069092
1,15,45,3.048914909362793
1,15,46,0.028693638741970062
1,15,47,0.06142492592334747
1,15,48,3.0272421836853027
1,15,49,0.02574022114276886
1,15,50,-0.008024215698242188
1,15,51,-0.02546674758195877
1,15,52,0.03670307993888855
1,15,53,3.045159339904785
1,15,54,-0.01488560438156128
1,15,55,-3.0309665203094482
1,15,56,3.0415940284729004
1,15,57,-0.004016563296318054
1,15,58,-2.9652228355407715
1,15,59,-2.975851535797119
1,15,60,0.029576808214187622
1,15,61,-0.03444374352693558
1,15,62,-3.0205891132354736
1,15,63,0.050183095037937164
1,15,64,-2.9662275314331055
1,15,65,0.006887055933475494
1,15,66,0.019968494772911072
1,15,67,-2.9870970249176025
1,15,68,-2.9428462982177734
1,15,69,-0.007225006818771362
1,15,70,0.014807134866714478
1,15,71,-0.03341430425643921
1,15,72,-0.047040678560733795
1,15,73,-0.0007381513714790344
1,15,74,-2.9657628536224365
1,15,75,0.05208544433116913
1,15,76,-0.007451370358467102
1,15,77,-2.9471492767333984
1,15,78,2.9550046920776367
1,15,79,2.968726634979248
1,15,80,3.047910690307617
1,15,81,0.047937773168087006
1,15,82,0.008940525352954865
1,15,83,3.0577008724212646
1,15,84,0.05329675227403641
1,15,85,-0.015575431287288666
1,15,86,-3.038010597229004
1,15,87,2.980502128601074
1,15,88,3.0379576683044434
1,15,89,0.01752268522977829
1,15,90,-2.9513344764709473
1,15,91,-0.060128845274448395
1,15,92,-0.045349374413490295
1,15,93,3.0186305046081543
1,15,94,-0.023691043257713318
1,15,95,-3.0524489879608154
1,15,96,-0.007063381373882294
1,15,97,0.03193334490060806
1,15,98,-0.023054130375385284
1,15,99,3.0161843299865723
1,15,100,3.0237011909484863
1,15,101,0.058614447712898254
1,15,102,3.038994789123535
1,15,103,0.02468203753232956
1,15,104,-3.013584852218628
1,15,105,2.944483518600464
1,15,106,-2.9411699771881104
1,15,107,2.9853415489196777
1,15,108,-0.05480284243822098
1,15,109,-0.04444252699613571
1,15,110,-2.969722270965576
1,15,111,-0.029968321323394775
1,15,112,0.038432978093624115
1,15,113,0.03225249797105789
1,15,114,0.010299988090991974
1,15,115,-0.018768034875392914
1,15,116,-0.0035129860043525696
1,15,117,-0.023555822670459747
1,15,118,2.950535535812378
1,15,119,3.0200142860412598
1,15,120,-2.9528512954711914
1,15,121,-0.054363004863262177
1,15,122,-3.0343198776245117
1,15,123,0.049738407135009766
1,15,124,0.05247008800506592
1,15,125,-2.9749958515167236
1,15,126,-0.018327496945858
1,15,127,-0.008952803909778595
1,16,0,-2.949772357940674
1,16,1,-2.997833013534546
1,16,2,2.9731688499450684
1,16,3,-3.0102522373199463
1,16,4,-0.01657652109861374
1,16,5,3.064865827560425
1,16,6,2.995760440826416
1,16,7,0.02601587027311325
1,16,8,0.048886656761169434
1,16,9,-0.04018208384513855
1,16,10,2.976738214492798
1,16,11,-2.9693315029144287
1,16,12,-2.952289581298828
1,16,13,-2.959022283554077
1,16,14,0.05405053496360779
1,16,15,-3.0278706550598145
1,16,16,-2.9732041358947754
1,16,17,0.054807983338832855
1,16,18,-0.053448386490345
1,16,19,-3.0052719116210938
1,16,20,2.978590965270996
1,16,21,0.02716473489999771
1,16,22,-2.9460649490356445
1,16,23,-0.007353655993938446
1,16,24,0.018443942070007324
1,16,25,-0.0114373117685318
1,16,26,-0.05974866449832916
1,16,27,-3.0119855403900146
1,16,28,-0.029128842055797577
1,16,29,-0.039662569761276245
1,16,30,-2.953507900238037
1,16,31,2.9700984954833984
1,16,32,-2.9599552154541016
1,16,33,3.0641028881073
1,16,34,-3.0116875171661377
1,16,35,-0.050208352506160736
1,16,36,0.05842866003513336
1,16,37,0.010312169790267944
1,16,38,-0.022756032645702362
1,16,39,3.021699905395508
1,16,40,-0.03300860524177551
1,16,41,0.01976243406534195
1,16,42,0.009110048413276672
1,16,43,0.03890978544950485
1,16,44,-2.983342409133911
1,16,45,3.049295663833618
1,16,46,-0.046786390244960785
1,16,47,0.014651097357273102
1,16,48,2.9667248725891113
1,16,49,-0.02554011344909668
1,16,50,0.0457381010055542
1,16,51,-0.03278181701898575
1,16,52,-0.015683546662330627
1,16,53,3.008841037750244
1,16,54,-0.04950607568025589
1,16,55,-2.9902729988098145
1,16,56,2.996580123901367
1,16,57,0.01314736157655716
1,16,58,-2.953812837600708
1,16,59,-3.0267393589019775
1,16,60,0.0035950616002082825
1,16,61,-0.029727332293987274
1,16,62,-3.0587902069091797
1,16,63,-0.006017796695232391
1,16,64,-2.9969451427459717
1,16,65,0.02399752289056778
1,16,66,0.017809532582759857
1,16,67,-3.0412843227386475
1,16,68,-3.02699613571167
1,16,69,0.001240357756614685
1,16,70,0.04939613491296768
1,16,71,-0.044844165444374084
1,16,72,0.005618102848529816
1,16,73,-0.05378865450620651
1,16,74,-3.004258632659912
1,16,75,0.06181930750608444
1,16,76,-0.009808704257011414
1,16,77,-3.0045270919799805
1,16,78,2.9860570430755615
1,16,79,3.0167176723480225
1,16,80,2.963907241821289
1,16,81,0.013652145862579346
1,16,82,0.03214384615421295
1,16,83,3.0617964267730713
1,16,84,0.03660593926906586
1,16,85,-0.03843766450881958
1,16,86,-3.0344250202178955
1,16,87,3.0286176204681396
1,16,88,2.959059238433838
1,16,89,-0.02921021729707718
1,16,90,-2.951244354248047
1,16,91,0.05084490031003952
1,16,92,0.03252342343330383
1,16,93,2.98197865486145
1,16,94,0.018569953739643097
1,16,95,-2.9701907634735107
1,16,96,0.04121311753988266
1,16,97,-0.03686094284057617
1,16,98,0.019190922379493713
1,16,99,3.0134828090667725
1,16,100,3.0628743171691895
1,16,101,-0.04131641238927841
1,16,102,3.031944751739502
1,16,103,0.03790216147899628
1,16,104,-2.9536221027374268
1,16,105,3.012688159942627
1,16,106,-3.0589771270751953
1,16,107,3.015209913253784
1,16,108,-0.01581723242998123
1,16,109,0.014207117259502411
1,16,110,-3.063474416732788
1,16,111,-0.046246908605098724
1,16,112,0.02916371077299118
1,16,113,0.00019910931587219238
1,16,114,-0.03598333150148392
1,16,115,-0.05321209132671356
1,16,116,-0.029981277883052826
1,16,117,-0.050276339054107666
1,16,118,2.944582223892212
1,16,119,2.959357976913452
1,16,120,-2.995335817337036
1,16,121,-0.0390225425362587
1,16,122,-3.0403127670288086
1,16,123,-0.03598226606845856
1,16,124,0.03933033347129822
1,16,125,-3.0375208854675293
1,16,126,0.0022491589188575745
1,16,127,0.00874105840921402
1,17,0,-2.9912524223327637
1,17,1,-2.9964656829833984
1,17,2,3.0607941150665283
1,17,3,-3.025315523147583
1,17,4,-0.04947030544281006
1,17,5,2.9695258140563965
1,17,6,2.9665822982788086
1,17,7,-0.050807446241378784
1,17,8,0.023918233811855316
1,17,9,0.022409915924072266
1,17,10,3.0264153480529785
1,17,11,-3.053493022918701
1,17,12,-2.944528579711914
1,17,13,-3.0221641063690186
1,17,14,0.022563159465789795
1,17,15,-2.9687962532043457
1,17,16,-3.039358615875244
1,17,17,0.030996263027191162
1,17,18,0.009904906153678894
1,17,19,-2.979274272918701
1,17,20,3.015125036239624
1,17,21,-0.03647276759147644
1,17,22,-2.981306314468384
1,17,23,-0.020912155508995056
1,17,24,-0.001960650086402893
1,17,25,-0.06063615530729294
1,17,26,-0.013966888189315796
1,17,27,-2.9410247802734375
1,17,28,-0.009426549077033997
1,17,29,-0.0557832270860672
1,17,30,-3.0421459674835205
1,17,31,2.9560489654541016
1,17,32,-3.025606870651245
1,17,33,3.035205602645874
1,17,34,-3.0535202026367188
1,17,35,0.039683207869529724
1,17,36,0.03219030052423477
1,17,37,-0.031463779509067535
1,17,38,0.012256354093551636
1,17,39,3.022395610809326
1,17,40,0.05881025642156601
1,17,41,-0.019372671842575073
1,17,42,0.05689691752195358
1,17,43,-0.03404565900564194
1,17,44,-2.986758232116699
1,17,45,3.0351808071136475
1,17,46,-0.04618679732084274
1,17,47,0.026664383709430695
1,17,48,2.945322036743164
1,17,49,-0.01806878298521042
1,17,50,-0.036486975848674774
1,17,51,-0.011443406343460083
1,17,52,0.03962095081806183
1,17,53,3.022670030593872
1,17,54,-0.0068972110748291016
1,17,55,-2.9421956539154053
1,17,56,3.0628104209899902
1,17,57,-0.047228455543518066
1,17,58,-2.9425082206726074
1,17,59,-3.000978946685791
1,17,60,0.03186759352684021
1,17,61,-0.05786563456058502
1,17,62,-2.9458818435668945
1,17,63,-0.0519542470574379
1,17,64,-2.9679620265960693
1,17,65,0.03768337517976761
1,17,66,0.04059814661741257
1,17,67,-3.0435831546783447
1,17,68,-2.9476232528686523
1,17,69,-0.02919778972864151
1,17,70,-0.05869363248348236
1,17,71,-0.021823421120643616
1,17,72,0.05958656966686249
1,17,73,-0.013309217989444733
1,17,74,-2.9596755504608154
1,17,75,0.046226516366004944
1,17,76,0.05446576327085495
1,17,77,-3.010533332824707
1,17,78,2.9751017093658447
1,17,79,3.0309526920318604
1,17,80,3.05129075050354
1,17,81,0.016523122787475586
1,17,82,0.0401323139667511
1,17,83,3.0530738830566406
1,17,84,-0.013028465211391449
1,17,85,0.0042274147272109985
1,17,86,-2.995342493057251
1,17,87,2.9481585025787354
1,17,88,2.9439408779144287
1,17,89,0.018715478479862213
1,17,90,-2.9500739574432373
1,17,91,-0.05747146159410477
1,17,92,0.05821777135133743
1,17,93,3.0366711616516113
1,17,94,-0.055950507521629333
1,17,95,-3.003777027130127
1,17,96,-0.056155964732170105
1,17,97,0.04668150842189789
1,17,98,-0.04950517416000366
1,17,99,3.0204145908355713
1,17,100,3.0573153495788574
1,17,101,-0.03472889959812164
1,17,102,3.0220227241516113
1,17,103,-0.004459746181964874
1,17,104,-3.009331226348877
1,17,105,2.9675614833831787
1,17,106,-2.9882538318634033
1,17,107,2.9971585273742676
1,17,108,0.03954949975013733
1,17,109,0.04343080520629883
1,17,110,-3.064361572265625
1,17,111,-0.03918219357728958
1,17,112,-0.01986198127269745
1,17,113,0.005037277936935425
1,17,114,0.0216669961810112
1,17,115,0.008522793650627136
1,17,116,-0.04422224313020706
1,17,117,0.035087645053863525
1,17,118,3.0519943237304688
1,17,119,3.0319294929504395
1,17,120,-3.0249385833740234
1,17,121,0.02999558299779892
1,17,122,-3.0191829204559326
1,17,123,0.011268071830272675
1,17,124,-0.021537557244300842
1,17,125,-3.0184273719787598
1,17,126,-0.020130537450313568
1,17,127,-0.012339606881141663
1,18,0,-3.0379068851470947
1,18,1,-2.967848777770996
1,18,2,-2.278402328491211
1,18,3,-2.942068338394165
1,18,4,0.017810247838497162
1,18,5,-2.2969632148742676
1,18,6,-2.2605605125427246
1,18,7,-0.05953668802976608
1,18,8,-0.06043882668018341
1,18,9,-0.02922169119119644
1,18,10,-2.2937090396881104
1,18,11,-2.969888210296631
1,18,12,-3.035254955291748
1,18,13,-2.987197160720825
1,18,14,0.00505472719669342
1,18,15,-2.9473519325256348
1,18,16,-2.9867842197418213
1,18,17,0.05008351057767868
1,18,18,2.5468101501464844
1,18,19,-3.01274037361145
1,18,20,-2.226632833480835
1,18,21,-2.8287649154663086
1,18,22,-3.0474014282226562
1,18,23,2.3946194648742676
1,18,24,-2.8220763206481934
1,18,25,0.02459796518087387
1,18,26,-0.029379159212112427
1,18,27,-2.9594480991363525
1,18,28,-0.012020297348499298
1,18,29,0.016427211463451385
1,18,30,-3.038719892501831
1,18,31,-2.2132952213287354
1,18,32,-2.949967861175537
1,18,33,-2.2734436988830566
1,18,34,-3.0463483333587646
1,18,35,0.05542655289173126
1,18,36,-0.03260958194732666
1,18,37,0.00890834629535675
1,18,38,-2.7483062744140625
1,18,39,-2.3024892807006836
1,18,40,-2.788278579711914
