weight_set_ID,in_node_ID,out_node_ID,weight
0,0,0,-2.4554646015167236
0,0,1,-2.774867057800293
0,0,2,-2.7561757564544678
0,0,3,-10.023046493530273
0,0,4,-8.479471206665039
0,0,5,-2.9019641876220703
0,0,6,-0.41511106491088867
0,0,7,-2.6223304271698
0,0,8,-2.3645992279052734
0,0,9,0.015172719955444336
0,0,10,-4.5439019203186035
0,0,11,-2.0216903686523438
0,0,12,-0.3621601462364197
0,0,13,-2.535677909851074
0,0,14,-0.13584855198860168
0,0,15,-2.027916431427002
0,0,16,-2.509909152984619
0,0,17,-3.3515126705169678
0,0,18,-2.1045761108398438
0,0,19,-0.06324440240859985
0,0,20,-3.296060800552368
0,0,21,-3.0055289268493652
0,0,22,-0.09074541926383972
0,0,23,-0.42592188715934753
0,0,24,-2.51883864402771
0,0,25,-2.6125504970550537
0,0,26,-0.2830871343612671
0,0,27,-3.3708691596984863
0,0,28,-0.2550119459629059
0,0,29,-2.970181703567505
0,0,30,-8.857548713684082
0,0,31,-1.9893337488174438
0,0,32,-0.418016254901886
0,0,33,-2.6596434116363525
0,0,34,-2.769547700881958
0,0,35,-0.1364869773387909
0,0,36,-0.1714574694633484
0,0,37,-2.203939199447632
0,0,38,-5.269722938537598
0,0,39,-2.5678844451904297
0,0,40,-2.4741251468658447
0,0,41,-8.225630760192871
0,0,42,-0.3648381531238556
0,0,43,-3.4064555168151855
0,0,44,-2.1266307830810547
0,0,45,-0.12391775846481323
0,0,46,-2.7314889430999756
0,0,47,-2.0665504932403564
0,0,48,-2.8469932079315186
0,0,49,-7.839344024658203
0,0,50,-2.7629735469818115
0,0,51,-7.853878498077393
0,0,52,-8.045522689819336
0,0,53,-2.5930566787719727
0,0,54,-0.34684139490127563
0,0,55,-2.7293879985809326
0,0,56,-0.32518285512924194
0,0,57,-3.0381078720092773
0,0,58,-2.6000008583068848
0,0,59,-3.095179557800293
0,0,60,-2.6733789443969727
0,0,61,-4.616085529327393
0,0,62,-2.176103115081787
0,0,63,-0.40621814131736755
0,0,64,-4.002985000610352
0,0,65,-6.327322006225586
0,0,66,-5.375735759735107
0,0,67,-0.4296140670776367
0,0,68,-2.157634973526001
0,0,69,-8.794398307800293
0,0,70,-2.5252268314361572
0,0,71,-0.3478552997112274
0,0,72,-0.1562281847000122
0,0,73,-0.0669693648815155
0,0,74,-2.7792208194732666
0,0,75,-0.06278470158576965
0,0,76,-9.022831916809082
0,0,77,-4.202554702758789
0,0,78,-0.26562392711639404
0,0,79,-2.3708741664886475
0,0,80,-4.45379638671875
0,0,81,-2.9915497303009033
0,0,82,-3.257141590118408
0,0,83,-2.2595598697662354
0,0,84,-0.30328571796417236
0,0,85,-3.8421149253845215
0,0,86,-2.6838839054107666
0,0,87,-0.31582677364349365
0,0,88,-2.272244691848755
0,0,89,-2.6610043048858643
0,0,90,-0.34784650802612305
0,0,91,-0.2581629157066345
0,0,92,-5.675091743469238
0,0,93,-2.354959726333618
0,0,94,-4.226615905761719
0,0,95,0.006945550441741943
0,0,96,-3.04945707321167
0,0,97,-7.9574360847473145
0,0,98,0.012582272291183472
0,0,99,-7.967100620269775
0,0,100,-2.8808791637420654
0,0,101,-2.775475263595581
0,0,102,-4.557369709014893
0,0,103,-3.2735366821289062
0,0,104,-2.710911273956299
0,0,105,-6.064059257507324
0,0,106,-3.974465847015381
0,0,107,-2.5695786476135254
0,0,108,-2.641078472137451
0,0,109,-0.24790896475315094
0,0,110,-8.969947814941406
0,0,111,-3.0439839363098145
0,0,112,-0.34898650646209717
0,0,113,-2.9601762294769287
0,0,114,-3.023327112197876
0,0,115,-2.8022146224975586
0,0,116,-0.16040092706680298
0,0,117,-3.1298909187316895
0,0,118,-2.0363800525665283
0,0,119,-2.973966121673584
0,0,120,-8.795427322387695
0,0,121,-0.013538867235183716
0,0,122,-2.6159706115722656
0,0,123,-0.17667776346206665
0,0,124,-0.06394276022911072
0,0,125,-2.6716949939727783
0,0,126,-3.1902670860290527
0,0,127,-3.077834129333496
0,0,128,-2.5171542167663574
0,0,129,-0.041885703802108765
0,0,130,-2.6768126487731934
0,0,131,-2.713655471801758
0,0,132,-0.02125576138496399
0,0,133,-2.447991132736206
0,0,134,-0.3978821039199829
0,0,135,-2.2738006114959717
0,0,136,-2.859661817550659
0,0,137,-7.968038082122803
0,0,138,-3.1067912578582764
0,0,139,-8.922560691833496
0,0,140,-0.11880892515182495
0,0,141,-0.9033381938934326
0,0,142,-0.4087628424167633
0,0,143,-2.6210227012634277
0,0,144,-2.2925455570220947
0,0,145,-3.234602451324463
0,0,146,-0.275349885225296
0,0,147,-8.000490188598633
0,0,148,-2.894198417663574
0,0,149,-0.11661726236343384
0,0,150,-8.881733894348145
0,0,151,-0.4107179045677185
0,0,152,-0.26472562551498413
0,0,153,-0.14701363444328308
0,0,154,-12.337952613830566
0,0,155,-3.269850969314575
0,0,156,-0.20397336781024933
0,0,157,-7.70908784866333
0,0,158,-3.100247621536255
0,0,159,0.0021983087062835693
0,0,160,-3.1321165561676025
0,0,161,-2.018772602081299
0,0,162,-0.32484903931617737
0,0,163,-2.132758855819702
0,0,164,-0.2496943324804306
0,0,165,-8.89773178100586
0,0,166,-0.08401638269424438
0,0,167,-8.902728080749512
0,0,168,-2.379944324493408
0,0,169,-8.92261791229248
0,0,170,-8.794673919677734
0,0,171,-0.12524548172950745
0,0,172,-3.400618076324463
0,0,173,-3.0423357486724854
0,0,174,-2.795109748840332
0,0,175,-2.866867780685425
0,0,176,0.004448890686035156
0,0,177,-0.3436480760574341
0,0,178,-0.27940747141838074
0,0,179,-0.35965654253959656
0,0,180,-3.4155232906341553
0,0,181,-2.347745180130005
0,0,182,0.014305949211120605
0,0,183,-0.2966299057006836
0,0,184,-2.272613286972046
0,0,185,-2.9558908939361572
0,0,186,-7.816158771514893
0,0,187,-2.929321527481079
0,0,188,-2.551699161529541
0,0,189,-2.652650833129883
0,0,190,-2.986483335494995
0,0,191,-3.1197705268859863
0,0,192,-2.5537500381469727
0,0,193,-2.862222671508789
0,0,194,-7.9509806632995605
0,0,195,-8.182914733886719
0,0,196,-2.9195690155029297
0,0,197,-2.0077157020568848
0,0,198,-2.4066271781921387
0,0,199,-0.24528750777244568
0,0,200,-2.7972774505615234
0,0,201,-2.0019781589508057
0,0,202,-0.3446589708328247
0,0,203,-2.184518337249756
0,0,204,-3.3414664268493652
0,0,205,-4.356113910675049
0,0,206,-3.882127285003662
0,0,207,-0.3608517050743103
0,0,208,-2.6738767623901367
0,0,209,-2.094897747039795
0,0,210,-5.605035781860352
0,0,211,-2.757294178009033
0,0,212,-2.3160266876220703
0,0,213,-2.4772608280181885
0,0,214,-2.245584726333618
0,0,215,-15.380595207214355
0,0,216,-0.2983630895614624
0,0,217,-8.899158477783203
0,0,218,-9.051244735717773
0,0,219,-2.6019701957702637
0,0,220,-3.9511327743530273
0,0,221,-8.02172565460205
0,0,222,-2.7372663021087646
0,0,223,-0.031168699264526367
0,0,224,-0.43532463908195496
0,0,225,-2.8593482971191406
0,0,226,-2.987352132797241
0,0,227,-2.4054224491119385
0,0,228,-6.291036605834961
0,0,229,-0.1403990089893341
0,0,230,-6.116603851318359
0,0,231,-0.28729426860809326
0,0,232,-2.525937080383301
0,0,233,-0.18120890855789185
0,0,234,-2.7420873641967773
0,0,235,-0.19090786576271057
0,0,236,-3.0350630283355713
0,0,237,-3.3405065536499023
0,0,238,-7.879573345184326
0,0,239,-3.3937106132507324
0,0,240,-2.9777870178222656
0,0,241,-8.775704383850098
0,0,242,-6.221707820892334
0,0,243,-2.8017332553863525
0,0,244,-15.85255241394043
0,0,245,-0.4461359977722168
0,0,246,-2.131406784057617
0,0,247,-2.35064435005188
0,0,248,0.011899441480636597
0,0,249,-2.844163656234741
0,0,250,-3.2747528553009033
0,0,251,-8.045183181762695
0,0,252,-3.23425030708313
0,0,253,-0.01967388391494751
0,0,254,-3.2571685314178467
0,0,255,-2.716956615447998
0,0,256,-2.7423012256622314
0,0,257,-4.635852336883545
0,0,258,-2.162790298461914
0,0,259,-2.15240740776062
0,0,260,-4.1569976806640625
0,0,261,-0.023362070322036743
0,0,262,-1.9988733530044556
0,0,263,-8.882325172424316
0,0,264,-0.17645642161369324
0,0,265,-8.887245178222656
0,0,266,-7.7554168701171875
0,0,267,-0.08025670051574707
0,0,268,-4.15074348449707
0,0,269,-14.102813720703125
0,0,270,-2.0503363609313965
0,0,271,-3.9336984157562256
0,0,272,-0.03067764639854431
0,0,273,-0.648361086845398
0,0,274,-4.313179016113281
0,0,275,-3.4467060565948486
0,0,276,-0.33910131454467773
0,0,277,-2.908393144607544
0,0,278,-0.3380289673805237
0,0,279,-0.34022361040115356
0,0,280,-0.1692848801612854
0,0,281,-2.979156255722046
0,0,282,-2.651829242706299
0,0,283,-0.3316243886947632
0,0,284,-3.161097764968872
0,0,285,-2.736727714538574
0,0,286,-0.132615327835083
0,0,287,-3.1850297451019287
0,0,288,-9.070353507995605
0,0,289,-8.007120132446289
0,0,290,-0.37233126163482666
0,0,291,-0.009943485260009766
0,0,292,-2.0397205352783203
0,0,293,-2.395604133605957
0,0,294,-0.07148474454879761
0,0,295,-2.9718148708343506
0,0,296,-2.202131986618042
0,0,297,-3.0698115825653076
0,0,298,-8.024337768554688
0,0,299,-3.0033631324768066
0,0,300,-2.871574640274048
0,0,301,-2.045783519744873
0,0,302,-15.852858543395996
0,0,303,-0.28428637981414795
0,0,304,-0.12754014134407043
0,0,305,-2.2969157695770264
0,0,306,-9.064706802368164
0,0,307,-3.1795365810394287
0,0,308,-2.038231611251831
0,0,309,-3.112039566040039
0,0,310,-5.371253967285156
0,0,311,-0.3772461414337158
0,0,312,-3.9095325469970703
0,0,313,-2.1609714031219482
0,0,314,-8.989649772644043
0,0,315,-0.2897879481315613
0,0,316,-2.2213380336761475
0,0,317,-8.962583541870117
0,0,318,-3.4167609214782715
0,0,319,-7.863633155822754
0,0,320,-0.037423163652420044
0,0,321,-0.12028804421424866
0,0,322,-2.854726791381836
0,0,323,-1.0566246509552002
0,0,324,-2.062126636505127
0,0,325,-2.984513759613037
0,0,326,-0.3980311155319214
0,0,327,-2.06683087348938
0,0,328,-2.7545251846313477
0,0,329,-0.33111709356307983
0,0,330,-5.064966201782227
0,0,331,-2.7300424575805664
0,0,332,-2.780883312225342
0,0,333,-2.636932849884033
0,0,334,-8.097825050354004
0,0,335,-0.024909406900405884
0,0,336,-2.758096933364868
0,0,337,-2.0929088592529297
0,0,338,-2.5017495155334473
0,0,339,-3.141434669494629
0,0,340,-0.11828327178955078
0,0,341,-0.04106384515762329
0,0,342,-0.05145713686943054
0,0,343,-7.890253067016602
0,0,344,-2.8448376655578613
0,0,345,-8.736994743347168
0,0,346,-0.049896419048309326
0,0,347,-2.9544801712036133
0,0,348,-8.915153503417969
0,0,349,-0.19479894638061523
0,0,350,-0.44057101011276245
0,0,351,-3.2189528942108154
0,0,352,-2.5729751586914062
0,0,353,-4.263271331787109
0,0,354,-5.462591648101807
0,0,355,-7.838303089141846
0,0,356,-2.3857295513153076
0,0,357,-2.4519660472869873
0,0,358,-2.685093402862549
0,0,359,-2.793368339538574
0,0,360,-2.931990623474121
0,0,361,-3.2102150917053223
0,0,362,-2.8010361194610596
0,0,363,-0.014336943626403809
0,0,364,-0.07349231839179993
0,0,365,-4.157460689544678
0,0,366,-2.8935983180999756
0,0,367,-2.4293792247772217
0,0,368,-0.3511691093444824
0,0,369,-2.7119622230529785
0,0,370,-0.4304315149784088
0,0,371,-0.06010928750038147
0,0,372,-0.39372771978378296
0,0,373,-0.3729538023471832
0,0,374,-2.599947690963745
0,0,375,-2.1834754943847656
0,0,376,-8.980622291564941
0,0,377,-0.07725635170936584
0,0,378,-2.769306182861328
0,0,379,-9.018695831298828
0,0,380,-0.0551263689994812
0,0,381,-2.375821352005005
0,0,382,-2.68031907081604
0,0,383,-2.3541581630706787
0,0,384,-0.07007396221160889
0,0,385,-2.0410690307617188
0,0,386,-2.9192817211151123
0,0,387,-2.6760106086730957
0,0,388,-2.9783987998962402
0,0,389,-8.986262321472168
0,0,390,-8.772482872009277
0,0,391,-0.01724228262901306
0,0,392,-0.431796133518219
0,0,393,-7.8514604568481445
0,0,394,-2.697093963623047
0,0,395,-0.22289113700389862
0,0,396,-4.364322185516357
0,0,397,-3.1343326568603516
0,0,398,-0.43711191415786743
0,0,399,-8.07451343536377
0,0,400,-2.974212884902954
0,0,401,-4.656422138214111
0,0,402,-2.212021827697754
0,0,403,-0.1737326681613922
0,0,404,-0.3325445055961609
0,0,405,-6.08135986328125
0,0,406,-0.02519664168357849
0,0,407,-2.4185149669647217
0,0,408,-1.9821538925170898
0,0,409,-14.143933296203613
0,0,410,-8.149582862854004
0,0,411,-2.6163198947906494
0,0,412,-0.2891797125339508
0,0,413,-2.174476385116577
0,0,414,-0.30905529856681824
0,0,415,-2.9284255504608154
0,0,416,-2.505126953125
0,0,417,-2.68436861038208
0,0,418,-0.19993093609809875
0,0,419,-2.5858566761016846
0,0,420,-2.6331164836883545
0,0,421,-2.7224175930023193
0,0,422,-2.539034366607666
0,0,423,-4.072966575622559
0,0,424,-2.6916630268096924
0,0,425,-2.5108957290649414
0,0,426,-7.762293338775635
0,0,427,-0.36877599358558655
0,0,428,-0.08843067288398743
0,0,429,-9.110396385192871
0,0,430,-3.1631741523742676
0,0,431,-3.0339362621307373
0,0,432,-2.137650728225708
0,0,433,-2.3479650020599365
0,0,434,-3.7388625144958496
0,0,435,-3.1152706146240234
0,0,436,-2.729973077774048
0,0,437,-2.5914034843444824
0,0,438,-3.3433456420898438
0,0,439,-3.0294742584228516
0,0,440,-14.155377388000488
0,0,441,-2.349210739135742
0,0,442,-3.317417860031128
0,0,443,-2.6514217853546143
0,0,444,-9.023014068603516
0,0,445,-0.22690153121948242
0,0,446,-2.078542470932007
0,0,447,-0.21788935363292694
0,0,448,-2.6563217639923096
0,0,449,-2.596649408340454
0,0,450,-3.951523542404175
0,0,451,-8.91778564453125
0,0,452,-0.3024951219558716
0,0,453,-3.3535847663879395
0,0,454,-2.8212504386901855
0,0,455,-2.7288835048675537
0,0,456,-2.411024808883667
0,0,457,-2.8900272846221924
0,0,458,-2.6470773220062256
0,0,459,-4.492918014526367
0,0,460,-0.21761201322078705
0,0,461,-2.31901216506958
0,0,462,-3.287717342376709
0,0,463,-4.545125961303711
0,0,464,-2.532609701156616
0,0,465,-0.3070884346961975
0,0,466,-2.5865657329559326
0,0,467,-8.791594505310059
0,0,468,-3.114060878753662
0,0,469,-7.976436138153076
0,0,470,-3.2247676849365234
0,0,471,-3.2912635803222656
0,0,472,-0.30856531858444214
0,0,473,-3.1204729080200195
0,0,474,-3.0586493015289307
0,0,475,-0.19850680232048035
0,0,476,-2.7573602199554443
0,0,477,-2.70051908493042
0,0,478,-2.849642753601074
0,0,479,-0.24940676987171173
0,0,480,-9.01076889038086
0,0,481,-7.774180889129639
0,0,482,-1.9974079132080078
0,0,483,-0.0838274359703064
0,0,484,-2.834798812866211
0,0,485,-2.2499303817749023
0,0,486,-0.2752346396446228
0,0,487,-5.1178483963012695
0,0,488,-0.178084135055542
0,0,489,-2.901789665222168
0,0,490,-8.757439613342285
0,0,491,-2.7418296337127686
0,0,492,-2.301912784576416
0,0,493,-0.4395299553871155
0,0,494,-8.98275089263916
0,0,495,-2.629650115966797
0,0,496,-8.09791088104248
0,0,497,-8.994705200195312
0,0,498,-7.953551769256592
0,0,499,-2.7154510021209717
0,0,500,-9.055444717407227
0,0,501,-0.30358564853668213
0,0,502,-2.870880126953125
0,0,503,-3.023311138153076
0,0,504,-0.4110024571418762
0,0,505,-2.7943947315216064
0,0,506,-2.863452196121216
0,0,507,-15.654864311218262
0,0,508,-2.7566256523132324
0,0,509,-2.76987886428833
0,0,510,-8.979936599731445
0,0,511,-3.183518886566162
0,0,512,-2.884669065475464
0,0,513,-2.399310827255249
0,0,514,-2.953704833984375
0,0,515,-2.43200945854187
0,0,516,-2.8469340801239014
0,0,517,-15.851764678955078
0,0,518,-3.9095919132232666
0,0,519,-0.27031728625297546
0,0,520,-2.239990234375
0,0,521,-4.695005893707275
0,0,522,-0.282076358795166
0,0,523,-2.657226800918579
0,0,524,-2.774268627166748
0,0,525,-2.49090313911438
0,0,526,-7.784057140350342
0,0,527,-0.20126351714134216
0,0,528,-2.919384241104126
0,0,529,-0.39999088644981384
0,0,530,-2.0652315616607666
0,0,531,-4.126755237579346
0,0,532,-0.03303787112236023
0,0,533,-0.36618301272392273
0,0,534,-3.255049705505371
0,0,535,-2.284907817840576
0,0,536,-2.6391119956970215
0,0,537,-6.212426662445068
0,0,538,-2.873018741607666
0,0,539,-3.072556734085083
0,0,540,-2.509783983230591
0,0,541,-0.3220277428627014
0,0,542,-2.6230411529541016
0,0,543,-0.012445420026779175
0,0,544,-5.251643657684326
0,0,545,-4.2488179206848145
0,0,546,-2.127558469772339
0,0,547,-3.2249529361724854
0,0,548,-2.0381815433502197
0,0,549,-0.0005824863910675049
0,0,550,-8.895498275756836
0,0,551,-3.219417095184326
0,0,552,-2.0522122383117676
0,0,553,-2.850155830383301
0,0,554,-2.20786714553833
0,0,555,-0.34593671560287476
0,0,556,-2.2765543460845947
0,0,557,-2.633045196533203
0,0,558,-2.868865728378296
0,0,559,-1.9046005010604858
0,0,560,-15.85006332397461
0,0,561,-3.8532419204711914
0,0,562,-2.6218338012695312
0,0,563,-2.3068628311157227
0,0,564,-2.399557113647461
0,0,565,-2.9768402576446533
0,0,566,-3.315568208694458
0,0,567,-2.173888683319092
0,0,568,-0.31621071696281433
0,0,569,-1.9971153736114502
0,0,570,-2.2720327377319336
0,0,571,-2.891947031021118
0,0,572,-2.7154183387756348
0,0,573,-0.3590877056121826
0,0,574,-3.2740979194641113
0,0,575,-3.290332794189453
0,0,576,-3.1413421630859375
0,0,577,-2.81876277923584
0,0,578,-2.1997294425964355
0,0,579,-2.2034363746643066
0,0,580,-2.3097689151763916
0,0,581,-3.4864203929901123
0,0,582,-3.1774559020996094
0,0,583,-0.028132379055023193
0,0,584,-0.39588356018066406
0,0,585,-0.43147730827331543
0,0,586,-0.28756600618362427
0,0,587,-0.3995186984539032
0,0,588,-2.4248008728027344
0,0,589,-2.687161922454834
0,0,590,-2.7357542514801025
0,0,591,-4.115346908569336
0,0,592,-0.03189748525619507
0,0,593,-0.2506594955921173
0,0,594,-2.2409584522247314
0,0,595,-0.3342418670654297
0,0,596,-2.1546216011047363
0,0,597,0.0032016634941101074
0,0,598,-0.35622090101242065
0,0,599,-0.10065686702728271
0,0,600,-2.4312069416046143
0,0,601,-3.87058162689209
0,0,602,-5.1823954582214355
0,0,603,-3.1234452724456787
0,0,604,-2.768385648727417
0,0,605,-2.0667920112609863
0,0,606,-2.8709933757781982
0,0,607,-2.8697402477264404
0,0,608,-0.12308233976364136
0,0,609,-2.1385498046875
0,0,610,-2.3580939769744873
0,0,611,-0.3017616868019104
0,0,612,-0.165463387966156
0,0,613,-2.0585038661956787
0,0,614,-3.266615390777588
0,0,615,-2.7837178707122803
0,0,616,-8.973104476928711
0,0,617,-0.30160945653915405
0,0,618,-2.9391379356384277
0,0,619,-2.248326063156128
0,0,620,-3.0695159435272217
0,0,621,-3.208915948867798
0,0,622,-2.6855833530426025
0,0,623,-2.3400990962982178
0,0,624,-2.044069528579712
0,0,625,-7.875516414642334
0,0,626,-2.795018434524536
0,0,627,-15.504130363464355
0,0,628,-0.1543627381324768
0,0,629,-10.025997161865234
0,0,630,-2.1346077919006348
0,0,631,-0.018340349197387695
0,0,632,-7.715146064758301
0,0,633,-2.4504408836364746
0,0,634,-2.23858904838562
0,0,635,-2.7001094818115234
0,0,636,0.005549192428588867
0,0,637,-2.2087457180023193
0,0,638,-3.243828535079956
0,0,639,-2.7897121906280518
0,0,640,-0.28016823530197144
0,0,641,-2.8497238159179688
0,0,642,-7.8951849937438965
0,0,643,-2.9439685344696045
0,0,644,-3.079543352127075
0,0,645,-3.054865837097168
0,0,646,-0.22185534238815308
0,0,647,-0.40266740322113037
0,0,648,-2.8829615116119385
0,0,649,-2.6866698265075684
0,0,650,-3.26096773147583
0,0,651,-3.380988836288452
0,0,652,-0.08134746551513672
0,0,653,-8.89416790008545
0,0,654,-3.9185092449188232
0,0,655,-0.24301929771900177
0,0,656,-0.039238810539245605
0,0,657,0.04404787719249725
0,0,658,-3.336707592010498
0,0,659,-0.2459561973810196
0,0,660,-4.567225933074951
0,0,661,-2.9771103858947754
0,0,662,-2.729614496231079
0,0,663,-2.7514052391052246
0,0,664,-2.874403953552246
0,0,665,-2.4286818504333496
0,0,666,-2.0249598026275635
0,0,667,-0.32516250014305115
0,0,668,-8.070310592651367
0,0,669,-2.0867960453033447
0,0,670,-2.867365837097168
0,0,671,-0.0693063735961914
0,0,672,-2.247605562210083
0,0,673,-0.03021639585494995
0,0,674,-0.22234025597572327
0,0,675,-3.1018638610839844
0,0,676,-3.1327617168426514
0,0,677,-0.18669861555099487
0,0,678,-8.009429931640625
0,0,679,-3.055406332015991
0,0,680,-0.026957601308822632
0,0,681,-0.12889710068702698
0,0,682,-2.693938970565796
0,0,683,-0.21424350142478943
0,0,684,-2.8611960411071777
0,0,685,-0.10117217898368835
0,0,686,-2.6846606731414795
0,0,687,-0.13886037468910217
0,0,688,-3.3642067909240723
0,0,689,-0.3746461272239685
0,0,690,-2.358304262161255
0,0,691,-0.4388379454612732
0,0,692,-2.5272247791290283
0,0,693,-8.867697715759277
0,0,694,-2.7466235160827637
0,0,695,-2.0361456871032715
0,0,696,-2.4807310104370117
0,0,697,-9.027286529541016
0,0,698,-2.913694381713867
0,0,699,-7.755978107452393
0,0,700,-0.1177821159362793
0,0,701,-2.535109758377075
0,0,702,-2.527427911758423
0,0,703,-2.427654981613159
0,0,704,-3.350155830383301
0,0,705,-3.1763527393341064
0,0,706,-0.4377160966396332
0,0,707,-3.196028709411621
0,0,708,0.0595148429274559
0,0,709,-3.4468512535095215
0,0,710,-2.3931148052215576
0,0,711,-0.3031642436981201
0,0,712,-2.426783561706543
0,0,713,-7.875914573669434
0,0,714,-3.2582685947418213
0,0,715,-3.3153133392333984
0,0,716,-0.1769658327102661
0,0,717,-4.6522440910339355
0,0,718,-2.708679676055908
0,0,719,-2.2118897438049316
0,0,720,-7.92006254196167
0,0,721,-3.034876823425293
0,0,722,-2.8556363582611084
0,0,723,-3.3510608673095703
0,0,724,-2.6849730014801025
0,0,725,-0.2961449921131134
0,0,726,-2.6376254558563232
0,0,727,-2.5363047122955322
0,0,728,-3.281761884689331
0,0,729,-2.7409863471984863
0,0,730,-0.040430277585983276
0,0,731,-2.0919792652130127
0,0,732,-0.203792005777359
0,0,733,-2.601301431655884
0,0,734,-2.3305249214172363
0,0,735,-3.36897873878479
0,0,736,-0.10834473371505737
0,0,737,-2.7897043228149414
0,0,738,-2.1532037258148193
0,0,739,-2.883690118789673
0,0,740,-0.4139901399612427
0,0,741,-0.4090287685394287
0,0,742,-2.4224934577941895
0,0,743,-2.6846587657928467
0,0,744,-3.919177532196045
0,0,745,-2.863652229309082
0,0,746,-15.854044914245605
0,0,747,-2.634796142578125
0,0,748,-0.06214815378189087
0,0,749,-3.1995434761047363
0,0,750,-2.6927764415740967
0,0,751,-2.857147693634033
0,0,752,-2.5658819675445557
0,0,753,-9.028570175170898
0,0,754,-0.10721695423126221
0,0,755,-7.821313858032227
0,0,756,-2.293890953063965
0,0,757,-2.9914345741271973
0,0,758,-0.44210416078567505
0,0,759,-0.12407815456390381
0,0,760,-2.9045565128326416
0,0,761,-2.0361342430114746
0,0,762,-5.638484954833984
0,0,763,-0.2588014006614685
0,0,764,-0.3699784576892853
0,0,765,-0.3721540570259094
0,0,766,-2.629131317138672
0,0,767,-0.05933952331542969
0,0,768,-3.178846597671509
0,0,769,-3.0782036781311035
0,0,770,-2.7869820594787598
0,0,771,-5.3950629234313965
0,0,772,-0.2783259153366089
0,0,773,-3.90596342086792
0,0,774,-3.306729793548584
0,0,775,-2.2880303859710693
0,0,776,-2.742560625076294
0,0,777,-0.0332493782043457
0,0,778,-8.030198097229004
0,0,779,-2.716376304626465
0,0,780,-4.032301425933838
0,0,781,-0.0442141592502594
0,0,782,-2.5648558139801025
0,0,783,-7.990767478942871
0,0,784,-2.8791427612304688
0,0,785,-2.9522082805633545
0,0,786,-3.309220552444458
0,0,787,-2.132542133331299
0,0,788,-0.389446884393692
0,0,789,-2.526463508605957
0,0,790,-8.893089294433594
0,0,791,-2.2858352661132812
0,0,792,-2.8662900924682617
0,0,793,-0.3037230372428894
0,0,794,-2.808079481124878
0,0,795,-3.1778488159179688
0,0,796,-2.7031664848327637
0,0,797,-0.347425639629364
0,0,798,-6.327686309814453
0,0,799,-3.4058656692504883
0,0,800,-2.6945719718933105
0,0,801,-2.7303218841552734
0,0,802,-10.67158317565918
0,0,803,-3.4457781314849854
0,0,804,-15.877742767333984
0,0,805,-0.3171536922454834
0,0,806,0.25595179200172424
0,0,807,-0.17959585785865784
0,0,808,-0.18608221411705017
0,0,809,-0.3178004026412964
0,0,810,-2.415184259414673
0,0,811,-2.362828493118286
0,0,812,-2.0124082565307617
0,0,813,-3.070892095565796
0,0,814,-2.052105665206909
0,0,815,-0.025700509548187256
0,0,816,-3.032595634460449
0,0,817,-2.9134929180145264
0,0,818,-2.655027151107788
0,0,819,-2.3017492294311523
0,0,820,-4.059337139129639
0,0,821,-2.6135637760162354
0,0,822,-2.2954156398773193
0,0,823,-5.4792022705078125
0,0,824,-0.36085063219070435
0,0,825,-8.802303314208984
0,0,826,-3.231567144393921
0,0,827,-0.1500547230243683
0,0,828,-0.15513476729393005
0,0,829,-2.501152992248535
0,0,830,-8.117500305175781
0,0,831,-9.043960571289062
0,0,832,-2.1257903575897217
0,0,833,-8.08609390258789
0,0,834,-8.029139518737793
0,0,835,-2.8299734592437744
0,0,836,-0.43387967348098755
0,0,837,-3.081228017807007
0,0,838,-3.041311025619507
0,0,839,-4.085143566131592
0,0,840,-2.28540301322937
0,0,841,-7.969348907470703
0,0,842,-3.4292242527008057
0,0,843,-2.3720247745513916
0,0,844,-0.35355305671691895
0,0,845,-0.2772657573223114
0,0,846,-2.513223648071289
0,0,847,-0.01544034481048584
0,0,848,-2.8662753105163574
0,0,849,-5.253565788269043
0,0,850,-9.108532905578613
0,0,851,-2.2325620651245117
0,0,852,-2.624875068664551
0,0,853,-0.03889584541320801
0,0,854,-0.035487741231918335
0,0,855,-0.275944322347641
0,0,856,-0.2331022471189499
0,0,857,-2.4317238330841064
0,0,858,-0.32218611240386963
0,0,859,-2.7758994102478027
0,0,860,-2.0573911666870117
0,0,861,-2.8761911392211914
0,0,862,-4.058567523956299
0,0,863,-0.20235306024551392
0,0,864,-0.39616093039512634
0,0,865,-0.20197038352489471
0,0,866,-0.013664871454238892
0,0,867,-0.06734836101531982
0,0,868,-2.5933563709259033
0,0,869,-0.27862030267715454
0,0,870,-2.194822072982788
0,0,871,-0.07564687728881836
0,0,872,-2.8521130084991455
0,0,873,-0.08547446131706238
0,0,874,0.02159830927848816
0,0,875,-0.6564826965332031
0,0,876,-0.15621066093444824
0,0,877,-2.353639602661133
0,0,878,-7.919799327850342
0,0,879,-3.3032584190368652
0,0,880,-3.0643882751464844
0,0,881,-7.761358737945557
0,0,882,-2.1354944705963135
0,0,883,-0.21544824540615082
0,0,884,-4.107215404510498
0,0,885,-2.8618903160095215
0,0,886,-4.043655872344971
0,0,887,-2.8670740127563477
0,0,888,-9.114505767822266
0,0,889,-0.30258598923683167
0,0,890,-2.6548008918762207
0,0,891,-0.2933223247528076
0,0,892,-3.174325466156006
0,0,893,-8.869940757751465
0,0,894,-14.141471862792969
0,0,895,-2.476743459701538
0,0,896,-2.789897918701172
0,0,897,-2.596430540084839
0,0,898,-3.0100324153900146
0,0,899,-2.6920270919799805
0,0,900,-2.9347009658813477
0,0,901,-0.40595489740371704
0,0,902,-0.39116543531417847
0,0,903,-0.062222808599472046
0,0,904,-3.1207261085510254
0,0,905,-4.108425140380859
0,0,906,-0.4101405739784241
0,0,907,-2.470107316970825
0,0,908,-3.0317156314849854
0,0,909,-9.02326488494873
0,0,910,-0.1925041377544403
0,0,911,-5.152676105499268
0,0,912,-1.993765115737915
0,0,913,-0.298247754573822
0,0,914,-0.021208226680755615
0,0,915,-2.3543052673339844
0,0,916,-3.0434927940368652
0,0,917,-3.0158514976501465
0,0,918,-3.4098987579345703
0,0,919,-0.1860722005367279
0,0,920,-3.110638380050659
0,0,921,-3.2069170475006104
0,0,922,-9.06525707244873
0,0,923,-0.2729831039905548
0,0,924,-9.044140815734863
0,0,925,-2.3466646671295166
0,0,926,-0.07373759150505066
0,0,927,-0.22782377898693085
0,0,928,-9.078161239624023
0,0,929,-2.5833046436309814
0,0,930,-2.564084529876709
0,0,931,-2.861154556274414
0,0,932,-15.873512268066406
0,0,933,-2.383244276046753
0,0,934,-5.057456970214844
0,0,935,-6.074158191680908
0,0,936,-2.9380016326904297
0,0,937,-8.789373397827148
0,0,938,-0.09259173274040222
0,0,939,-0.1917138397693634
0,0,940,-9.038735389709473
0,0,941,-7.935945987701416
0,0,942,-2.860853433609009
0,0,943,-2.5732076168060303
0,0,944,-2.672551393508911
0,0,945,-7.428142547607422
0,0,946,-2.54793381690979
0,0,947,-2.6559805870056152
0,0,948,-2.2192955017089844
0,0,949,-5.358520984649658
0,0,950,0.015538632869720459
0,0,951,-2.611001491546631
0,0,952,-0.22276489436626434
0,0,953,-2.7620580196380615
0,0,954,-3.0424208641052246
0,0,955,-2.4406206607818604
0,0,956,-2.794142961502075
0,0,957,-2.6873366832733154
0,0,958,-2.820966958999634
0,0,959,-0.05758333206176758
0,0,960,-2.9833192825317383
0,0,961,-2.8784708976745605
0,0,962,-3.3618085384368896
0,0,963,-2.24721360206604
0,0,964,0.0027846992015838623
0,0,965,-0.00917777419090271
0,0,966,-14.16977596282959
0,0,967,-0.10958391427993774
0,0,968,-7.855318546295166
0,0,969,-0.02169090509414673
0,0,970,-5.195910453796387
0,0,971,-0.1973479688167572
0,0,972,-0.12448045611381531
0,0,973,-8.98694133758545
0,0,974,-5.507743835449219
0,0,975,-2.323014497756958
0,0,976,-0.3546879291534424
0,0,977,-3.280271053314209
0,0,978,-8.690255165100098
0,0,979,-14.247726440429688
0,0,980,-0.33230161666870117
0,0,981,-2.655050039291382
0,0,982,-0.1721859574317932
0,0,983,-8.924921989440918
0,0,984,-2.7238430976867676
0,0,985,-3.035413980484009
0,0,986,-0.07474428415298462
0,0,987,-2.5080294609069824
0,0,988,-8.08192253112793
0,0,989,-2.515775203704834
0,0,990,-2.937997341156006
0,0,991,-4.0530476570129395
0,0,992,-0.05324280261993408
0,0,993,-2.461986780166626
0,0,994,-3.42659592628479
0,0,995,-0.1078520119190216
0,0,996,-0.08430883288383484
0,0,997,-0.18923765420913696
0,0,998,-0.31447744369506836
0,0,999,-0.17214053869247437
0,0,1000,-1.9886304140090942
0,0,1001,-8.979615211486816
0,0,1002,-2.044344663619995
0,0,1003,-2.5730721950531006
0,0,1004,-0.057268619537353516
0,0,1005,-0.2998994290828705
0,0,1006,-2.1652867794036865
0,0,1007,-2.883796453475952
0,0,1008,-2.6979315280914307
0,0,1009,-2.4006423950195312
0,0,1010,-2.1196842193603516
0,0,1011,-3.2587950229644775
0,0,1012,-2.760406494140625
0,0,1013,-4.621165752410889
0,0,1014,-0.26843661069869995
0,0,1015,-2.6239709854125977
0,0,1016,-8.977605819702148
0,0,1017,-2.130157232284546
0,0,1018,-8.952824592590332
0,0,1019,-0.09389811754226685
0,0,1020,-2.3077261447906494
0,0,1021,-8.035482406616211
0,0,1022,-2.6753296852111816
0,0,1023,-2.1132044792175293
0,0,1024,-0.1460878849029541
0,0,1025,-0.33805227279663086
0,0,1026,-2.2289376258850098
0,0,1027,-2.8224661350250244
0,0,1028,-0.052056342363357544
0,0,1029,-3.4423863887786865
0,0,1030,-3.18894624710083
0,0,1031,-0.18337300419807434
0,0,1032,-2.6431517601013184
0,0,1033,-0.40648847818374634
0,0,1034,-2.7746729850769043
0,0,1035,-2.873396873474121
0,0,1036,-3.298966646194458
0,0,1037,-0.12859097123146057
0,0,1038,-3.423884391784668
0,0,1039,-2.4979686737060547
0,0,1040,-2.5601389408111572
0,0,1041,-3.8219401836395264
0,0,1042,-0.08749952912330627
0,0,1043,-0.3058883547782898
0,0,1044,-7.824080944061279
0,0,1045,-2.0235941410064697
0,0,1046,-0.2205168902873993
0,0,1047,-2.298978567123413
0,0,1048,-3.022298812866211
0,0,1049,-10.664190292358398
0,0,1050,-2.581237316131592
0,0,1051,-3.9758238792419434
0,0,1052,-2.1886367797851562
0,0,1053,-3.028141498565674
0,0,1054,-0.28978806734085083
0,0,1055,-8.052322387695312
0,0,1056,-2.4016847610473633
0,0,1057,-5.117586135864258
0,0,1058,-3.225214958190918
0,0,1059,-0.04726344347000122
0,0,1060,-2.610261917114258
0,0,1061,-2.6938068866729736
0,0,1062,-2.8406403064727783
0,0,1063,-2.450941562652588
0,0,1064,-2.6552884578704834
0,0,1065,-0.07144609093666077
0,0,1066,-0.24583007395267487
0,0,1067,-0.19846799969673157
0,0,1068,-2.9100987911224365
0,0,1069,-2.376520872116089
0,0,1070,-0.3070935010910034
0,0,1071,-2.6997177600860596
0,0,1072,-8.802769660949707
0,0,1073,-2.673635721206665
0,0,1074,-3.447843074798584
0,0,1075,-2.225200653076172
0,0,1076,-5.061197280883789
0,0,1077,-0.15848487615585327
0,0,1078,-5.056787967681885
0,0,1079,-2.6893234252929688
0,0,1080,-0.3933648467063904
0,0,1081,-2.820173740386963
0,0,1082,-2.340528964996338
0,0,1083,-3.2352638244628906
0,0,1084,-2.366304636001587
0,0,1085,-7.925608158111572
0,0,1086,-0.2604222595691681
0,0,1087,-5.405407905578613
0,0,1088,-0.4281507730484009
0,0,1089,-0.35675710439682007
0,0,1090,-8.970876693725586
0,0,1091,-0.24236857891082764
0,0,1092,-0.04487767815589905
0,0,1093,-6.274209022521973
0,0,1094,-0.0010104775428771973
0,0,1095,-3.4110798835754395
0,0,1096,-2.8628897666931152
0,0,1097,-3.231564998626709
0,0,1098,-3.2894668579101562
0,0,1099,-2.590956926345825
0,0,1100,-3.1908349990844727
0,0,1101,-3.0485148429870605
0,0,1102,-0.06345018744468689
0,0,1103,-0.4340466856956482
0,0,1104,-0.27262938022613525
0,0,1105,-8.029346466064453
0,0,1106,-1.9877877235412598
0,0,1107,-0.1338157057762146
0,0,1108,-2.1095023155212402
0,0,1109,-3.44901442527771
0,0,1110,-2.660696029663086
0,0,1111,-2.8599472045898438
0,0,1112,-8.829610824584961
0,0,1113,-8.005861282348633
0,0,1114,-0.34761708974838257
0,0,1115,-0.37073323130607605
0,0,1116,-0.012959569692611694
0,0,1117,-0.3328278064727783
0,0,1118,-8.159810066223145
0,0,1119,-0.11756488680839539
0,0,1120,-2.6407086849212646
0,0,1121,-7.903312683105469
0,0,1122,-3.03227162361145
0,0,1123,-2.864218235015869
0,0,1124,-7.8157148361206055
0,0,1125,-0.2978949546813965
0,0,1126,-0.11770886182785034
0,0,1127,-2.394233226776123
0,0,1128,-2.587449073791504
0,0,1129,-2.5938897132873535
0,0,1130,-0.12890306115150452
0,0,1131,-3.155280113220215
0,0,1132,-0.39724433422088623
0,0,1133,-2.7832467555999756
0,0,1134,-0.3471384644508362
0,0,1135,-9.010025024414062
0,0,1136,-4.267792701721191
0,0,1137,-2.616868734359741
0,0,1138,-0.1476290225982666
0,0,1139,-2.6551871299743652
0,0,1140,-0.30689290165901184
0,0,1141,-0.22482284903526306
0,0,1142,-0.38088059425354004
0,0,1143,-3.8249125480651855
0,0,1144,-3.1376683712005615
0,0,1145,-0.2882899045944214
0,0,1146,-7.637191295623779
0,0,1147,-0.28336039185523987
0,0,1148,-0.24936529994010925
0,0,1149,-2.9965903759002686
0,0,1150,-7.462853908538818
0,0,1151,-3.2416696548461914
0,0,1152,-0.08365198969841003
0,0,1153,-2.5172312259674072
0,0,1154,-2.752249002456665
0,0,1155,-3.988524913787842
0,0,1156,-2.412226915359497
0,0,1157,-3.004514455795288
0,0,1158,-6.294190406799316
0,0,1159,-4.041688919067383
0,0,1160,-8.83250904083252
0,0,1161,-2.608959436416626
0,0,1162,-0.1999019831418991
0,0,1163,-0.3404926359653473
0,0,1164,-9.048532485961914
0,0,1165,-2.496366262435913
0,0,1166,-3.363194465637207
0,0,1167,-9.009113311767578
0,0,1168,-0.4244665205478668
0,0,1169,-2.6598317623138428
0,0,1170,-2.7334208488464355
0,0,1171,-0.3174859285354614
0,0,1172,-3.241377830505371
0,0,1173,-8.921010971069336
0,0,1174,-2.066981554031372
0,0,1175,-6.163048267364502
0,0,1176,-4.069275379180908
0,0,1177,-4.513192653656006
0,0,1178,-3.2220263481140137
0,0,1179,-8.908235549926758
0,0,1180,-2.8110601902008057
0,0,1181,-2.7631001472473145
0,0,1182,-2.757750988006592
0,0,1183,-2.67151141166687
0,0,1184,0.02378743886947632
0,0,1185,-9.027228355407715
0,0,1186,-2.603614330291748
0,0,1187,-0.22288420796394348
0,0,1188,-15.69910717010498
0,0,1189,-2.454777956008911
0,0,1190,-2.9092817306518555
0,0,1191,-2.073993444442749
0,0,1192,-2.6794521808624268
0,0,1193,-8.026545524597168
0,0,1194,-0.10685023665428162
0,0,1195,-2.964725971221924
0,0,1196,-2.8067431449890137
0,0,1197,-0.09527060389518738
0,0,1198,-8.960817337036133
0,0,1199,-0.21440471708774567
0,0,1200,-2.861551523208618
0,0,1201,-3.1073226928710938
0,0,1202,-8.961983680725098
0,0,1203,-0.41436639428138733
0,0,1204,-3.128498077392578
0,0,1205,-3.222504138946533
0,0,1206,-8.742195129394531
0,0,1207,-3.3039541244506836
0,0,1208,-9.054795265197754
0,0,1209,-3.2823855876922607
0,0,1210,-3.900881290435791
0,0,1211,-1.7073063850402832
0,0,1212,-3.4168241024017334
0,0,1213,-0.15016725659370422
0,0,1214,-2.1764919757843018
0,0,1215,-2.0109622478485107
0,0,1216,-0.3502008616924286
0,0,1217,-5.416958808898926
0,0,1218,-2.595828056335449
0,0,1219,-0.009719252586364746
0,0,1220,-2.536590337753296
0,0,1221,-2.1001501083374023
0,0,1222,-3.452117919921875
0,0,1223,-2.8443028926849365
0,0,1224,-0.3282271921634674
0,0,1225,-2.271759271621704
0,0,1226,-0.17800503969192505
0,0,1227,-2.448218822479248
0,0,1228,-10.660299301147461
0,0,1229,-2.099329710006714
0,0,1230,-0.26460859179496765
0,0,1231,-3.0590481758117676
0,0,1232,-2.4469125270843506
0,0,1233,-0.3741120994091034
0,0,1234,-3.2183725833892822
0,0,1235,-3.28498911857605
0,0,1236,-2.198042869567871
0,0,1237,-2.3424034118652344
0,0,1238,-2.603433132171631
0,0,1239,-0.34902089834213257
0,0,1240,-3.0667622089385986
0,0,1241,-0.1488448977470398
0,0,1242,-2.5616133213043213
0,0,1243,-6.250131130218506
0,0,1244,-8.92833137512207
0,0,1245,-0.16984033584594727
0,0,1246,-7.900631904602051
0,0,1247,-3.0432565212249756
0,0,1248,-3.340315103530884
0,0,1249,-2.5798025131225586
0,0,1250,-2.6457505226135254
0,0,1251,-2.6276280879974365
0,0,1252,-0.06468427181243896
0,0,1253,-2.326310873031616
0,0,1254,-2.546165704727173
0,0,1255,-7.929090976715088
0,0,1256,-2.735323905944824
0,0,1257,-2.5686192512512207
0,0,1258,-0.2670443058013916
0,0,1259,-0.4221237301826477
0,0,1260,-2.869321823120117
0,0,1261,-2.5644731521606445
0,0,1262,-2.616938829421997
0,0,1263,-0.1661434769630432
0,0,1264,-3.850881576538086
0,0,1265,-2.437654972076416
0,0,1266,-3.167875051498413
0,0,1267,-3.028693199157715
0,0,1268,-2.4754538536071777
0,0,1269,-0.6060233116149902
0,0,1270,-0.19922150671482086
0,0,1271,-3.0656282901763916
0,0,1272,-0.07213765382766724
0,0,1273,-0.19987313449382782
0,0,1274,-2.0785775184631348
0,0,1275,-0.4117826223373413
0,0,1276,-2.657607316970825
0,0,1277,-2.1051998138427734
0,0,1278,-2.6909608840942383
0,0,1279,-0.1744348406791687
0,0,1280,-2.752800703048706
0,0,1281,-3.343358039855957
0,0,1282,-8.934209823608398
0,0,1283,-2.8476107120513916
0,0,1284,-3.069063901901245
0,0,1285,-2.024956226348877
0,0,1286,-3.0671098232269287
0,0,1287,-0.25699806213378906
0,0,1288,-2.5193159580230713
0,0,1289,-3.086137294769287
0,0,1290,-2.7053492069244385
0,0,1291,-2.795025110244751
0,0,1292,-2.599817991256714
0,0,1293,-0.3080422878265381
0,0,1294,-0.06877574324607849
0,0,1295,-2.7890350818634033
0,0,1296,-3.4263722896575928
0,0,1297,-0.25396308302879333
0,0,1298,-2.4948670864105225
0,0,1299,0.0009725689888000488
0,0,1300,-2.9010848999023438
0,0,1301,-0.12123024463653564
0,0,1302,-3.003446340560913
0,0,1303,-4.319493770599365
0,0,1304,-2.868164539337158
0,0,1305,-2.9932520389556885
0,0,1306,-0.3407331705093384
0,0,1307,-2.5918848514556885
0,0,1308,-8.921058654785156
0,0,1309,-0.06327608227729797
0,0,1310,-0.13505128026008606
0,0,1311,-7.805551528930664
0,0,1312,-2.4430224895477295
0,0,1313,-2.2696142196655273
0,0,1314,-14.156814575195312
0,0,1315,-2.0449094772338867
0,0,1316,-2.859429359436035
0,0,1317,-3.8912081718444824
0,0,1318,-0.17167502641677856
0,0,1319,-2.397857904434204
0,0,1320,-2.6289045810699463
0,0,1321,-0.4181317687034607
0,0,1322,-0.10023912787437439
0,0,1323,-6.067616939544678
0,0,1324,-2.983598470687866
0,0,1325,-3.434107542037964
0,0,1326,-2.9702084064483643
0,0,1327,-2.379636526107788
0,0,1328,-2.948293924331665
0,0,1329,-5.178894996643066
0,0,1330,-7.299962520599365
0,0,1331,-0.42198416590690613
0,0,1332,-3.2919673919677734
0,0,1333,-2.828767776489258
0,0,1334,-2.519463539123535
0,0,1335,-2.697016954421997
0,0,1336,-1.9957571029663086
0,0,1337,-2.7488365173339844
0,0,1338,-1.9940133094787598
0,0,1339,-9.100522994995117
0,0,1340,-2.9879167079925537
0,0,1341,-9.058111190795898
0,0,1342,-0.10585051774978638
0,0,1343,-8.771380424499512
0,0,1344,-8.69231128692627
0,0,1345,-0.23326213657855988
0,0,1346,-0.37420135736465454
0,0,1347,-0.04496484994888306
0,0,1348,-0.4048938751220703
0,0,1349,-2.021818161010742
0,0,1350,-5.689067363739014
0,0,1351,-0.39488688111305237
0,0,1352,-2.703320026397705
0,0,1353,-0.03029102087020874
0,0,1354,-4.501618385314941
0,0,1355,-0.13791167736053467
0,0,1356,-2.366039514541626
0,0,1357,-2.7819485664367676
0,0,1358,0.001225113868713379
0,0,1359,-2.681610584259033
0,0,1360,-3.126192808151245
0,0,1361,-2.645580768585205
0,0,1362,-2.9037749767303467
0,0,1363,-2.3521499633789062
0,0,1364,-2.423146963119507
0,0,1365,-2.3687987327575684
0,0,1366,-0.11276999115943909
0,0,1367,-2.569840669631958
0,0,1368,-0.1650148630142212
0,0,1369,-0.046412378549575806
0,0,1370,-3.207782506942749
0,0,1371,-0.08690693974494934
0,0,1372,-0.25127387046813965
0,0,1373,-3.0375828742980957
0,0,1374,-2.854459285736084
0,0,1375,-2.1250970363616943
0,0,1376,-9.06058120727539
0,0,1377,-0.05884462594985962
0,0,1378,-8.046710968017578
0,0,1379,-0.2135855257511139
0,0,1380,-3.0240230560302734
0,0,1381,-2.773190975189209
0,0,1382,-3.2063636779785156
0,0,1383,0.014663517475128174
0,0,1384,-2.658339738845825
0,0,1385,-2.4415652751922607
0,0,1386,-0.16249847412109375
0,0,1387,-2.187235116958618
0,0,1388,-3.380896806716919
0,0,1389,-0.011267483234405518
0,0,1390,-0.15432965755462646
0,0,1391,-8.129725456237793
0,0,1392,-2.70334529876709
0,0,1393,-3.292609453201294
0,0,1394,-2.6251237392425537
0,0,1395,-2.8362295627593994
0,0,1396,-2.6387791633605957
0,0,1397,-3.0951035022735596
0,0,1398,-2.7637925148010254
0,0,1399,-2.5726640224456787
0,0,1400,-2.79113507270813
0,0,1401,-0.23591366410255432
0,0,1402,-2.666311740875244
0,0,1403,-3.9369823932647705
0,0,1404,-3.1221489906311035
0,0,1405,-0.29016488790512085
0,0,1406,-2.899871587753296
0,0,1407,-3.424180269241333
0,0,1408,-0.19477608799934387
0,0,1409,-2.9876956939697266
0,0,1410,-2.936506509780884
0,0,1411,-2.8358724117279053
0,0,1412,-0.40634289383888245
0,0,1413,-0.2817038893699646
0,0,1414,-3.339418888092041
0,0,1415,-0.07731372117996216
0,0,1416,-2.7628636360168457
0,0,1417,-2.6029841899871826
0,0,1418,-3.2958486080169678
0,0,1419,-3.3030223846435547
0,0,1420,-4.353177070617676
0,0,1421,-2.203137159347534
0,0,1422,-3.443110466003418
0,0,1423,-10.660737991333008
0,0,1424,-3.189227342605591
0,0,1425,-9.036319732666016
0,0,1426,-3.349154233932495
0,0,1427,-0.2386350780725479
0,0,1428,-9.003771781921387
0,0,1429,-4.585193634033203
0,0,1430,-7.958433151245117
0,0,1431,-0.2644791603088379
0,0,1432,-0.38047733902931213
0,0,1433,-2.5770392417907715
0,0,1434,-0.022115737199783325
0,0,1435,-2.676469087600708
0,0,1436,-0.38031005859375
0,0,1437,-3.112964630126953
0,0,1438,-0.015166401863098145
0,0,1439,-2.8557608127593994
0,0,1440,-0.040041327476501465
0,0,1441,-0.28341174125671387
0,0,1442,-3.0920639038085938
0,0,1443,-1.995408058166504
0,0,1444,0.012286663055419922
0,0,1445,-2.662647247314453
0,0,1446,-0.17516553401947021
0,0,1447,-0.07878363132476807
0,0,1448,-2.4421029090881348
0,0,1449,-2.3264663219451904
0,0,1450,-2.632873058319092
0,0,1451,-2.390573263168335
0,0,1452,-0.31233030557632446
0,0,1453,-0.17175009846687317
0,0,1454,-0.00951075553894043
0,0,1455,-2.2950429916381836
0,0,1456,-2.6626808643341064
0,0,1457,-0.396263986825943
0,0,1458,-0.43767213821411133
0,0,1459,-8.91070556640625
0,0,1460,-3.1492347717285156
0,0,1461,-2.184399127960205
0,0,1462,-2.2479453086853027
0,0,1463,-0.22829841077327728
0,0,1464,-2.47365665435791
0,0,1465,-7.825788974761963
0,0,1466,-2.5593740940093994
0,0,1467,-0.35757195949554443
0,0,1468,-3.1598875522613525
0,0,1469,-0.24142788350582123
0,0,1470,-0.06519457697868347
0,0,1471,-2.736697196960449
0,0,1472,-0.20456284284591675
0,0,1473,-7.8522186279296875
0,0,1474,-2.61751127243042
0,0,1475,-9.020341873168945
0,0,1476,-2.4750568866729736
0,0,1477,-3.0915653705596924
0,0,1478,-2.441612482070923
0,0,1479,-9.039115905761719
0,0,1480,-0.24272261559963226
0,0,1481,-2.5604989528656006
0,0,1482,-2.6104655265808105
0,0,1483,-8.918842315673828
0,0,1484,-2.6243293285369873
0,0,1485,-2.0345113277435303
0,0,1486,-0.29543134570121765
0,0,1487,-3.0431549549102783
0,0,1488,-0.1962278187274933
0,0,1489,-2.0532968044281006
0,0,1490,-2.919992208480835
0,0,1491,-0.11400732398033142
0,0,1492,-2.780616044998169
0,0,1493,-0.3530801832675934
0,0,1494,-3.0169923305511475
0,0,1495,-2.4048097133636475
0,0,1496,-2.063056707382202
0,0,1497,-0.4126080274581909
0,0,1498,-2.209066390991211
0,0,1499,-2.9408578872680664
0,0,1500,-2.5108866691589355
0,0,1501,0.007252305746078491
0,0,1502,-5.237616539001465
0,0,1503,-2.4366352558135986
0,0,1504,-2.3759944438934326
0,0,1505,-2.642117500305176
0,0,1506,-5.493133068084717
0,0,1507,-7.954188346862793
0,0,1508,-0.2628929018974304
0,0,1509,-7.674348831176758
0,0,1510,-3.016064167022705
0,0,1511,-0.02359110116958618
0,0,1512,-2.821815252304077
0,0,1513,-2.7433173656463623
0,0,1514,-7.359748363494873
0,0,1515,-8.101083755493164
0,0,1516,-5.704588413238525
0,0,1517,-3.390625238418579
0,0,1518,-2.429664373397827
0,0,1519,-0.1844085454940796
0,0,1520,-0.25028231739997864
0,0,1521,-0.33080852031707764
0,0,1522,-2.510880947113037
0,0,1523,-8.817184448242188
0,0,1524,-0.3915305733680725
0,0,1525,-2.2176008224487305
0,0,1526,-3.3286869525909424
0,0,1527,-7.802553653717041
0,0,1528,-0.28773003816604614
0,0,1529,-0.7135571241378784
0,0,1530,-2.0125765800476074
0,0,1531,-3.0092873573303223
0,0,1532,-4.952622890472412
0,0,1533,-3.4351019859313965
0,0,1534,-0.08724653720855713
0,0,1535,-2.2149083614349365
0,0,1536,-3.0888657569885254
0,0,1537,-2.2348554134368896
0,0,1538,-8.795698165893555
0,0,1539,-7.876049041748047
0,0,1540,-5.073427200317383
0,0,1541,-2.118255853652954
0,0,1542,-3.0312936305999756
0,0,1543,-14.140019416809082
0,0,1544,-0.3281081020832062
0,0,1545,-2.8589463233947754
0,0,1546,-0.2933247685432434
0,0,1547,-1.2889147996902466
0,0,1548,-0.05076518654823303
0,0,1549,-0.35001981258392334
0,0,1550,-3.1373097896575928
0,0,1551,-0.3609434962272644
0,0,1552,-0.09733420610427856
0,0,1553,-15.837191581726074
0,0,1554,-2.8078062534332275
0,0,1555,-0.14800235629081726
0,0,1556,-0.33841705322265625
0,0,1557,-0.32182174921035767
0,0,1558,-3.009180784225464
0,0,1559,-7.960484981536865
0,0,1560,-0.28658080101013184
0,0,1561,-2.19153094291687
0,0,1562,-0.15687081217765808
0,0,1563,-2.6932709217071533
0,0,1564,-7.9084858894348145
0,0,1565,-7.720057487487793
0,0,1566,-2.617729425430298
0,0,1567,0.11899857968091965
0,0,1568,-2.9943385124206543
0,0,1569,-2.787548303604126
0,0,1570,-0.10770419239997864
0,0,1571,-2.800995349884033
0,0,1572,-7.861802577972412
0,0,1573,-2.927079677581787
0,0,1574,-2.8716366291046143
0,0,1575,-2.852567672729492
0,0,1576,-0.07545429468154907
0,0,1577,-4.096047401428223
0,0,1578,-6.2198991775512695
0,0,1579,-2.060706377029419
0,0,1580,-7.963742733001709
0,0,1581,-2.3897461891174316
0,0,1582,-0.03217273950576782
0,0,1583,-0.11402300000190735
0,0,1584,-0.42881566286087036
0,0,1585,-0.3448553681373596
0,0,1586,-8.96973991394043
0,0,1587,-3.1700782775878906
0,0,1588,-3.226764678955078
0,0,1589,-3.2336318492889404
0,0,1590,-0.23156750202178955
0,0,1591,-0.3963202238082886
0,0,1592,-2.9358789920806885
0,0,1593,-2.6493470668792725
0,0,1594,-2.099946975708008
0,0,1595,-2.7359464168548584
0,0,1596,-0.19931261241436005
0,0,1597,-2.646481990814209
0,0,1598,-2.8614304065704346
0,0,1599,-2.822375535964966
0,0,1600,-3.337787628173828
0,0,1601,-8.932881355285645
0,0,1602,-2.5438570976257324
0,0,1603,-4.678042411804199
0,0,1604,-0.19541624188423157
0,0,1605,-2.0958187580108643
0,0,1606,-2.801279067993164
0,0,1607,-3.3516685962677
0,0,1608,-2.6463000774383545
0,0,1609,-4.540725231170654
0,0,1610,-2.644063949584961
0,0,1611,-2.685124397277832
0,0,1612,-2.7178735733032227
0,0,1613,-3.94150972366333
0,0,1614,-2.9884538650512695
0,0,1615,-0.062101125717163086
0,0,1616,-2.153188467025757
0,0,1617,-2.000408411026001
0,0,1618,-2.59897518157959
0,0,1619,-8.833700180053711
0,0,1620,-3.350452423095703
0,0,1621,-2.5850419998168945
0,0,1622,-2.792574644088745
0,0,1623,-3.0138559341430664
0,0,1624,-2.4062440395355225
0,0,1625,-3.090670108795166
0,0,1626,-2.7269492149353027
0,0,1627,-7.951592922210693
0,0,1628,-2.575509548187256
0,0,1629,-0.1328749656677246
0,0,1630,-7.9386210441589355
0,0,1631,-7.896370887756348
0,0,1632,-0.442245751619339
0,0,1633,-2.3193788528442383
0,0,1634,-0.006216824054718018
0,0,1635,-2.868969202041626
0,0,1636,-2.472853422164917
0,0,1637,-0.15481173992156982
0,0,1638,-0.1929677426815033
0,0,1639,-0.14356717467308044
0,0,1640,-2.809190511703491
0,0,1641,-4.346576690673828
0,0,1642,-2.7680749893188477
0,0,1643,-9.06618881225586
0,0,1644,-3.132322311401367
0,0,1645,-2.6225502490997314
0,0,1646,-0.44316378235816956
0,0,1647,-8.764692306518555
0,0,1648,-0.002715766429901123
0,0,1649,-0.41012144088745117
0,0,1650,-2.589858055114746
0,0,1651,-2.6197798252105713
0,0,1652,-4.045098304748535
0,0,1653,0.005740851163864136
0,0,1654,-0.10168740153312683
0,0,1655,-2.668764114379883
0,0,1656,-3.438051462173462
0,0,1657,-2.7090320587158203
0,0,1658,-0.4099424183368683
0,0,1659,-4.471886157989502
0,0,1660,-2.0013763904571533
0,0,1661,-2.1009681224823
0,0,1662,-0.3834921419620514
0,0,1663,-8.971916198730469
0,0,1664,-6.1224236488342285
0,0,1665,-2.246877431869507
0,0,1666,-3.088162422180176
0,0,1667,-3.2929208278656006
0,0,1668,-2.1410439014434814
0,0,1669,-3.4156153202056885
0,0,1670,-2.1094017028808594
0,0,1671,-2.5739049911499023
0,0,1672,-14.049474716186523
0,0,1673,-3.3874928951263428
0,0,1674,-2.027174949645996
0,0,1675,-0.2883768081665039
0,0,1676,-3.318808078765869
0,0,1677,-2.3599648475646973
0,0,1678,-0.10616523027420044
0,0,1679,-2.394547700881958
0,0,1680,-3.3428592681884766
0,0,1681,-6.129319190979004
0,0,1682,-4.609622955322266
0,0,1683,-0.006199389696121216
0,0,1684,-3.051847457885742
0,0,1685,-7.696554660797119
0,0,1686,-2.5727245807647705
0,0,1687,-0.1478397697210312
0,0,1688,-2.7523629665374756
0,0,1689,-8.812786102294922
0,0,1690,-0.2600235939025879
0,0,1691,-0.1573268473148346
0,0,1692,-8.088434219360352
0,0,1693,-2.7354564666748047
0,0,1694,-2.5748538970947266
0,0,1695,-0.37474972009658813
0,0,1696,-7.9068121910095215
0,0,1697,-8.052733421325684
0,0,1698,-2.062411069869995
0,0,1699,-2.4048492908477783
0,0,1700,-0.2842239737510681
0,0,1701,-2.619807481765747
0,0,1702,-0.4293258786201477
0,0,1703,-7.878951072692871
0,0,1704,-0.3048092722892761
0,0,1705,-0.15101391077041626
0,0,1706,-9.039665222167969
0,0,1707,0.02005171775817871
0,0,1708,-0.15535664558410645
0,0,1709,-2.7674224376678467
0,0,1710,-0.16559165716171265
0,0,1711,-4.594479084014893
0,0,1712,-2.319711208343506
0,0,1713,-5.371683597564697
0,0,1714,-2.825439929962158
0,0,1715,-8.027546882629395
0,0,1716,-0.017517954111099243
0,0,1717,-0.21094262599945068
0,0,1718,-5.29149055480957
0,0,1719,-0.0609416663646698
0,0,1720,0.002489626407623291
0,0,1721,-2.101138114929199
0,0,1722,-0.01997143030166626
0,0,1723,-4.330276012420654
0,0,1724,-3.0887656211853027
0,0,1725,-8.01753044128418
0,0,1726,-3.2461204528808594
0,0,1727,-7.90796422958374
0,0,1728,-2.8692445755004883
0,0,1729,-2.72631573677063
0,0,1730,-2.8431291580200195
0,0,1731,-0.3303852081298828
0,0,1732,-0.20357321202754974
0,0,1733,-0.2977052927017212
0,0,1734,-15.860100746154785
0,0,1735,-0.43900102376937866
0,0,1736,-4.259934425354004
0,0,1737,-2.902489423751831
0,0,1738,-7.721916675567627
0,0,1739,-2.6682350635528564
0,0,1740,-0.3712177276611328
0,0,1741,-2.103689193725586
0,0,1742,-2.6159722805023193
0,0,1743,-4.419985294342041
0,0,1744,-2.5352742671966553
0,0,1745,-2.4656412601470947
0,0,1746,-5.544604778289795
0,0,1747,-0.2189868837594986
0,0,1748,-2.6229968070983887
0,0,1749,-4.462071895599365
0,0,1750,-2.221601963043213
0,0,1751,-2.846867322921753
0,0,1752,-3.940207004547119
0,0,1753,-2.534947395324707
0,0,1754,-1.4436084032058716
0,0,1755,0.010303676128387451
0,0,1756,-2.9201500415802
0,0,1757,-0.4447268545627594
0,0,1758,-2.462141513824463
0,0,1759,-2.64733624458313
0,0,1760,-3.259291887283325
0,0,1761,-4.396419525146484
0,0,1762,-8.901310920715332
0,0,1763,-0.35254478454589844
0,0,1764,-2.9730751514434814
0,0,1765,-2.2503650188446045
0,0,1766,-2.629370927810669
0,0,1767,-0.1991417557001114
0,0,1768,-0.2373962104320526
0,0,1769,-5.4832563400268555
0,0,1770,-8.488917350769043
0,0,1771,-0.3135596811771393
0,0,1772,-8.159327507019043
0,0,1773,-0.2544037699699402
0,0,1774,-8.990825653076172
0,0,1775,-3.070068359375
0,0,1776,-7.882826328277588
0,0,1777,-2.9745280742645264
0,0,1778,-2.5692291259765625
0,0,1779,-0.2625572979450226
0,0,1780,-2.3542685508728027
0,0,1781,-2.3229615688323975
0,0,1782,-2.8684561252593994
0,0,1783,-2.2880632877349854
0,0,1784,-3.352799415588379
0,0,1785,-8.867380142211914
0,0,1786,-1.7921873331069946
0,0,1787,-7.771567344665527
0,0,1788,-9.029928207397461
0,0,1789,-3.1294362545013428
0,0,1790,-0.06704184412956238
0,0,1791,-0.026964694261550903
0,0,1792,-2.795048952102661
0,0,1793,-2.565485954284668
0,0,1794,-2.027174711227417
0,0,1795,-2.825230598449707
0,0,1796,-5.029315948486328
0,0,1797,-2.737304210662842
0,0,1798,-3.3243987560272217
0,0,1799,-2.2038652896881104
0,0,1800,-0.2061874121427536
0,0,1801,-0.18374550342559814
0,0,1802,-2.1687934398651123
0,0,1803,-8.78135871887207
0,0,1804,-0.28401219844818115
0,0,1805,-3.93168306350708
0,0,1806,-3.270875930786133
0,0,1807,-2.8158676624298096
0,0,1808,-2.868900775909424
0,0,1809,-0.24487967789173126
0,0,1810,-0.37771958112716675
0,0,1811,-14.137330055236816
0,0,1812,-3.3817620277404785
0,0,1813,-0.029840826988220215
0,0,1814,-3.0612332820892334
0,0,1815,-0.41283801198005676
0,0,1816,-9.110002517700195
0,0,1817,-0.33794716000556946
0,0,1818,-2.134620189666748
0,0,1819,-0.02883210778236389
0,0,1820,-2.1839592456817627
0,0,1821,-8.77672290802002
0,0,1822,-0.03767281770706177
0,0,1823,-2.7450003623962402
0,0,1824,-2.605441093444824
0,0,1825,-2.122123956680298
0,0,1826,-4.337738990783691
0,0,1827,-0.18525925278663635
0,0,1828,-0.2565293610095978
0,0,1829,-7.824058532714844
0,0,1830,-0.18854689598083496
0,0,1831,-2.8084585666656494
0,0,1832,-2.716708183288574
0,0,1833,-0.221064031124115
0,0,1834,-8.019126892089844
0,0,1835,-0.055903464555740356
0,0,1836,-0.004108697175979614
0,0,1837,-0.19313859939575195
0,0,1838,-4.079786777496338
0,0,1839,-8.965893745422363
0,0,1840,-2.1719460487365723
0,0,1841,-5.074068069458008
0,0,1842,-0.19309782981872559
0,0,1843,-0.12124648690223694
0,0,1844,-3.382345676422119
0,0,1845,-0.5095942616462708
0,0,1846,-2.811796188354492
0,0,1847,-3.149364471435547
0,0,1848,-2.097808361053467
0,0,1849,-0.4415508508682251
0,0,1850,-2.8107731342315674
0,0,1851,-3.042433023452759
0,0,1852,-0.38370510935783386
0,0,1853,-2.570556879043579
0,0,1854,-0.12318572402000427
0,0,1855,-2.344511032104492
0,0,1856,-8.758273124694824
0,0,1857,-3.3444929122924805
0,0,1858,-7.876875877380371
0,0,1859,-8.7970552444458
0,0,1860,-7.200880527496338
0,0,1861,-8.013360977172852
0,0,1862,-0.019733071327209473
0,0,1863,-3.317098617553711
0,0,1864,-0.14191269874572754
0,0,1865,-3.1229779720306396
0,0,1866,-2.841792106628418
0,0,1867,-0.014520794153213501
0,0,1868,-7.765709400177002
0,0,1869,-2.643296241760254
0,0,1870,-2.7661616802215576
0,0,1871,-9.034409523010254
0,0,1872,-2.4811441898345947
0,0,1873,-3.0614423751831055
0,0,1874,-0.1899171769618988
0,0,1875,-0.19799016416072845
0,0,1876,-3.0821328163146973
0,0,1877,-2.8264968395233154
0,0,1878,-0.25570112466812134
0,0,1879,-2.946078062057495
0,0,1880,-2.313572406768799
0,0,1881,-15.842772483825684
0,0,1882,-5.3104119300842285
0,0,1883,-0.40471041202545166
0,0,1884,-2.530197858810425
0,0,1885,-2.8141937255859375
0,0,1886,-9.110977172851562
0,0,1887,-7.977429389953613
0,0,1888,-2.662956714630127
0,0,1889,-0.03162670135498047
0,0,1890,-3.3567495346069336
0,0,1891,-2.777759552001953
0,0,1892,-2.800905227661133
0,0,1893,-14.117620468139648
0,0,1894,-3.356199264526367
0,0,1895,-2.4990367889404297
0,0,1896,-0.35350334644317627
0,0,1897,-3.388334274291992
0,0,1898,-2.9913277626037598
0,0,1899,-3.400803804397583
0,0,1900,-0.06746625900268555
0,0,1901,-2.5809199810028076
0,0,1902,-2.24692440032959
0,0,1903,-2.3585448265075684
0,0,1904,-0.3326460123062134
0,0,1905,-2.542754888534546
0,0,1906,-2.905733585357666
0,0,1907,-2.3008882999420166
0,0,1908,-3.1805880069732666
0,0,1909,-3.0730223655700684
0,0,1910,-2.2529008388519287
0,0,1911,-8.935028076171875
0,0,1912,-4.0838799476623535
0,0,1913,-2.084531545639038
0,0,1914,-0.006983757019042969
0,0,1915,-0.09423127770423889
0,0,1916,-2.743565559387207
0,0,1917,-0.1675817370414734
0,0,1918,-3.027318000793457
0,0,1919,-0.004721313714981079
0,0,1920,-9.051102638244629
0,0,1921,-0.2556476294994354
0,0,1922,-0.014195650815963745
0,0,1923,-2.2513132095336914
0,0,1924,-2.74869441986084
0,0,1925,-2.5860819816589355
0,0,1926,-0.15999779105186462
0,0,1927,-2.134470224380493
0,0,1928,-2.66770339012146
0,0,1929,-2.1815743446350098
0,0,1930,-3.058072090148926
0,0,1931,-0.17500728368759155
0,0,1932,-8.869612693786621
0,0,1933,-2.722393035888672
0,0,1934,-2.153139352798462
0,0,1935,-2.6974422931671143
0,0,1936,-2.7730019092559814
0,0,1937,-8.88021183013916
0,0,1938,-2.641087293624878
0,0,1939,-2.6873559951782227
0,0,1940,-2.4163691997528076
0,0,1941,-3.207705020904541
0,0,1942,-2.1623337268829346
0,0,1943,-2.0528037548065186
0,0,1944,-8.160408020019531
0,0,1945,-2.455679178237915
0,0,1946,-2.596534013748169
0,0,1947,-3.3643856048583984
0,0,1948,-2.9192564487457275
0,0,1949,-2.649061441421509
0,0,1950,-0.275922030210495
0,0,1951,-2.2501578330993652
0,0,1952,-2.1536998748779297
0,0,1953,-0.15287178754806519
0,0,1954,-2.7185535430908203
0,0,1955,-7.894361972808838
0,0,1956,-3.4025275707244873
0,0,1957,-3.2872252464294434
0,0,1958,-3.3810393810272217
0,0,1959,-2.5824406147003174
0,0,1960,-3.096555471420288
0,0,1961,-2.66357159614563
0,0,1962,-2.5943281650543213
0,0,1963,-2.1379876136779785
0,0,1964,-7.867337226867676
0,0,1965,-3.4339189529418945
0,0,1966,-2.3727316856384277
0,0,1967,-3.244863986968994
0,0,1968,-0.30451396107673645
0,0,1969,-0.11294075846672058
0,0,1970,-4.087543487548828
0,0,1971,-2.541102170944214
0,0,1972,-0.20016774535179138
0,0,1973,-2.8413169384002686
0,0,1974,-2.6865603923797607
0,0,1975,-3.117861270904541
0,0,1976,-3.4029641151428223
0,0,1977,-7.293661594390869
0,0,1978,-2.543886661529541
0,0,1979,-0.1858953833580017
0,0,1980,-2.723494529724121
0,0,1981,-8.978464126586914
0,0,1982,-2.771944999694824
0,0,1983,-2.1543736457824707
0,0,1984,-2.829418420791626
0,0,1985,-7.96795129776001
0,0,1986,-0.34045085310935974
0,0,1987,-0.13987910747528076
0,0,1988,-0.0943218469619751
0,0,1989,-2.8328404426574707
0,0,1990,-8.854513168334961
0,0,1991,-2.8762104511260986
0,0,1992,-0.07399588823318481
0,0,1993,-2.3755977153778076
0,0,1994,-2.0534160137176514
0,0,1995,-0.12412881851196289
0,0,1996,-2.711824893951416
0,0,1997,-2.068505048751831
0,0,1998,-2.8290305137634277
0,0,1999,-3.246752977371216
0,0,2000,-0.08300063014030457
0,0,2001,-2.5348265171051025
0,0,2002,-2.6003057956695557
0,0,2003,-2.7533411979675293
0,0,2004,-0.39998766779899597
0,0,2005,-3.1640100479125977
0,0,2006,-3.3375682830810547
0,0,2007,-0.44199061393737793
0,0,2008,-2.972344398498535
0,0,2009,-2.689363956451416
0,0,2010,-5.391767501831055
0,0,2011,-0.34267908334732056
0,0,2012,-3.118405818939209
0,0,2013,-8.962169647216797
0,0,2014,-3.1161627769470215
0,0,2015,-2.0287976264953613
0,0,2016,-2.1617770195007324
0,0,2017,-2.7745773792266846
0,0,2018,-2.1671388149261475
0,0,2019,-2.4714105129241943
0,0,2020,-0.10991567373275757
0,0,2021,-2.080937147140503
0,0,2022,-3.294729232788086
0,0,2023,-2.757708787918091
0,0,2024,-9.039982795715332
0,0,2025,-5.474925518035889
0,0,2026,-2.115603446960449
0,0,2027,-4.039980888366699
0,0,2028,-3.070916175842285
0,0,2029,-2.5667877197265625
0,0,2030,-2.323606252670288
0,0,2031,-8.79727554321289
0,0,2032,-2.645374298095703
0,0,2033,-0.09319579601287842
0,0,2034,-2.5647547245025635
0,0,2035,-2.1905505657196045
0,0,2036,-0.10051995515823364
0,0,2037,-0.2257201373577118
0,0,2038,-2.2525851726531982
0,0,2039,-7.951307773590088
0,0,2040,-8.095030784606934
0,0,2041,-3.0569345951080322
0,0,2042,-2.3398849964141846
0,0,2043,-0.3993907570838928
0,0,2044,-2.7158203125
0,0,2045,-5.601790904998779
0,0,2046,-0.0927940309047699
0,0,2047,-2.443817138671875
0,1,0,-2.1125457286834717
0,1,1,-2.5948047637939453
0,1,2,-2.6720337867736816
0,1,3,-9.308022499084473
0,1,4,-5.280381679534912
0,1,5,-2.8909409046173096
0,1,6,-0.42882537841796875
0,1,7,-2.619152784347534
0,1,8,-2.1164157390594482
0,1,9,-0.2448686957359314
0,1,10,-5.19018030166626
0,1,11,-2.228971481323242
0,1,12,-0.14917612075805664
0,1,13,-1.979871392250061
0,1,14,-0.4468834698200226
0,1,15,-2.1204428672790527
0,1,16,-2.089235305786133
0,1,17,-2.6407530307769775
0,1,18,-2.0399415493011475
0,1,19,-0.38454627990722656
0,1,20,-2.906743049621582
0,1,21,-2.8997247219085693
0,1,22,-0.3647086024284363
0,1,23,-0.39436689019203186
0,1,24,-2.0354843139648438
0,1,25,-2.8369550704956055
0,1,26,-0.060423314571380615
0,1,27,-2.647292137145996
0,1,28,-0.06528913974761963
0,1,29,-2.6957786083221436
0,1,30,-9.462153434753418
0,1,31,-2.2997117042541504
0,1,32,-0.18212753534317017
0,1,33,-2.6316208839416504
0,1,34,-2.8285012245178223
0,1,35,-0.38356634974479675
0,1,36,-0.1567387580871582
0,1,37,-2.2547073364257812
0,1,38,-5.58502197265625
0,1,39,-2.9003257751464844
0,1,40,-2.3042802810668945
0,1,41,-8.245623588562012
0,1,42,-0.27122998237609863
0,1,43,-2.8504691123962402
0,1,44,-2.2729713916778564
0,1,45,-0.3521932363510132
0,1,46,-2.655886650085449
0,1,47,-2.3077080249786377
0,1,48,-2.1687605381011963
0,1,49,-8.590450286865234
0,1,50,-2.1625473499298096
0,1,51,-8.50500774383545
0,1,52,-8.638298988342285
0,1,53,-3.002185583114624
0,1,54,-0.28229254484176636
0,1,55,-2.9378585815429688
0,1,56,-0.10793742537498474
0,1,57,-2.7579987049102783
0,1,58,-2.267599582672119
0,1,59,-2.589811086654663
0,1,60,-2.0803654193878174
0,1,61,-5.150134563446045
0,1,62,-2.3407487869262695
0,1,63,-0.4354625940322876
0,1,64,-4.8626837730407715
0,1,65,-6.680546760559082
0,1,66,-6.206230640411377
0,1,67,-0.42016756534576416
0,1,68,-2.2050106525421143
0,1,69,-9.503763198852539
0,1,70,-2.3509013652801514
0,1,71,-0.2189985066652298
0,1,72,-0.15610510110855103
0,1,73,-0.2881290912628174
0,1,74,-2.835714817047119
0,1,75,-0.2896747589111328
0,1,76,-9.320501327514648
0,1,77,-4.581390380859375
0,1,78,-0.3299712538719177
0,1,79,-2.6108336448669434
0,1,80,-5.2509684562683105
0,1,81,-2.878497362136841
0,1,82,-2.994755744934082
0,1,83,-1.9503649473190308
0,1,84,-0.4262353181838989
0,1,85,-4.399136066436768
0,1,86,-2.7877395153045654
0,1,87,-0.43414682149887085
0,1,88,-2.306551933288574
0,1,89,-2.6990609169006348
0,1,90,-0.06000256538391113
0,1,91,-0.20497776567935944
0,1,92,-5.996984481811523
0,1,93,-2.061591386795044
0,1,94,-4.280305862426758
0,1,95,-0.09742167592048645
0,1,96,-2.6287808418273926
0,1,97,-8.644411087036133
0,1,98,-0.2737398147583008
0,1,99,-5.327383518218994
0,1,100,-2.644695997238159
0,1,101,-2.3392629623413086
0,1,102,-5.01973295211792
0,1,103,-2.7447879314422607
0,1,104,-2.835378408432007
0,1,105,-6.918809413909912
0,1,106,-4.319095134735107
0,1,107,-2.806087017059326
0,1,108,-2.658724308013916
0,1,109,-0.22090323269367218
0,1,110,-9.370887756347656
0,1,111,-2.91728138923645
0,1,112,-0.41340839862823486
0,1,113,-2.893996238708496
0,1,114,-2.8198421001434326
0,1,115,-2.3327763080596924
0,1,116,-0.40438714623451233
0,1,117,-2.675222635269165
0,1,118,-2.276549816131592
0,1,119,-2.7742581367492676
0,1,120,-9.547887802124023
0,1,121,-0.399894654750824
0,1,122,-1.9943187236785889
0,1,123,-0.18116584420204163
0,1,124,-0.10139721632003784
0,1,125,-2.667008638381958
0,1,126,-2.9572224617004395
0,1,127,-2.7450110912323
0,1,128,-2.307582378387451
0,1,129,-0.2343948483467102
0,1,130,-2.7472259998321533
0,1,131,-2.5702154636383057
0,1,132,-0.152207612991333
0,1,133,-1.9924554824829102
0,1,134,-0.11689502000808716
0,1,135,-2.305067539215088
0,1,136,-2.936007022857666
0,1,137,-8.641169548034668
0,1,138,-2.678933620452881
0,1,139,-9.426424026489258
0,1,140,-0.011481314897537231
0,1,141,-3.8798305988311768
0,1,142,-0.00827723741531372
0,1,143,-2.6587347984313965
0,1,144,-2.060047149658203
0,1,145,-2.8199102878570557
0,1,146,-0.09936651587486267
0,1,147,-8.66779613494873
0,1,148,-2.7069814205169678
0,1,149,-0.17589765787124634
0,1,150,-9.447522163391113
0,1,151,-0.06939539313316345
0,1,152,-0.3959556221961975
0,1,153,-0.011830568313598633
0,1,154,-12.439516067504883
0,1,155,-2.9939382076263428
0,1,156,-0.014589577913284302
0,1,157,-8.639464378356934
0,1,158,-2.688908338546753
0,1,159,-0.11568036675453186
0,1,160,-2.7042884826660156
0,1,161,-2.258526563644409
0,1,162,-0.1225762665271759
0,1,163,-2.3226966857910156
0,1,164,-0.25494274497032166
0,1,165,-9.461278915405273
0,1,166,-0.35950973629951477
0,1,167,-9.558150291442871
0,1,168,-2.094521999359131
0,1,169,-9.54867172241211
0,1,170,-9.492768287658691
0,1,171,-0.1701858639717102
0,1,172,-2.751006603240967
0,1,173,-2.753582239151001
0,1,174,-2.9173882007598877
0,1,175,-2.3371646404266357
0,1,176,-0.09108564257621765
0,1,177,-0.11141383647918701
0,1,178,-0.1448558270931244
0,1,179,-0.031776100397109985
0,1,180,-2.583127975463867
0,1,181,-2.0321028232574463
0,1,182,-0.31045812368392944
0,1,183,-0.18415164947509766
0,1,184,-1.9616262912750244
0,1,185,-2.884451389312744
0,1,186,-8.531331062316895
0,1,187,-2.743347406387329
0,1,188,-2.0521199703216553
0,1,189,-2.266130208969116
0,1,190,-2.650585651397705
0,1,191,-2.7852940559387207
0,1,192,-2.112213134765625
0,1,193,-2.6651389598846436
0,1,194,-8.633525848388672
0,1,195,-11.090216636657715
0,1,196,-2.5955095291137695
0,1,197,-1.989308476448059
0,1,198,-2.0175862312316895
0,1,199,-0.2055281102657318
0,1,200,-2.3340108394622803
0,1,201,-2.2486987113952637
0,1,202,-0.029253482818603516
0,1,203,-2.1790812015533447
0,1,204,-2.582728147506714
0,1,205,-5.194131851196289
0,1,206,-4.415905952453613
0,1,207,-0.06927710771560669
0,1,208,-2.2741005420684814
0,1,209,-2.2679669857025146
0,1,210,-6.116501808166504
0,1,211,-2.8831610679626465
0,1,212,-2.2444489002227783
0,1,213,-1.921891689300537
0,1,214,-2.1199285984039307
0,1,215,-19.83088493347168
0,1,216,-0.11500963568687439
0,1,217,-9.56299114227295
0,1,218,-9.495344161987305
0,1,219,-2.6197283267974854
0,1,220,-4.888426780700684
0,1,221,-10.875675201416016
0,1,222,-2.172104835510254
0,1,223,-0.39150893688201904
0,1,224,-0.4330398440361023
0,1,225,-2.719515562057495
0,1,226,-2.8107550144195557
0,1,227,-2.328634023666382
0,1,228,-6.710799217224121
0,1,229,-0.03555256128311157
0,1,230,-6.834709167480469
0,1,231,-0.0039930641651153564
0,1,232,-2.0347390174865723
0,1,233,-0.2177456170320511
0,1,234,-1.9330641031265259
0,1,235,-0.072308748960495
0,1,236,-2.735705614089966
0,1,237,-2.889935255050659
0,1,238,-8.521251678466797
0,1,239,-2.8794164657592773
0,1,240,-2.6444969177246094
0,1,241,-9.497822761535645
0,1,242,-6.778855323791504
0,1,243,-2.782862901687622
0,1,244,-16.230194091796875
0,1,245,-0.3844022750854492
0,1,246,-2.134016990661621
0,1,247,-2.600465774536133
0,1,248,-0.1784399449825287
0,1,249,-1.9302582740783691
0,1,250,-2.8457868099212646
0,1,251,-8.393815994262695
0,1,252,-2.737142562866211
0,1,253,-0.4386715590953827
0,1,254,-2.7082877159118652
0,1,255,-1.9566513299942017
0,1,256,-2.687791585922241
0,1,257,-5.093814373016357
0,1,258,-2.186264991760254
0,1,259,-2.611342430114746
0,1,260,-4.594123840332031
0,1,261,-0.13629749417304993
0,1,262,-1.9358936548233032
0,1,263,-9.373713493347168
0,1,264,-0.2923935651779175
0,1,265,-9.409099578857422
0,1,266,-8.658673286437988
0,1,267,-0.16879335045814514
0,1,268,-4.604857444763184
0,1,269,-14.570013999938965
0,1,270,-2.1787867546081543
0,1,271,-4.891713619232178
0,1,272,-0.18696609139442444
0,1,273,-2.2921109199523926
0,1,274,-5.236337184906006
0,1,275,-2.866483688354492
0,1,276,-0.3171221613883972
0,1,277,-3.9262566566467285
0,1,278,-0.217115581035614
0,1,279,-0.01804637908935547
0,1,280,-0.049114763736724854
0,1,281,-2.707249402999878
0,1,282,-2.6764543056488037
0,1,283,-0.4028206765651703
0,1,284,-2.7555418014526367
0,1,285,-2.9066452980041504
0,1,286,-0.02568802237510681
0,1,287,-2.6711814403533936
0,1,288,-9.420448303222656
0,1,289,-6.212705135345459
0,1,290,-0.18891704082489014
0,1,291,-0.3403908610343933
0,1,292,-2.949561834335327
0,1,293,-2.195033311843872
0,1,294,-0.3512784540653229
0,1,295,-2.971830368041992
0,1,296,-2.027055501937866
0,1,297,-2.655816078186035
0,1,298,-8.583556175231934
0,1,299,-2.8263444900512695
0,1,300,-2.798713445663452
0,1,301,-2.2858965396881104
0,1,302,-16.20939826965332
0,1,303,-0.4403165578842163
0,1,304,-0.13554036617279053
0,1,305,-2.62154221534729
0,1,306,-9.44487476348877
0,1,307,-2.9924046993255615
0,1,308,-2.299309730529785
0,1,309,-2.9996931552886963
0,1,310,-6.181169033050537
0,1,311,-0.40432316064834595
0,1,312,-4.361672401428223
0,1,313,-2.2733070850372314
0,1,314,-9.543310165405273
0,1,315,-0.21790149807929993
0,1,316,-2.234361410140991
0,1,317,-9.56965160369873
0,1,318,-2.5967540740966797
0,1,319,-8.611013412475586
0,1,320,-0.36070823669433594
0,1,321,-0.08432206511497498
0,1,322,-1.9867194890975952
0,1,323,-2.285524368286133
0,1,324,-2.190680742263794
0,1,325,-2.6824941635131836
0,1,326,-0.1778619885444641
0,1,327,-2.1688077449798584
0,1,328,-2.9753482341766357
0,1,329,-0.3500754237174988
0,1,330,-5.717961311340332
0,1,331,-2.8300650119781494
0,1,332,-2.8894059658050537
0,1,333,-2.252246618270874
0,1,334,-8.398100852966309
0,1,335,-0.04530102014541626
0,1,336,-2.587092876434326
0,1,337,-1.974814772605896
0,1,338,-2.2962050437927246
0,1,339,-2.7837255001068115
0,1,340,-0.11338424682617188
0,1,341,-0.06243976950645447
0,1,342,-0.026743590831756592
0,1,343,-8.675542831420898
0,1,344,-2.8047537803649902
0,1,345,-9.572031021118164
0,1,346,-0.4292289912700653
0,1,347,-2.923082113265991
0,1,348,-9.548702239990234
0,1,349,-0.14245232939720154
0,1,350,-0.2714042663574219
0,1,351,-2.634080171585083
0,1,352,-2.219733953475952
0,1,353,-4.546299934387207
0,1,354,-6.1727118492126465
0,1,355,-8.505929946899414
0,1,356,-2.0944223403930664
0,1,357,-1.9860496520996094
0,1,358,-2.2194912433624268
0,1,359,-2.726118326187134
0,1,360,-2.6017749309539795
0,1,361,-2.5704948902130127
0,1,362,-2.2354087829589844
0,1,363,-0.42909470200538635
0,1,364,-0.14361009001731873
0,1,365,-4.288593769073486
0,1,366,-2.9027092456817627
0,1,367,-2.0281851291656494
0,1,368,-0.16540810465812683
0,1,369,-2.2032623291015625
0,1,370,-0.34036922454833984
0,1,371,-0.1893654465675354
0,1,372,-0.23258095979690552
0,1,373,-0.4217047393321991
0,1,374,-2.6471850872039795
0,1,375,-2.1101694107055664
0,1,376,-9.421869277954102
0,1,377,-0.008164465427398682
0,1,378,-2.764972686767578
0,1,379,-9.535053253173828
0,1,380,-0.17813250422477722
0,1,381,-2.1554300785064697
0,1,382,-2.6652159690856934
0,1,383,-2.1052298545837402
0,1,384,-0.04887133836746216
0,1,385,-2.3100624084472656
0,1,386,-2.55962872505188
0,1,387,-2.3220789432525635
0,1,388,-2.5978503227233887
0,1,389,-9.526655197143555
0,1,390,-9.495881080627441
0,1,391,-0.2054377943277359
0,1,392,-0.41208603978157043
0,1,393,-8.587225914001465
0,1,394,-2.8169655799865723
0,1,395,-0.12926271557807922
0,1,396,-5.204972743988037
0,1,397,-2.5944297313690186
0,1,398,-0.07083573937416077
0,1,399,-8.347981452941895
0,1,400,-2.9786291122436523
0,1,401,-5.0825724601745605
0,1,402,-2.3103930950164795
0,1,403,-0.21235747635364532
0,1,404,-0.22061385214328766
0,1,405,-6.872885704040527
0,1,406,-0.007627934217453003
0,1,407,-2.240360736846924
0,1,408,-2.2124826908111572
0,1,409,-14.565418243408203
0,1,410,-8.390681266784668
0,1,411,-2.28007435798645
0,1,412,-0.06101161241531372
0,1,413,-2.0189146995544434
0,1,414,-0.4105038046836853
0,1,415,-2.658214807510376
0,1,416,-2.255596876144409
0,1,417,-2.196676015853882
0,1,418,-0.10886922478675842
0,1,419,-2.9087347984313965
0,1,420,-2.3345794677734375
0,1,421,-2.802518367767334
0,1,422,-2.0809895992279053
0,1,423,-4.639184951782227
0,1,424,-3.001753807067871
0,1,425,-2.1490466594696045
0,1,426,-8.685284614562988
0,1,427,-0.034639596939086914
0,1,428,-0.287071168422699
0,1,429,-9.159441947937012
0,1,430,-2.898689031600952
0,1,431,-2.952659845352173
0,1,432,-2.0103535652160645
0,1,433,-2.6030080318450928
0,1,434,-4.741394519805908
0,1,435,-2.5995707511901855
0,1,436,-2.657066583633423
0,1,437,-2.7458553314208984
0,1,438,-2.973576068878174
0,1,439,-2.5908749103546143
0,1,440,-14.533241271972656
0,1,441,-2.331707715988159
0,1,442,-2.655147075653076
0,1,443,-2.170851230621338
0,1,444,-9.503911972045898
0,1,445,-0.0739765465259552
0,1,446,-2.2048633098602295
0,1,447,-0.17992699146270752
0,1,448,-2.1027817726135254
0,1,449,-2.333059549331665
0,1,450,-4.380825042724609
0,1,451,-9.440533638000488
0,1,452,-0.30157554149627686
0,1,453,-2.9446113109588623
0,1,454,-2.7856123447418213
0,1,455,-2.796794891357422
0,1,456,-2.123556137084961
0,1,457,-2.801391124725342
0,1,458,-2.862515926361084
0,1,459,-5.104827880859375
0,1,460,-0.3714447319507599
0,1,461,-2.027601480484009
0,1,462,-2.9010612964630127
0,1,463,-5.193058490753174
0,1,464,-2.3081603050231934
0,1,465,-0.3122227191925049
0,1,466,-2.796828031539917
0,1,467,-9.50521469116211
0,1,468,-2.803297519683838
0,1,469,-8.48507308959961
0,1,470,-2.9590141773223877
0,1,471,-2.954991102218628
0,1,472,-0.0500548779964447
0,1,473,-2.5975124835968018
0,1,474,-2.6365249156951904
0,1,475,-0.19636785984039307
0,1,476,-1.9417953491210938
0,1,477,-2.981757879257202
0,1,478,-2.00618052482605
0,1,479,-0.007880806922912598
0,1,480,-9.495508193969727
0,1,481,-8.659086227416992
0,1,482,-1.9299428462982178
0,1,483,-0.1727689802646637
0,1,484,-2.2684504985809326
0,1,485,-1.9859755039215088
0,1,486,-0.13601946830749512
0,1,487,-5.679126262664795
0,1,488,-0.1511824131011963
0,1,489,-2.9129011631011963
0,1,490,-9.537644386291504
0,1,491,-2.298142671585083
0,1,492,-2.3314709663391113
0,1,493,-0.32200542092323303
0,1,494,-9.548376083374023
0,1,495,-2.170125722885132
0,1,496,-8.607101440429688
0,1,497,-9.366067886352539
0,1,498,-8.647636413574219
0,1,499,-2.090111255645752
0,1,500,-9.341249465942383
0,1,501,-0.283139169216156
0,1,502,-2.6298880577087402
0,1,503,-2.84588623046875
0,1,504,-0.18063020706176758
0,1,505,-1.9760323762893677
0,1,506,-2.025142192840576
0,1,507,-18.148523330688477
0,1,508,-2.266266345977783
0,1,509,-2.7868223190307617
0,1,510,-9.411552429199219
0,1,511,-2.988403081893921
0,1,512,-2.745039701461792
0,1,513,-2.198789358139038
0,1,514,-2.7789433002471924
0,1,515,-2.1449835300445557
0,1,516,-2.171908378601074
0,1,517,-16.18231964111328
0,1,518,-4.383742332458496
0,1,519,-0.05801936984062195
0,1,520,-2.1077070236206055
0,1,521,-5.122660160064697
0,1,522,-0.07713854312896729
0,1,523,-2.0483574867248535
0,1,524,-2.0485568046569824
0,1,525,-2.0484631061553955
0,1,526,-8.66364860534668
0,1,527,-0.2994339168071747
0,1,528,-2.686795234680176
0,1,529,-0.05576971173286438
0,1,530,-2.070326805114746
0,1,531,-4.3000946044921875
0,1,532,-0.07457411289215088
0,1,533,-0.30121996998786926
0,1,534,-2.8086817264556885
0,1,535,-1.9678953886032104
0,1,536,-2.7526004314422607
0,1,537,-6.766208171844482
0,1,538,-2.8493874073028564
0,1,539,-2.8288073539733887
0,1,540,-2.166759490966797
0,1,541,-0.44197818636894226
0,1,542,-2.0952439308166504
0,1,543,-0.25502458214759827
0,1,544,-5.610757827758789
0,1,545,-4.270640850067139
0,1,546,-2.117140769958496
0,1,547,-2.9506869316101074
0,1,548,-2.0136234760284424
0,1,549,-0.11961936950683594
0,1,550,-9.51234245300293
0,1,551,-2.6787898540496826
0,1,552,-2.310300827026367
0,1,553,-2.689188241958618
0,1,554,-1.9265881776809692
0,1,555,-0.38150233030319214
0,1,556,-2.085376024246216
0,1,557,-2.0581541061401367
0,1,558,-2.356581926345825
0,1,559,-2.892814874649048
0,1,560,-16.12103843688965
0,1,561,-4.4214558601379395
0,1,562,-2.31803035736084
0,1,563,-2.1914758682250977
0,1,564,-2.6037235260009766
0,1,565,-2.9094595909118652
0,1,566,-2.59972882270813
0,1,567,-2.051866292953491
0,1,568,-0.41097384691238403
0,1,569,-2.0262610912323
0,1,570,-2.0161454677581787
0,1,571,-2.7601258754730225
0,1,572,-2.6189374923706055
0,1,573,-0.1745445430278778
0,1,574,-2.805907964706421
0,1,575,-2.9577038288116455
0,1,576,-2.86673903465271
0,1,577,-2.2751097679138184
0,1,578,-3.0464141368865967
0,1,579,-2.186988353729248
0,1,580,-2.13053035736084
0,1,581,-3.998166799545288
0,1,582,-2.9231255054473877
0,1,583,-0.21310214698314667
0,1,584,-0.07022333145141602
0,1,585,-0.10640743374824524
0,1,586,-0.04787337779998779
0,1,587,-0.3577178716659546
0,1,588,-2.260289430618286
0,1,589,-2.107203960418701
0,1,590,-1.9443057775497437
0,1,591,-4.296777248382568
0,1,592,-0.4319738745689392
0,1,593,-0.13663169741630554
0,1,594,-2.362095594406128
0,1,595,-0.3593955338001251
0,1,596,-2.2084052562713623
0,1,597,-0.2104170322418213
0,1,598,-0.39361444115638733
0,1,599,-0.051477134227752686
0,1,600,-2.0330464839935303
0,1,601,-4.430830478668213
0,1,602,-5.626818656921387
0,1,603,-2.7984731197357178
0,1,604,-2.2334177494049072
0,1,605,-2.093796730041504
0,1,606,-2.8112967014312744
0,1,607,-2.6914145946502686
0,1,608,-0.281936377286911
0,1,609,-2.160015344619751
0,1,610,-2.129528522491455
0,1,611,-0.32761508226394653
0,1,612,-0.2574838101863861
0,1,613,-1.9745229482650757
0,1,614,-2.709172010421753
0,1,615,-2.820706844329834
0,1,616,-9.32458209991455
0,1,617,-0.11078870296478271
0,1,618,-2.603210687637329
0,1,619,-2.3357551097869873
0,1,620,-2.5946097373962402
0,1,621,-2.7871711254119873
0,1,622,-2.266942262649536
0,1,623,-2.168137311935425
0,1,624,-2.1705026626586914
0,1,625,-8.677441596984863
0,1,626,-2.9836668968200684
0,1,627,-19.783447265625
0,1,628,-0.29956158995628357
0,1,629,-9.163496971130371
0,1,630,-2.207180976867676
0,1,631,-0.024488061666488647
0,1,632,-8.661436080932617
0,1,633,-2.0152039527893066
0,1,634,-2.1585299968719482
0,1,635,-2.248650312423706
0,1,636,-0.12296953797340393
0,1,637,-2.0046474933624268
0,1,638,-2.8409130573272705
0,1,639,-2.585463047027588
0,1,640,-0.2244350016117096
0,1,641,-2.194467544555664
0,1,642,-8.491077423095703
0,1,643,-2.577103614807129
0,1,644,-2.9022209644317627
0,1,645,-2.6106457710266113
0,1,646,-0.2365124672651291
0,1,647,-0.40436118841171265
0,1,648,-2.669102191925049
0,1,649,-1.9614428281784058
0,1,650,-2.679527521133423
0,1,651,-2.9328038692474365
0,1,652,-0.3120129704475403
0,1,653,-9.492171287536621
0,1,654,-4.881050109863281
0,1,655,-0.41774266958236694
0,1,656,-0.26334643363952637
0,1,657,-3.885476589202881
0,1,658,-2.8178491592407227
0,1,659,-0.3848639130592346
0,1,660,-5.195288181304932
0,1,661,-2.6029396057128906
0,1,662,-2.9717824459075928
0,1,663,-2.744065761566162
0,1,664,-2.9266462326049805
0,1,665,-2.311225414276123
0,1,666,-2.234133243560791
0,1,667,-0.35802239179611206
0,1,668,-8.49679183959961
0,1,669,-2.144932746887207
0,1,670,-2.7329471111297607
0,1,671,-0.3306092321872711
0,1,672,-2.0413193702697754
0,1,673,-0.08783841133117676
0,1,674,-0.4263903498649597
0,1,675,-2.74756121635437
0,1,676,-2.7955496311187744
0,1,677,-0.29764124751091003
0,1,678,-8.31550407409668
0,1,679,-2.609631061553955
0,1,680,-0.3658321499824524
0,1,681,-0.40549540519714355
0,1,682,-2.034334182739258
0,1,683,-0.29063844680786133
0,1,684,-2.7917263507843018
0,1,685,-0.35356128215789795
0,1,686,-2.041080951690674
0,1,687,-0.143167644739151
0,1,688,-2.5645363330841064
0,1,689,-0.2987147271633148
0,1,690,-2.057833433151245
0,1,691,-0.4094162881374359
0,1,692,-1.928168535232544
0,1,693,-9.423784255981445
0,1,694,-1.9545353651046753
0,1,695,-2.308342933654785
0,1,696,-2.9159598350524902
0,1,697,-9.54167652130127
0,1,698,-2.8871541023254395
0,1,699,-8.528335571289062
0,1,700,-0.30271467566490173
0,1,701,-2.2942872047424316
0,1,702,-2.0869104862213135
0,1,703,-2.1739304065704346
0,1,704,-2.947087526321411
0,1,705,-2.8246068954467773
0,1,706,-0.30149614810943604
0,1,707,-2.963495969772339
0,1,708,-2.268406391143799
0,1,709,-2.602165937423706
0,1,710,-2.0780367851257324
0,1,711,-0.025861650705337524
0,1,712,-2.0504629611968994
0,1,713,-8.492999076843262
0,1,714,-2.853346347808838
0,1,715,-2.587470531463623
0,1,716,-0.11659768223762512
0,1,717,-5.129850387573242
0,1,718,-2.182457447052002
0,1,719,-2.014106273651123
0,1,720,-8.57651138305664
0,1,721,-2.913135290145874
0,1,722,-2.6739277839660645
0,1,723,-2.773043394088745
0,1,724,-1.9235503673553467
0,1,725,-0.2901908755302429
0,1,726,-2.796976089477539
0,1,727,-1.9832791090011597
0,1,728,-2.992039680480957
0,1,729,-2.6832668781280518
0,1,730,-0.15938004851341248
0,1,731,-2.3143932819366455
0,1,732,-0.372073233127594
0,1,733,-1.9466198682785034
0,1,734,-2.1918752193450928
0,1,735,-2.664120674133301
0,1,736,-0.12436500191688538
0,1,737,-2.5685741901397705
0,1,738,-2.1371288299560547
0,1,739,-2.8685717582702637
0,1,740,-0.06962841749191284
0,1,741,-0.2468811720609665
0,1,742,-2.2327542304992676
0,1,743,-2.294818878173828
0,1,744,-4.376648426055908
0,1,745,-2.310821056365967
0,1,746,-16.13975715637207
0,1,747,-2.1385622024536133
0,1,748,-0.23257601261138916
0,1,749,-2.815779209136963
0,1,750,-2.153676986694336
0,1,751,-1.9746037721633911
0,1,752,-2.5947651863098145
0,1,753,-9.231685638427734
0,1,754,-0.3936424255371094
0,1,755,-8.540994644165039
0,1,756,-1.9997279644012451
0,1,757,-2.900374412536621
0,1,758,-0.1743568480014801
0,1,759,-0.07769244909286499
0,1,760,-2.7146852016448975
0,1,761,-2.0633294582366943
0,1,762,-5.986734867095947
0,1,763,-0.28130900859832764
0,1,764,-0.28417718410491943
0,1,765,-0.031167954206466675
0,1,766,-2.3452818393707275
0,1,767,-0.1649627387523651
0,1,768,-2.9056308269500732
0,1,769,-2.5645534992218018
0,1,770,-2.888197898864746
0,1,771,-6.2666144371032715
0,1,772,-0.17889294028282166
0,1,773,-4.365281105041504
0,1,774,-2.8532207012176514
0,1,775,-2.011152744293213
0,1,776,-2.2999556064605713
0,1,777,-0.17887666821479797
0,1,778,-8.594378471374512
0,1,779,-2.55749249458313
0,1,780,-4.3384480476379395
0,1,781,-0.38558995723724365
0,1,782,-2.907068967819214
0,1,783,-8.486138343811035
0,1,784,-2.8366339206695557
0,1,785,-2.6049814224243164
0,1,786,-2.769031524658203
0,1,787,-2.3396921157836914
0,1,788,-0.408364474773407
0,1,789,-1.6699923276901245
0,1,790,-9.42390251159668
0,1,791,-2.2022509574890137
0,1,792,-1.9528942108154297
0,1,793,-0.3434755504131317
0,1,794,-2.630293130874634
0,1,795,-2.7641446590423584
0,1,796,-2.332095146179199
0,1,797,-0.0726686418056488
0,1,798,-6.66787576675415
0,1,799,-2.6101126670837402
0,1,800,-2.1566169261932373
0,1,801,-2.115020751953125
0,1,802,-11.086187362670898
0,1,803,-2.8363595008850098
0,1,804,-15.93927001953125
0,1,805,-0.21053260564804077
0,1,806,-3.9528486728668213
0,1,807,-0.26071590185165405
0,1,808,-0.016889631748199463
0,1,809,-0.3451686501502991
0,1,810,-2.1908445358276367
0,1,811,-2.2871320247650146
0,1,812,-2.0293781757354736
0,1,813,-2.5863428115844727
0,1,814,-2.2117526531219482
0,1,815,-0.22413116693496704
0,1,816,-2.766176462173462
0,1,817,-2.7904672622680664
0,1,818,-2.7682788372039795
0,1,819,-2.224581241607666
0,1,820,-4.349677085876465
0,1,821,-2.245105028152466
0,1,822,-2.328796863555908
0,1,823,-6.259054660797119
0,1,824,-0.11647453904151917
0,1,825,-9.525567054748535
0,1,826,-2.856156349182129
0,1,827,-0.3796166777610779
0,1,828,-0.44593122601509094
0,1,829,-2.040806770324707
0,1,830,-8.325050354003906
0,1,831,-9.21236801147461
0,1,832,-2.1567721366882324
0,1,833,-8.599222183227539
0,1,834,-8.623724937438965
0,1,835,-2.262049913406372
0,1,836,-0.1681128740310669
0,1,837,-2.7316055297851562
0,1,838,-2.7171735763549805
0,1,839,-4.3309197425842285
0,1,840,-2.5948994159698486
0,1,841,-8.501112937927246
0,1,842,-2.987840414047241
0,1,843,-2.00471830368042
0,1,844,-0.4118509888648987
0,1,845,-0.14087268710136414
0,1,846,-1.9476865530014038
0,1,847,-0.09279254078865051
0,1,848,-2.2753102779388428
0,1,849,-5.631320953369141
0,1,850,-9.230795860290527
0,1,851,-2.2551164627075195
0,1,852,-2.8219029903411865
0,1,853,-0.19967268407344818
0,1,854,-0.22395636141300201
0,1,855,-0.38545694947242737
0,1,856,-0.04934915900230408
0,1,857,-1.9257850646972656
0,1,858,-0.18102365732192993
0,1,859,-2.630342721939087
0,1,860,-2.362734079360962
0,1,861,-2.58971905708313
0,1,862,-4.857664108276367
0,1,863,-0.30474144220352173
0,1,864,-0.10989803075790405
0,1,865,-0.2688242197036743
0,1,866,-0.1691991686820984
0,1,867,-0.08811616897583008
0,1,868,-2.1537435054779053
0,1,869,-0.1992131918668747
0,1,870,-2.310192108154297
0,1,871,-0.26579612493515015
0,1,872,-1.933326244354248
0,1,873,-0.4021262228488922
0,1,874,-0.4314609467983246
0,1,875,-3.9415173530578613
0,1,876,-0.31540238857269287
0,1,877,-2.109341621398926
0,1,878,-8.636359214782715
0,1,879,-2.8489301204681396
0,1,880,-2.7431442737579346
0,1,881,-8.664213180541992
0,1,882,-2.1179699897766113
0,1,883,-0.17472201585769653
0,1,884,-4.693573951721191
0,1,885,-1.9596662521362305
0,1,886,-4.354729652404785
0,1,887,-2.7432847023010254
0,1,888,-9.16297435760498
0,1,889,-0.0887337327003479
0,1,890,-2.176500082015991
0,1,891,-0.38386696577072144
0,1,892,-2.7872445583343506
0,1,893,-9.395689964294434
0,1,894,-14.521927833557129
0,1,895,-2.067455768585205
0,1,896,-3.0018866062164307
0,1,897,-2.9090487957000732
0,1,898,-2.6569089889526367
0,1,899,-2.0747549533843994
0,1,900,-2.855919599533081
0,1,901,-0.28735750913619995
0,1,902,-0.3616212010383606
0,1,903,-0.23829825222492218
0,1,904,-2.7473700046539307
0,1,905,-4.331472873687744
0,1,906,-0.3759678304195404
0,1,907,-2.032702684402466
0,1,908,-2.6893820762634277
0,1,909,-9.245604515075684
0,1,910,-0.0957556962966919
0,1,911,-5.673661708831787
0,1,912,-2.19696307182312
0,1,913,-0.1653275489807129
0,1,914,-0.09567064046859741
0,1,915,-2.1003258228302
0,1,916,-2.582747459411621
0,1,917,-2.811716318130493
0,1,918,-2.632054090499878
0,1,919,-0.4099324941635132
0,1,920,-2.5844290256500244
0,1,921,-2.6623175144195557
0,1,922,-9.260419845581055
0,1,923,-0.37317901849746704
0,1,924,-9.450401306152344
0,1,925,-1.9270732402801514
0,1,926,-0.06986191868782043
0,1,927,-0.41593703627586365
0,1,928,-9.202343940734863
0,1,929,-2.3279783725738525
0,1,930,-2.5596046447753906
0,1,931,-1.9749962091445923
0,1,932,-16.002338409423828
0,1,933,-1.9551477432250977
0,1,934,-5.705389499664307
0,1,935,-6.902693748474121
0,1,936,-2.6747641563415527
0,1,937,-9.486041069030762
0,1,938,-0.10956364870071411
0,1,939,-0.13673070073127747
0,1,940,-9.490851402282715
0,1,941,-8.682147026062012
0,1,942,-2.7868382930755615
0,1,943,-2.811032295227051
0,1,944,-2.192368745803833
0,1,945,-10.77328109741211
0,1,946,-2.241270065307617
0,1,947,-2.011827230453491
0,1,948,-1.9877145290374756
0,1,949,-6.252686023712158
0,1,950,-0.35541537404060364
0,1,951,-2.080760955810547
0,1,952,-0.22408676147460938
0,1,953,-2.166184902191162
0,1,954,-2.760472536087036
0,1,955,-2.143155336380005
0,1,956,-2.925588846206665
0,1,957,-2.898270845413208
0,1,958,-2.0172040462493896
0,1,959,-0.010363638401031494
0,1,960,-2.817617893218994
0,1,961,-2.8859951496124268
0,1,962,-2.8686063289642334
0,1,963,-2.335261583328247
0,1,964,-0.4287784695625305
0,1,965,-0.3347048759460449
0,1,966,-14.721723556518555
0,1,967,-0.24234820902347565
0,1,968,-8.549822807312012
0,1,969,-0.44095033407211304
0,1,970,-5.659294605255127
0,1,971,-0.0003026127815246582
0,1,972,-0.28494393825531006
0,1,973,-9.29544448852539
0,1,974,-6.088796138763428
0,1,975,-2.125821828842163
0,1,976,-0.11683285236358643
0,1,977,-2.587353467941284
0,1,978,-5.520021438598633
0,1,979,-14.724573135375977
0,1,980,-0.204840749502182
0,1,981,-2.835264205932617
0,1,982,-0.04562878608703613
0,1,983,-9.55862808227539
0,1,984,-2.28999924659729
0,1,985,-2.8022587299346924
0,1,986,-0.1377854347229004
0,1,987,-2.1020405292510986
0,1,988,-8.499138832092285
0,1,989,-2.6168718338012695
0,1,990,-2.6961894035339355
0,1,991,-4.654521942138672
0,1,992,-0.11595207452774048
0,1,993,-2.088898181915283
0,1,994,-2.7654099464416504
0,1,995,-0.0415303111076355
0,1,996,-0.1370847523212433
0,1,997,-0.00540238618850708
0,1,998,-0.24211576581001282
0,1,999,-0.025617599487304688
0,1,1000,-2.1961278915405273
0,1,1001,-9.404157638549805
0,1,1002,-2.2958974838256836
0,1,1003,-2.5635173320770264
0,1,1004,-0.22895874083042145
0,1,1005,-0.3578186631202698
0,1,1006,-2.2052431106567383
0,1,1007,-2.9030041694641113
0,1,1008,-3.0014445781707764
0,1,1009,-4.0222063064575195
0,1,1010,-2.278721332550049
0,1,1011,-2.5855214595794678
0,1,1012,-2.2020933628082275
0,1,1013,-4.986987113952637
0,1,1014,-0.15297958254814148
0,1,1015,-2.312518358230591
0,1,1016,-9.53425407409668
0,1,1017,-2.077591896057129
0,1,1018,-9.514791488647461
0,1,1019,-0.0852782130241394
0,1,1020,-2.1175918579101562
0,1,1021,-8.648429870605469
0,1,1022,-2.7877776622772217
0,1,1023,-2.1174633502960205
0,1,1024,-0.13282468914985657
0,1,1025,-0.08595862984657288
0,1,1026,-2.623910903930664
0,1,1027,-2.893460512161255
0,1,1028,-0.32111793756484985
0,1,1029,-2.991929054260254
0,1,1030,-2.7117600440979004
0,1,1031,-0.22314494848251343
0,1,1032,-2.7314043045043945
0,1,1033,-0.2852652370929718
0,1,1034,-2.999389171600342
0,1,1035,-2.880470037460327
0,1,1036,-2.800525665283203
0,1,1037,-0.3441196084022522
0,1,1038,-2.846745014190674
0,1,1039,-2.205416440963745
0,1,1040,-2.0326790809631348
0,1,1041,-4.440384387969971
0,1,1042,-0.1847027838230133
0,1,1043,-0.3470596671104431
0,1,1044,-8.563422203063965
0,1,1045,-2.190829038619995
0,1,1046,-0.38230448961257935
0,1,1047,-1.941239356994629
0,1,1048,-2.7596278190612793
0,1,1049,-11.118268966674805
0,1,1050,-1.9408109188079834
0,1,1051,-4.3873395919799805
0,1,1052,-2.2854082584381104
0,1,1053,-3.0003788471221924
0,1,1054,-0.3420031666755676
0,1,1055,-8.55480670928955
0,1,1056,-2.2708702087402344
0,1,1057,-5.675149917602539
0,1,1058,-2.8854501247406006
0,1,1059,-0.30821478366851807
0,1,1060,-2.642571210861206
0,1,1061,-2.9667813777923584
0,1,1062,-2.207409143447876
0,1,1063,-2.3413946628570557
0,1,1064,-1.927534580230713
0,1,1065,-0.3616349697113037
0,1,1066,-0.03870952129364014
0,1,1067,-0.1607159972190857
0,1,1068,-2.906662940979004
0,1,1069,-2.0944595336914062
0,1,1070,-0.44433510303497314
0,1,1071,-2.0779359340667725
0,1,1072,-9.5524263381958
0,1,1073,-2.8887970447540283
0,1,1074,-2.6150004863739014
0,1,1075,-2.3466925621032715
0,1,1076,-5.720090866088867
0,1,1077,-0.009411275386810303
0,1,1078,-5.760322570800781
0,1,1079,-2.0919785499572754
0,1,1080,-0.2829551100730896
0,1,1081,-2.1102919578552246
0,1,1082,-2.0189528465270996
0,1,1083,-2.8654556274414062
0,1,1084,-2.2544281482696533
0,1,1085,-11.352071762084961
0,1,1086,-0.3264460861682892
0,1,1087,-6.188689231872559
0,1,1088,-0.2548789978027344
0,1,1089,-0.2129543572664261
0,1,1090,-9.4891996383667
0,1,1091,-0.39220231771469116
0,1,1092,-0.42739516496658325
0,1,1093,-6.710057258605957
0,1,1094,-0.0966043472290039
0,1,1095,-2.585437297821045
0,1,1096,-2.041506290435791
0,1,1097,-2.990363836288452
0,1,1098,-2.7383108139038086
0,1,1099,-2.9845614433288574
0,1,1100,-2.8181402683258057
0,1,1101,-2.8404645919799805
0,1,1102,-0.3718454837799072
0,1,1103,-0.2295912355184555
0,1,1104,-0.07313060760498047
0,1,1105,-8.636049270629883
0,1,1106,-2.23173189163208
0,1,1107,-0.3466607928276062
0,1,1108,-1.9619553089141846
0,1,1109,-2.6595396995544434
0,1,1110,-2.326465606689453
0,1,1111,-2.8430752754211426
0,1,1112,-9.44963550567627
0,1,1113,-8.402749061584473
0,1,1114,-0.058205217123031616
0,1,1115,-0.3549194037914276
0,1,1116,-0.3492731750011444
0,1,1117,-0.06453263759613037
0,1,1118,-8.531686782836914
0,1,1119,-0.20173682272434235
0,1,1120,-2.96298885345459
0,1,1121,-8.545866012573242
0,1,1122,-2.783435106277466
0,1,1123,-2.054999828338623
0,1,1124,-8.612346649169922
0,1,1125,-0.21733959019184113
0,1,1126,-0.17033833265304565
0,1,1127,-1.9582053422927856
0,1,1128,-2.072601556777954
0,1,1129,-2.9502453804016113
0,1,1130,-0.039174884557724
0,1,1131,-2.566348075866699
0,1,1132,-0.42370080947875977
0,1,1133,-2.2772085666656494
0,1,1134,-0.36550062894821167
0,1,1135,-9.352330207824707
0,1,1136,-4.544131278991699
0,1,1137,-2.805999517440796
0,1,1138,-0.4125443696975708
0,1,1139,-2.456268310546875
0,1,1140,-0.3926331102848053
0,1,1141,-0.09351322054862976
0,1,1142,-0.09290418028831482
0,1,1143,-4.368740558624268
0,1,1144,-2.6109299659729004
0,1,1145,-0.19983315467834473
0,1,1146,-11.258415222167969
0,1,1147,-0.3617238402366638
0,1,1148,-0.13166120648384094
0,1,1149,-2.6825389862060547
0,1,1150,-10.95960807800293
0,1,1151,-2.7721915245056152
0,1,1152,-0.15357443690299988
0,1,1153,-2.1137843132019043
0,1,1154,-2.816725730895996
0,1,1155,-4.356990337371826
0,1,1156,-2.056990623474121
0,1,1157,-2.7716152667999268
0,1,1158,-6.706254005432129
0,1,1159,-4.341986656188965
0,1,1160,-9.438501358032227
0,1,1161,-2.2110188007354736
0,1,1162,-0.2502244710922241
0,1,1163,-0.3159809112548828
0,1,1164,-9.546191215515137
0,1,1165,-2.0494344234466553
0,1,1166,-2.648244857788086
0,1,1167,-9.505090713500977
0,1,1168,-0.08958828449249268
0,1,1169,-2.0466432571411133
0,1,1170,-2.296247720718384
0,1,1171,-0.2615765333175659
0,1,1172,-2.6149392127990723
0,1,1173,-9.402244567871094
0,1,1174,-2.212973117828369
0,1,1175,-6.8153228759765625
0,1,1176,-4.630904674530029
0,1,1177,-5.107425689697266
0,1,1178,-4.690672874450684
0,1,1179,-9.349223136901855
0,1,1180,-1.9590131044387817
0,1,1181,-2.363140821456909
0,1,1182,-2.144263505935669
0,1,1183,-2.702493906021118
0,1,1184,-0.4294803738594055
0,1,1185,-9.326032638549805
0,1,1186,-2.296077013015747
0,1,1187,-0.4446519911289215
0,1,1188,-17.846050262451172
0,1,1189,-2.2305171489715576
0,1,1190,-2.682108163833618
0,1,1191,-2.2585835456848145
0,1,1192,-2.143899917602539
0,1,1193,-8.590818405151367
0,1,1194,-0.21537494659423828
0,1,1195,-2.557373285293579
0,1,1196,-2.7506041526794434
0,1,1197,-0.24394591152668
0,1,1198,-9.351781845092773
0,1,1199,-0.0862281322479248
0,1,1200,-2.743438243865967
0,1,1201,-2.8460330963134766
0,1,1202,-9.417929649353027
0,1,1203,-0.183243989944458
0,1,1204,-2.812168836593628
0,1,1205,-2.7944440841674805
0,1,1206,-9.521854400634766
0,1,1207,-2.8114964962005615
0,1,1208,-9.382308959960938
0,1,1209,-2.788224697113037
0,1,1210,-4.416379451751709
0,1,1211,-1.8372790813446045
0,1,1212,-2.559530019760132
0,1,1213,-0.10039922595024109
0,1,1214,-2.0872254371643066
0,1,1215,-2.1028573513031006
0,1,1216,-0.21598723530769348
0,1,1217,-5.492328643798828
0,1,1218,-3.8824169635772705
0,1,1219,-0.3699537515640259
0,1,1220,-2.045968532562256
0,1,1221,-1.9561594724655151
0,1,1222,-3.6818747520446777
0,1,1223,-2.580564260482788
0,1,1224,-0.21616965532302856
0,1,1225,-1.9248020648956299
0,1,1226,-0.39822831749916077
0,1,1227,-3.975827217102051
0,1,1228,-11.169450759887695
0,1,1229,-1.9436880350112915
0,1,1230,-0.37084805965423584
0,1,1231,-2.949594736099243
0,1,1232,-2.0427005290985107
0,1,1233,-0.32861024141311646
0,1,1234,-2.6902575492858887
0,1,1235,-2.791778326034546
0,1,1236,-2.3560261726379395
0,1,1237,-1.992074728012085
0,1,1238,-2.7386951446533203
0,1,1239,-0.44086241722106934
0,1,1240,-2.792022466659546
0,1,1241,-0.05524429678916931
0,1,1242,-2.910916566848755
0,1,1243,-6.734786510467529
0,1,1244,-9.429988861083984
0,1,1245,-0.4335949420928955
0,1,1246,-8.683467864990234
0,1,1247,-2.9870047569274902
0,1,1248,-2.830603837966919
0,1,1249,-2.621267557144165
0,1,1250,-2.6424176692962646
0,1,1251,-1.9830328226089478
0,1,1252,-0.021635621786117554
0,1,1253,-2.071089029312134
0,1,1254,-2.040574073791504
0,1,1255,-8.609173774719238
0,1,1256,-2.168327569961548
0,1,1257,-2.839500904083252
0,1,1258,-0.03020802140235901
0,1,1259,-0.3042638301849365
0,1,1260,-2.9523162841796875
0,1,1261,-2.884970188140869
0,1,1262,-2.6290805339813232
0,1,1263,-0.04753315448760986
0,1,1264,-4.705482482910156
0,1,1265,-2.599172353744507
0,1,1266,-2.7294764518737793
0,1,1267,-2.7302582263946533
0,1,1268,-2.144573926925659
0,1,1269,-2.0711381435394287
0,1,1270,-0.13529044389724731
0,1,1271,-2.9118423461914062
0,1,1272,-0.03405258059501648
0,1,1273,-0.24110423028469086
0,1,1274,-2.3354990482330322
0,1,1275,-0.30943113565444946
0,1,1276,-2.1960716247558594
0,1,1277,-2.09012508392334
0,1,1278,-2.589026689529419
0,1,1279,-0.3588114380836487
0,1,1280,-2.2849507331848145
0,1,1281,-2.583735942840576
0,1,1282,-9.461357116699219
0,1,1283,-2.345257043838501
0,1,1284,-2.9168455600738525
0,1,1285,-1.9265466928482056
0,1,1286,-2.9690022468566895
0,1,1287,-0.43168535828590393
0,1,1288,-2.012854814529419
0,1,1289,-2.928079128265381
0,1,1290,-2.62223482131958
0,1,1291,-2.579664468765259
0,1,1292,-2.630561590194702
0,1,1293,-0.29917871952056885
0,1,1294,-0.4043636918067932
0,1,1295,-2.845524787902832
0,1,1296,-2.747391700744629
0,1,1297,-0.2342604547739029
0,1,1298,-2.588628053665161
0,1,1299,-0.28606629371643066
0,1,1300,-2.9288551807403564
0,1,1301,-0.2686123847961426
0,1,1302,-2.7685320377349854
0,1,1303,-4.514832496643066
0,1,1304,-2.8257651329040527
0,1,1305,-2.9590673446655273
0,1,1306,-0.29139024019241333
0,1,1307,-2.6385481357574463
0,1,1308,-9.509831428527832
0,1,1309,-0.13479554653167725
0,1,1310,-0.3708351254463196
0,1,1311,-8.68508529663086
0,1,1312,-2.151392936706543
0,1,1313,-1.9282877445220947
0,1,1314,-14.457286834716797
0,1,1315,-2.202192544937134
0,1,1316,-2.9932126998901367
0,1,1317,-4.416390419006348
0,1,1318,-0.017015695571899414
0,1,1319,-2.2682034969329834
0,1,1320,-2.7178702354431152
0,1,1321,-0.42429906129837036
0,1,1322,-0.34129971265792847
0,1,1323,-6.9238996505737305
0,1,1324,-2.8646419048309326
0,1,1325,-4.6671061515808105
0,1,1326,-2.9105191230773926
0,1,1327,-2.2932024002075195
0,1,1328,-2.606111526489258
0,1,1329,-5.643259525299072
0,1,1330,-10.885843276977539
0,1,1331,-0.23938779532909393
0,1,1332,-2.8877687454223633
0,1,1333,-2.1556079387664795
0,1,1334,-2.0639212131500244
0,1,1335,-2.043527841567993
0,1,1336,-1.9569982290267944
0,1,1337,-2.160978078842163
0,1,1338,-2.1745457649230957
0,1,1339,-9.282320022583008
0,1,1340,-2.7590341567993164
0,1,1341,-9.261680603027344
0,1,1342,-0.27471137046813965
0,1,1343,-9.565751075744629
0,1,1344,-9.555875778198242
0,1,1345,-0.19631296396255493
0,1,1346,-0.09475427865982056
0,1,1347,-0.23190534114837646
0,1,1348,-0.2799896001815796
0,1,1349,-2.319887399673462
0,1,1350,-6.020753860473633
0,1,1351,-0.05489128828048706
0,1,1352,-2.961829662322998
0,1,1353,-0.3960462212562561
0,1,1354,-5.191989421844482
0,1,1355,-0.3790145218372345
0,1,1356,-2.1257314682006836
0,1,1357,-2.843575954437256
0,1,1358,-0.19413942098617554
0,1,1359,-1.9912701845169067
0,1,1360,-2.636420726776123
0,1,1361,-1.9838452339172363
0,1,1362,-2.7102222442626953
0,1,1363,-2.344583034515381
0,1,1364,-2.2430527210235596
0,1,1365,-2.3185110092163086
0,1,1366,-0.0557386577129364
0,1,1367,-2.6646249294281006
0,1,1368,-0.2164975255727768
0,1,1369,-0.20168472826480865
0,1,1370,-2.648123025894165
0,1,1371,-0.19778458774089813
0,1,1372,-0.20974935591220856
0,1,1373,-4.055532932281494
0,1,1374,-1.9812591075897217
0,1,1375,-2.23697829246521
0,1,1376,-9.27207088470459
0,1,1377,-0.13271304965019226
0,1,1378,-8.317776679992676
0,1,1379,-0.0687335729598999
0,1,1380,-2.883378505706787
0,1,1381,-2.350024461746216
0,1,1382,-2.6292757987976074
0,1,1383,-0.25978320837020874
0,1,1384,-2.7070209980010986
0,1,1385,-2.1549737453460693
0,1,1386,-0.36653029918670654
0,1,1387,-2.2980539798736572
0,1,1388,-2.9573447704315186
0,1,1389,-0.15669935941696167
0,1,1390,-0.15287187695503235
0,1,1391,-6.185310363769531
0,1,1392,-2.8439512252807617
0,1,1393,-2.8389291763305664
0,1,1394,-2.9410312175750732
0,1,1395,-2.017946481704712
0,1,1396,-2.227290391921997
0,1,1397,-4.063239097595215
0,1,1398,-2.9182043075561523
0,1,1399,-2.328091621398926
0,1,1400,-2.876561164855957
0,1,1401,-0.15846315026283264
0,1,1402,-2.9752309322357178
0,1,1403,-4.368685722351074
0,1,1404,-2.836136817932129
0,1,1405,-0.4318006634712219
0,1,1406,-2.6882762908935547
0,1,1407,-2.858825206756592
0,1,1408,-0.320309042930603
0,1,1409,-2.927186965942383
0,1,1410,-2.7238214015960693
0,1,1411,-2.126505136489868
0,1,1412,-0.03133147954940796
0,1,1413,-0.0835125744342804
0,1,1414,-2.8671579360961914
0,1,1415,-0.0151747465133667
0,1,1416,-2.04632306098938
0,1,1417,-2.751528024673462
0,1,1418,-2.636613130569458
0,1,1419,-3.9812467098236084
0,1,1420,-5.15030574798584
0,1,1421,-2.2929937839508057
0,1,1422,-2.929788827896118
0,1,1423,-11.122034072875977
0,1,1424,-2.6816604137420654
0,1,1425,-9.519670486450195
0,1,1426,-2.613873243331909
0,1,1427,-0.1432863175868988
0,1,1428,-9.393548011779785
0,1,1429,-5.080905914306641
0,1,1430,-8.462967872619629
0,1,1431,-0.007424294948577881
0,1,1432,-0.1446957290172577
0,1,1433,-2.8466811180114746
0,1,1434,-0.23096881806850433
0,1,1435,-2.9249227046966553
0,1,1436,-0.41936972737312317
0,1,1437,-2.9678332805633545
0,1,1438,-0.3371116518974304
0,1,1439,-2.63961124420166
0,1,1440,-0.06722515821456909
0,1,1441,-0.20042844116687775
0,1,1442,-2.941981315612793
0,1,1443,-2.1127266883850098
0,1,1444,-0.42046108841896057
0,1,1445,-2.1581742763519287
0,1,1446,-0.30874383449554443
0,1,1447,-0.13947275280952454
0,1,1448,-2.0222249031066895
0,1,1449,-1.9573376178741455
0,1,1450,-1.9588748216629028
0,1,1451,-2.1061387062072754
0,1,1452,-0.3137289881706238
0,1,1453,-0.30597156286239624
0,1,1454,-0.3099046051502228
0,1,1455,-2.3458364009857178
0,1,1456,-2.876521110534668
0,1,1457,-0.4396766424179077
0,1,1458,-0.13960987329483032
0,1,1459,-9.506739616394043
0,1,1460,-2.9572722911834717
0,1,1461,-2.265141010284424
0,1,1462,-2.2331666946411133
0,1,1463,-0.09149855375289917
0,1,1464,-2.3384761810302734
0,1,1465,-8.597987174987793
0,1,1466,-2.885749578475952
0,1,1467,-0.18140405416488647
0,1,1468,-2.81960391998291
0,1,1469,-0.16123968362808228
0,1,1470,-0.09330946207046509
0,1,1471,-2.593125104904175
0,1,1472,-0.21954122185707092
0,1,1473,-8.637404441833496
0,1,1474,-2.036651134490967
0,1,1475,-9.259799003601074
0,1,1476,-2.357398509979248
0,1,1477,-2.6927523612976074
0,1,1478,-1.9180481433868408
0,1,1479,-9.463652610778809
0,1,1480,-0.28901052474975586
0,1,1481,-2.6253623962402344
0,1,1482,-2.948347568511963
0,1,1483,-9.416068077087402
0,1,1484,-1.9695532321929932
0,1,1485,-2.0671892166137695
0,1,1486,-0.4306771755218506
0,1,1487,-2.864969491958618
0,1,1488,-0.4355665147304535
0,1,1489,-2.059615135192871
0,1,1490,-2.647186040878296
0,1,1491,-0.12317484617233276
0,1,1492,-2.2963626384735107
0,1,1493,-0.37110525369644165
0,1,1494,-2.773686647415161
0,1,1495,-2.1238820552825928
0,1,1496,-2.0276923179626465
0,1,1497,-0.3387484848499298
0,1,1498,-2.2852721214294434
0,1,1499,-2.5954649448394775
0,1,1500,-2.1420552730560303
0,1,1501,-0.14271700382232666
0,1,1502,-5.621767997741699
0,1,1503,-2.08243989944458
0,1,1504,-2.232290029525757
0,1,1505,-2.648158073425293
0,1,1506,-6.2342329025268555
